/*!
 * The following copyright notice may not be removed under any circumstances.
 * 
 * Copyright:
 * Typeface © FontSite Inc., 1996-2008. All Rights Reserved. www.fontsite.com
 * 
 * Trademark:
 * Bergamo is a trademark of FontSite Inc.
 * 
 * Designer:
 * FontSite.com
 * 
 * Vendor URL:
 * http://www.fontsite.com
 * 
 * License information:
 * http://www.fontsite.com/license.html
 */
Cufon.registerFont({"w":536,"face":{"font-family":"Bergamo Std","font-weight":700,"font-stretch":"normal","units-per-em":"1000","panose-1":"2 4 8 7 6 3 6 2 4 4","ascent":"722","descent":"-278","x-height":"11","bbox":"-127.047 -904 1098 258","underline-thickness":"50","underline-position":"-50","unicode-range":"U+0020-U+2122"},"glyphs":{" ":{"w":250},"!":{"d":"216,-683v23,1,31,1,32,21v0,7,-1,14,-2,22r-60,399r-37,0r-63,-420v0,-19,9,-21,30,-22r100,0xm165,11v-44,0,-83,-30,-83,-72v0,-43,42,-72,86,-72v46,0,86,28,86,71v0,43,-43,73,-89,73","w":335},"\"":{"d":"248,-678v31,-1,57,23,55,54v-4,63,-28,151,-39,214r-32,0v-12,-67,-39,-138,-39,-210v0,-39,18,-58,55,-58xm98,-678v31,-1,57,23,55,54v-4,63,-28,151,-39,214r-32,0v-12,-67,-39,-138,-39,-210v0,-39,18,-58,55,-58","w":347},"#":{"d":"99,0r30,-219r-94,0r8,-55r94,0r19,-132r-95,0r8,-55r94,0r29,-206r58,0r-29,206r133,0r29,-206r59,0r-29,206r89,0r-8,55r-89,0r-18,132r89,0r-8,55r-89,0r-31,219r-58,0r30,-219r-133,0r-30,219r-58,0xm195,-274r133,0r19,-132r-133,0"},"$":{"d":"243,12v-92,-1,-200,-62,-202,-146v-1,-35,25,-64,59,-62v46,2,55,32,67,79v13,55,26,80,76,91r0,-259v-45,-25,-75,-42,-90,-53v-63,-45,-94,-99,-94,-160v1,-104,83,-168,184,-177r0,-43r34,0r0,42v81,0,184,56,186,127v1,29,-26,57,-55,55v-43,-2,-57,-28,-70,-75v-10,-36,-32,-59,-61,-69r0,215v88,45,139,70,181,129v20,28,29,63,29,102v1,114,-98,196,-210,203r0,89r-34,0r0,-88xm243,-640v-43,4,-86,42,-84,87v3,60,37,82,84,112r0,-199xm277,-25v54,-6,102,-55,100,-115v-3,-70,-44,-94,-100,-127r0,242"},"%":{"d":"131,30r478,-715r76,0r-478,715r-76,0xm366,-481v0,103,-69,195,-167,195v-97,0,-169,-94,-169,-195v0,-101,73,-196,169,-196v97,0,167,94,167,196xm200,-629v-104,0,-105,221,-47,276v15,13,30,20,45,20v61,-3,85,-78,85,-153v0,-71,-24,-143,-83,-143xm652,10v-97,0,-169,-94,-169,-195v0,-101,73,-196,169,-196v97,0,167,94,167,196v0,103,-69,195,-167,195xm653,-333v-104,0,-105,221,-47,276v15,13,30,20,45,20v61,-3,85,-78,85,-153v0,-71,-24,-143,-83,-143","w":849},"&":{"d":"248,17v-104,2,-189,-82,-187,-185v0,-41,14,-76,42,-106v28,-30,72,-57,132,-82v-53,-49,-80,-96,-80,-141v1,-85,85,-130,178,-130v83,0,155,38,156,113v0,51,-32,92,-97,124v65,46,91,82,148,155v26,-35,77,-125,84,-169v3,-15,-33,-19,-63,-18r0,-40r212,0r0,40v-69,-1,-83,10,-109,61v-44,85,-78,140,-99,167v21,36,55,100,77,120v33,31,71,21,104,-9r20,38v-32,32,-93,61,-152,61v-77,-1,-112,-42,-147,-99v-49,52,-129,98,-219,100xm329,-586v-59,0,-71,72,-38,112v7,9,38,38,62,57v28,-23,46,-59,46,-94v0,-43,-28,-75,-70,-75xm192,-209v0,71,59,149,127,147v38,0,80,-21,125,-62v-32,-62,-98,-137,-175,-205v-51,31,-77,71,-77,120","w":805},"'":{"d":"98,-678v31,-1,57,23,55,54v-4,63,-28,151,-39,214r-32,0v-12,-67,-39,-138,-39,-210v0,-39,18,-58,55,-58","w":197},"(":{"d":"203,-231v0,201,48,330,144,443r-45,0v-57,-51,-99,-96,-126,-134v-69,-95,-104,-200,-104,-316v0,-117,42,-227,123,-330v36,-46,72,-84,110,-115r45,0v-98,120,-147,244,-147,452","w":380},")":{"d":"163,-233v0,-205,-50,-334,-148,-450r45,0v40,32,82,76,125,133v152,194,142,463,-11,649v-26,32,-63,70,-111,113r-45,0v96,-113,145,-243,145,-445","w":380},"*":{"d":"139,-227r-36,-23r70,-157r-146,-85r13,-41r170,15r37,-165r40,0r37,165r172,-15r13,40r-148,86r67,157r-34,23r-129,-114"},"+":{"d":"239,-121r0,-170r-184,0r0,-60r184,0r0,-170r60,0r0,170r183,0r0,60r-183,0r0,170r-60,0"},",":{"d":"148,10v-45,1,-80,-27,-80,-71v0,-44,37,-72,84,-72v70,0,115,51,115,123v0,95,-76,172,-176,167r-9,-46v59,-3,116,-34,118,-88v1,-27,-33,-13,-52,-13","w":335},"-":{"d":"39,-164r0,-107r371,0r0,107r-371,0","w":447},".":{"d":"164,11v-44,0,-83,-30,-83,-72v0,-43,42,-72,86,-72v46,0,86,28,86,71v0,43,-43,73,-89,73","w":335},"\/":{"d":"6,258r240,-985r94,0r-240,985r-94,0","w":369},"0":{"d":"269,16v-65,0,-118,-34,-161,-99v-85,-130,-81,-397,10,-520v31,-42,85,-80,151,-81v67,0,119,33,161,97v78,119,81,387,-1,507v-43,63,-95,96,-160,96xm188,-132v6,59,27,108,82,108v41,0,66,-28,77,-83v13,-66,6,-408,0,-447v-7,-47,-35,-88,-82,-89v-35,0,-59,21,-71,64v-18,60,-10,397,-6,447"},"1":{"d":"115,0r0,-35r68,-2v23,-1,34,-15,34,-43r0,-469v-19,15,-97,50,-126,57r-15,-33v86,-40,157,-93,213,-159r61,0r0,599v0,31,12,47,36,48r71,2r0,35r-342,0"},"2":{"d":"346,-112v74,-2,79,-16,93,-82r35,0r-21,194r-419,0r0,-38v89,-92,160,-172,214,-240v47,-60,70,-120,70,-179v1,-78,-36,-138,-108,-138v-66,0,-113,58,-124,119r-41,0v13,-113,95,-207,214,-208v106,-1,190,83,188,190v0,43,-12,81,-31,114v-35,62,-217,211,-256,268r186,0"},"3":{"d":"185,17v-71,0,-152,-32,-155,-91v-1,-31,26,-57,57,-56v73,0,68,100,143,97v64,-2,94,-73,94,-147v0,-91,-52,-178,-143,-147r-18,-31v35,-25,61,-52,81,-81v20,-29,30,-56,30,-81v1,-45,-33,-82,-77,-81v-40,0,-74,26,-102,79r-31,-14v25,-82,93,-146,191,-148v74,-2,147,49,144,119v-3,80,-50,110,-113,151v37,1,65,9,87,23v51,33,77,85,77,157v0,145,-118,251,-265,251"},"4":{"d":"35,-167r0,-48r307,-469r57,0r0,446r90,0r0,71r-90,0r0,183r-133,0r0,-183r-231,0xm100,-238r166,0r0,-255"},"5":{"d":"198,17v-72,0,-146,-28,-150,-88v-3,-47,59,-70,94,-43v10,8,21,23,34,44v17,28,36,42,59,42v64,-1,99,-71,99,-143v0,-88,-47,-159,-129,-159v-28,0,-56,7,-83,21r-31,-17r14,-341r237,0v29,1,30,-4,40,-19r35,0r-19,124r-255,0r-5,128v175,-52,321,52,322,213v1,140,-118,238,-262,238"},"6":{"d":"283,16v-146,0,-234,-126,-232,-281v2,-225,164,-385,366,-419r21,33v-120,39,-215,141,-234,275v35,-26,71,-39,110,-39v112,-1,182,89,182,205v0,128,-87,226,-213,226xm195,-328v-4,30,-7,59,-7,102v0,135,30,203,90,203v35,0,58,-18,70,-54v18,-51,17,-219,-9,-254v-15,-21,-33,-33,-60,-33v-25,0,-53,12,-84,36"},"7":{"d":"162,-548v-69,2,-70,8,-85,66r-38,0r15,-185r434,0r0,42r-246,641r-106,0r241,-564r-215,0"},"8":{"d":"265,16v-106,0,-215,-72,-215,-179v0,-70,43,-123,130,-158v-66,-47,-117,-95,-119,-181v-2,-104,96,-182,205,-182v101,0,206,68,205,161v0,62,-42,112,-126,149v95,50,142,113,142,190v0,110,-107,200,-222,200xm263,-644v-57,-1,-98,37,-97,93v0,29,12,55,34,79v22,24,59,48,112,75v36,-27,55,-69,55,-124v0,-72,-35,-123,-104,-123xm219,-298v-39,32,-56,64,-57,131v-1,82,33,142,109,143v62,1,110,-46,109,-108v0,-41,-18,-75,-55,-102v-15,-11,-47,-30,-96,-58v-2,0,-5,-2,-10,-6"},"9":{"d":"259,-684v146,0,232,125,232,280v0,139,-58,252,-175,339v-47,35,-111,62,-191,81r-25,-35v121,-36,213,-141,237,-273v-39,25,-75,37,-110,37v-108,1,-184,-91,-184,-203v0,-124,94,-226,216,-226xm199,-339v13,22,32,34,59,34v25,0,54,-11,88,-34v5,-49,7,-86,7,-113v0,-129,-31,-193,-92,-193v-29,0,-48,14,-62,39v-25,45,-23,229,0,267"},":":{"d":"254,-378v0,43,-43,73,-89,73v-44,0,-83,-30,-83,-72v0,-43,42,-72,86,-72v46,0,86,28,86,71xm165,11v-44,0,-83,-30,-83,-72v0,-43,42,-72,86,-72v46,0,86,28,86,71v0,43,-43,73,-89,73","w":335},";":{"d":"257,-378v0,43,-43,73,-89,73v-45,0,-84,-29,-84,-72v0,-43,42,-72,87,-72v46,0,86,28,86,71xm148,10v-45,1,-80,-27,-80,-71v0,-44,37,-72,84,-72v70,0,115,51,115,123v0,95,-76,172,-176,167r-9,-46v59,-3,116,-34,118,-88v1,-27,-33,-13,-52,-13","w":335},"<":{"d":"57,-361r0,-9r422,-264r0,63r-252,159r252,171r0,168"},"=":{"d":"55,-358r0,-60r427,0r0,60r-427,0xm55,-224r0,-60r427,0r0,60r-427,0"},">":{"d":"57,-73r0,-63r252,-159r-252,-171r0,-168r422,288r0,9"},"?":{"d":"153,-684v120,0,205,96,202,218v-3,123,-72,156,-184,188v-45,13,-31,37,-10,80r-38,0v-31,-51,-46,-92,-46,-123v0,-125,222,-70,226,-184v1,-39,-30,-69,-69,-69v-20,0,-98,20,-121,20v-38,0,-65,-21,-65,-58v1,-48,51,-72,105,-72xm152,11v-45,0,-84,-29,-84,-72v0,-43,42,-72,87,-72v46,0,86,28,86,71v0,43,-43,73,-89,73","w":391},"@":{"d":"263,-44v-37,0,-59,-39,-59,-84v0,-62,24,-122,74,-176v76,-82,142,-114,259,-106r-56,274v-6,28,-12,49,16,49v42,0,87,-38,110,-66v32,-39,49,-82,49,-131v0,-139,-123,-254,-264,-254v-164,0,-301,144,-301,309v0,168,139,310,306,310v71,0,137,-23,198,-69r54,0v-59,68,-150,108,-255,110v-187,4,-347,-162,-347,-350v0,-187,159,-351,345,-351v166,0,308,130,308,292v0,97,-44,168,-133,213v-40,21,-81,31,-123,31v-41,0,-57,-12,-58,-52v0,-17,2,-36,7,-55v-42,43,-72,71,-89,85v-17,14,-31,21,-41,21xm435,-358v-90,-10,-151,89,-151,178v0,40,27,77,58,49r58,-53","w":747},"A":{"d":"176,-82v3,44,54,38,109,40r0,42r-285,0r0,-42v81,2,97,-31,121,-99r183,-512r-11,-30r157,0r215,545v26,61,40,89,109,96r0,42r-350,0r0,-42v48,0,103,6,102,-41v0,-11,-4,-26,-13,-46r-49,-120r-233,0v-17,52,-44,113,-55,167xm253,-308r187,0r-99,-250","w":774},"B":{"d":"522,-384v90,19,170,85,170,183v0,99,-80,165,-168,187v-33,9,-80,14,-141,14r-383,0r0,-42v85,-1,130,-13,130,-90r0,-399v-3,-84,-9,-91,-93,-94r-27,0r0,-42v138,-11,240,-17,306,-17v144,0,241,12,304,84v23,26,34,57,34,90v0,65,-44,107,-132,126xm497,-514v0,-109,-100,-141,-219,-126r0,239v24,2,44,3,61,3v107,1,158,-29,158,-116xm278,-155v0,86,18,104,97,107v99,3,150,-58,151,-148v1,-58,-27,-107,-62,-133v-29,-22,-120,-30,-186,-26r0,200","w":735},"C":{"d":"436,15v-205,0,-389,-149,-389,-347v0,-203,199,-352,412,-352v55,0,112,13,170,35v29,11,39,17,56,-1r27,0r10,188r-43,0v-29,-96,-99,-165,-213,-167v-156,-2,-259,124,-259,285v0,163,116,308,272,306v111,-2,187,-68,223,-154r43,0v-6,50,-40,156,-61,195v-71,-24,-161,12,-248,12","w":785},"D":{"d":"123,-531v4,-78,-24,-93,-99,-94r0,-42r84,-6v161,-12,377,-16,498,20v125,37,222,149,222,302v0,144,-95,266,-204,310v-139,56,-399,37,-601,41r0,-42v74,0,100,-16,100,-94r0,-395xm362,-42v190,4,306,-112,306,-293v0,-192,-108,-300,-313,-297v-21,0,-49,2,-84,5r0,502v2,78,11,80,91,83","w":875},"E":{"d":"525,-227v2,-65,-27,-78,-96,-78r-158,0r0,191v2,19,-1,48,17,51v12,6,25,4,41,4v69,0,171,9,221,-9v36,-13,52,-55,63,-100r40,0r-13,168r-645,0r0,-42r35,0v73,-3,93,-15,93,-94r0,-395v5,-80,-27,-94,-104,-94r0,-42r590,0r12,155r-42,0v-13,-70,-14,-96,-92,-96r-216,0r0,244r157,0v69,0,93,-11,96,-76r44,0r0,213r-43,0","w":690},"F":{"d":"271,-136v1,84,12,93,93,94r0,42r-322,0r0,-42v69,-3,81,-7,81,-87r0,-409v0,-68,-15,-87,-80,-87r0,-42r542,0r0,151r-39,0v-11,-93,-12,-92,-115,-92r-160,0r0,245r130,0v87,-3,109,-1,113,-78r43,0r0,214r-43,0v-1,-71,-29,-77,-105,-77r-138,0r0,168","w":639},"G":{"d":"425,15v-214,0,-378,-139,-378,-348v0,-209,175,-351,391,-351v46,0,109,11,190,32v32,8,57,13,74,-7r27,0r0,195r-44,0v-24,-102,-102,-175,-221,-176v-157,-1,-256,131,-256,296v0,164,104,309,258,308v45,0,83,-9,115,-28r0,-141v-1,-41,-7,-56,-38,-65v-19,-5,-50,-8,-94,-9r0,-41r356,0r0,41v-55,2,-76,15,-76,68r0,160v-115,44,-217,66,-304,66","w":830},"H":{"d":"271,-136v-4,78,25,93,98,94r0,42r-344,0r0,-42v74,-1,98,-17,98,-94r0,-395v4,-78,-24,-93,-98,-94r0,-42r344,0r0,42v-74,1,-98,17,-98,94r0,157r354,0r0,-157v4,-76,-24,-94,-96,-94r0,-42r343,0r0,42v-75,2,-99,12,-99,94r0,395v-4,78,25,93,99,94r0,42r-343,0r0,-42v73,-2,96,-14,96,-94r0,-175r-354,0r0,175","w":897},"I":{"d":"271,-136v-4,79,26,93,100,94r0,42r-341,0r0,-42v70,-1,93,-19,93,-94r0,-395v4,-76,-23,-93,-93,-94r0,-42r341,0r0,42v-74,0,-100,16,-100,94r0,395","w":395},"J":{"d":"-108,182v0,-36,38,-68,75,-68v49,0,66,64,108,64v22,0,37,-14,44,-42v5,-18,8,-57,8,-118r0,-549v4,-78,-24,-93,-99,-94r0,-42r341,0r0,42v-71,1,-94,19,-94,94r0,394v0,63,-2,109,-7,137v-23,141,-108,242,-260,244v-77,0,-116,-21,-116,-62","w":391},"K":{"d":"271,-136v-4,79,26,93,100,94r0,42r-350,0r0,-42v76,-2,102,-11,102,-94r0,-395v5,-79,-26,-94,-102,-94r0,-42r350,0r0,42v-84,1,-100,15,-100,113r0,166v53,-8,106,-41,158,-99v58,-66,87,-114,87,-145v0,-35,-31,-32,-76,-35r0,-42r286,0r0,42v-45,3,-76,10,-94,21v-18,11,-41,38,-71,80v-53,76,-95,125,-128,148v18,10,39,30,65,58v41,44,168,219,213,250v25,17,55,26,92,26r0,42r-365,0r0,-42v28,-1,46,-3,55,-7v12,-5,19,-12,19,-22v0,-18,-42,-74,-129,-166v-52,-54,-80,-80,-112,-74r0,175","w":793},"L":{"d":"271,-130v3,62,-3,71,55,71v78,0,183,9,219,-29v28,-30,57,-62,82,-98r43,0r-78,186r-576,0r0,-42v78,-1,107,-9,107,-94r0,-395v5,-81,-28,-94,-105,-94r0,-42r364,0r0,42v-79,1,-111,7,-111,94r0,401","w":651},"M":{"d":"636,-42v69,0,106,-2,101,-72r-28,-429r-241,543r-26,0r-246,-530r-25,382v-2,35,-3,76,17,90v14,9,37,16,71,16r0,42r-238,0r0,-42v89,-4,85,-20,91,-113r25,-414v-1,-45,-23,-53,-72,-56r0,-42r226,0r209,451r200,-451r231,0r0,42v-51,7,-83,-3,-79,51r27,426v9,94,5,96,95,106r0,42r-338,0r0,-42","w":995},"N":{"d":"188,-138v-4,82,30,94,106,96r0,42r-259,0r0,-42v66,-2,88,-11,88,-88r0,-472v-22,-15,-51,-23,-86,-23r0,-42r221,0r438,456r0,-323v1,-87,-26,-90,-113,-91r0,-42r277,0r0,42v-74,2,-99,3,-99,85r0,544r-58,0r-515,-538r0,396","w":875},"O":{"d":"436,15v-217,0,-391,-137,-389,-347v2,-112,55,-200,121,-258v64,-56,174,-96,289,-98v214,-3,384,135,384,341v0,215,-182,362,-405,362xm431,-642v-143,0,-223,117,-223,268v0,102,23,185,70,248v47,63,108,95,183,95v144,0,220,-130,220,-281v0,-95,-25,-177,-77,-245v-43,-57,-101,-85,-173,-85","w":886},"P":{"d":"272,-136v-8,89,42,95,126,94r0,42r-365,0r0,-42v72,-1,91,-5,91,-87r0,-409v0,-75,-7,-83,-74,-87r-25,0r0,-42v175,-11,290,-17,345,-17v163,0,295,57,295,210v0,135,-122,207,-269,204v-37,0,-78,-4,-124,-11r0,145xm504,-479v0,-101,-56,-161,-155,-161v-27,0,-52,3,-77,10r0,305v23,5,48,7,76,7v100,1,156,-60,156,-161","w":694},"Q":{"d":"458,-688v213,0,386,136,383,341v-3,188,-127,312,-290,349v41,27,78,57,111,90v67,67,131,101,193,104r-19,41v-98,24,-206,-18,-272,-58v-56,-34,-183,-160,-257,-182v-147,-43,-258,-149,-260,-324v-3,-213,189,-361,411,-361xm431,-642v-143,0,-223,117,-223,268v0,102,23,184,70,248v47,64,108,96,183,96v145,0,221,-131,220,-282v0,-95,-25,-177,-77,-245v-43,-57,-101,-85,-173,-85","w":886},"R":{"d":"271,-136v-6,85,35,95,117,94r0,42r-375,0r0,-42v78,1,110,-12,110,-94r0,-395v5,-82,-29,-95,-108,-94r0,-42v134,-11,239,-17,316,-17v149,0,249,14,312,92v23,30,35,65,35,104v-2,94,-74,152,-159,174r29,28r73,92v37,52,89,114,119,132v28,17,63,28,106,31r0,42v-90,4,-199,-2,-243,-25v-24,-13,-45,-27,-63,-44v-30,-29,-135,-188,-184,-226r-85,0r0,148xm271,-325v146,3,245,-25,246,-157v0,-105,-67,-158,-201,-158v-10,0,-25,1,-45,3r0,312","w":829},"S":{"d":"320,15v-75,0,-99,-18,-180,-35v-9,0,-17,6,-22,17r-28,0r-27,-194r41,0v37,107,99,161,185,161v64,0,125,-44,124,-105v0,-35,-18,-67,-54,-95v-17,-13,-58,-37,-123,-71v-53,-27,-91,-53,-115,-78v-35,-35,-53,-77,-53,-124v0,-109,102,-175,218,-175v44,0,93,8,148,25v18,5,25,4,38,-8r23,0r20,173r-43,0v-17,-77,-86,-141,-175,-142v-53,-1,-105,27,-105,74v0,58,45,77,97,106v59,32,106,58,140,81v82,55,123,118,123,191v0,114,-113,199,-232,199","w":603},"T":{"d":"472,-136v-7,86,36,95,119,94r0,42r-386,0r0,-42v82,0,119,-4,119,-94r0,-476v-66,2,-176,-9,-204,20v-14,14,-26,50,-37,107r-44,0r18,-200r35,0v25,22,25,18,78,18r481,0v33,-1,41,-1,55,-18r33,0r19,200r-42,0v-11,-57,-23,-92,-36,-106v-31,-33,-141,-18,-208,-21r0,476","w":782},"U":{"d":"830,-625v-84,2,-106,19,-106,118v0,117,10,279,-20,360v-39,108,-135,162,-288,162v-149,0,-274,-59,-300,-174v-22,-97,-10,-254,-10,-372v0,-87,-15,-91,-93,-94r0,-42r336,0r0,42v-71,1,-95,19,-95,94r0,265v1,68,1,88,23,128v30,51,93,82,173,82v106,1,182,-50,201,-135v15,-64,8,-216,8,-304v0,-104,-16,-129,-107,-130r0,-42r278,0r0,42","w":831},"V":{"d":"370,15r-253,-550v-17,-38,-33,-62,-47,-73v-14,-12,-40,-17,-72,-16r0,-43r372,0r0,43r-19,0v-94,2,-101,31,-70,98r164,352r157,-372v31,-59,-2,-77,-84,-78r0,-43r272,0r0,43v-34,-1,-60,6,-78,24v-16,16,-35,51,-57,102r-218,513r-67,0","w":791},"W":{"d":"369,15r-262,-551v-34,-65,-35,-86,-110,-89r0,-42r285,0r0,42v-49,6,-45,30,-26,69r196,410r69,-141r-127,-266v-26,-47,-24,-64,-73,-72r0,-42r470,0r0,42v-50,13,-59,29,-82,77r-78,159r113,229r151,-381v20,-47,8,-85,-54,-84r0,-42r216,0r0,42v-67,9,-78,34,-103,96r-217,544r-71,0r-114,-237r-112,237r-71,0xm599,-455r61,-121v16,-33,14,-49,-33,-49v-34,0,-99,-8,-98,21v0,5,3,14,9,26","w":1059},"X":{"d":"613,-598v-2,-31,-39,-24,-78,-26r0,-43r289,0r0,43v-36,1,-65,8,-88,22v-62,41,-166,162,-229,226r193,240v54,63,66,84,157,94r0,42r-376,0r0,-42v40,2,75,-7,75,-30v0,-11,-7,-25,-22,-42r-131,-155r-165,170v-35,37,-12,57,59,57r13,0r0,42r-294,0r0,-42v96,-15,114,-35,179,-102r169,-173r-161,-201v-35,-44,-64,-72,-86,-86v-22,-14,-55,-21,-95,-20r0,-43r407,0r0,43v-48,0,-109,-6,-87,42v3,5,12,17,27,36r97,121r110,-113v25,-26,37,-46,37,-60","w":861},"Y":{"d":"481,-136v-5,82,31,94,110,94r0,42r-367,0r0,-42v78,1,109,-13,109,-94r0,-132r-209,-277v-27,-36,-45,-57,-54,-64v-14,-11,-41,-16,-73,-15r0,-43r350,0r0,43v-54,-3,-90,14,-63,50r173,230r118,-184v17,-27,26,-48,26,-63v0,-26,-31,-35,-71,-33r0,-43r254,0r0,43v-35,3,-59,9,-74,20v-15,11,-38,40,-67,85r-162,251r0,132","w":791},"Z":{"d":"49,0r0,-57r476,-553r-243,0v-79,1,-100,-1,-126,40v-11,17,-16,46,-21,83r-40,0r6,-180r619,0r0,59r-476,551r314,0v65,-1,83,-10,107,-52v13,-23,24,-58,34,-106r41,0r-13,215r-678,0","w":778},"[":{"d":"374,-633v-44,2,-119,4,-129,27v-3,6,-5,17,-5,34r0,664v1,35,-4,45,12,57v15,11,57,16,124,16r0,36r-258,0r0,-868r256,0r0,34","w":380},"\\":{"d":"246,258r-240,-985r93,0r241,985r-94,0","w":369},"]":{"d":"4,165v67,0,109,-4,124,-16v16,-13,12,-21,12,-57r0,-664v0,-18,-3,-29,-7,-36v-12,-21,-84,-23,-127,-25r0,-34r256,0r0,868r-258,0r0,-36","w":380},"^":{"d":"-30,-278r288,-422r9,0r263,422r-63,0r-159,-252r-171,252r-167,0","w":500},"_":{"d":"0,92r500,0r0,74r-500,0r0,-74","w":500},"`":{"d":"268,-499r-189,-202r173,0r79,202r-63,0","w":500},"a":{"d":"164,11v-74,1,-127,-41,-125,-112v2,-76,47,-109,122,-130v62,-17,105,-40,132,-64r0,-40v1,-39,-28,-72,-66,-72v-45,0,-64,36,-56,83r-120,42v-16,-66,6,-103,64,-133v74,-39,143,-49,221,-17v58,24,90,53,90,132r0,135v0,48,1,75,4,82v9,25,27,19,49,4r16,25v-26,30,-76,64,-122,64v-41,0,-66,-21,-75,-64v-10,6,-18,13,-26,21v-31,29,-67,44,-108,44xm181,-174v-26,39,-12,128,41,125v15,0,40,-15,73,-44r0,-154v-19,20,-96,45,-114,73","w":495},"b":{"d":"285,12v-57,-1,-163,-19,-211,-34r0,-539v-1,-49,-4,-52,-38,-67r-28,-11r0,-26r163,-52r34,0r0,357v65,-59,124,-89,179,-89v100,-2,173,101,173,206v0,147,-123,258,-272,255xm422,-195v0,-88,-43,-168,-122,-169v-35,0,-67,18,-95,55r0,129v1,89,18,146,96,146v83,0,121,-70,121,-161","w":594},"c":{"d":"262,11v-125,0,-225,-89,-225,-212v0,-142,130,-249,277,-249v47,0,85,9,116,26v31,17,47,39,47,65v0,49,-56,65,-95,44v-19,-10,-78,-88,-112,-85v-64,6,-89,84,-89,163v0,100,45,193,133,193v47,0,92,-26,136,-77r31,18v-51,76,-124,114,-219,114","w":514},"d":{"d":"211,11v-105,1,-174,-92,-174,-202v0,-145,98,-262,250,-258v34,0,66,5,96,14r0,-125v3,-64,-22,-63,-72,-78r0,-26r167,-53r36,0r0,576v2,53,-1,76,43,79v11,0,22,-2,33,-6r0,32r-178,47r-29,0r0,-85v-65,57,-122,85,-172,85xm168,-249v0,91,38,181,117,181v35,0,67,-18,98,-54r0,-239v-35,-30,-50,-46,-102,-46v-79,0,-113,71,-113,158","w":592},"e":{"d":"233,11v-119,3,-196,-97,-196,-220v0,-136,96,-244,230,-240v109,3,169,56,185,159v3,16,10,27,21,34r0,24r-299,0v3,79,60,163,136,164v37,0,80,-26,129,-77r24,21v-50,71,-127,133,-230,135xm249,-398v-56,0,-81,65,-77,132r153,0v-1,-68,-19,-132,-76,-132","w":506},"f":{"d":"219,-119v-2,76,37,87,115,85r0,34r-325,0r0,-34v59,4,79,-16,79,-75r0,-273r-79,0r0,-23r79,-33v5,-122,59,-194,144,-244v46,-27,90,-40,135,-40v47,0,137,31,140,66v-6,22,-29,43,-42,61v-11,15,-22,19,-37,11v-4,-3,-15,-12,-33,-28v-52,-45,-84,-67,-136,-34v-38,24,-40,60,-40,129r0,79r107,0r-7,56r-100,0r0,263","w":345},"g":{"d":"373,-57v104,-1,186,35,186,126v0,51,-30,91,-87,127v-89,56,-268,71,-372,22v-83,-39,-86,-114,4,-149v17,-7,30,-17,37,-30v-61,-20,-91,-54,-91,-101v0,-37,22,-46,53,-61v13,-5,43,-15,92,-30v-67,-1,-141,-65,-140,-132v1,-100,109,-164,219,-164v58,0,106,14,144,42r152,-39r0,111r-108,-25v15,21,22,44,22,69v0,109,-114,151,-226,150v-37,13,-61,23,-72,29v-11,6,-17,13,-17,22v0,23,45,35,135,35xm267,-405v-53,0,-81,44,-80,101v0,80,29,120,86,120v54,0,78,-39,78,-96v0,-67,-25,-125,-84,-125xm192,50v-24,17,-43,40,-41,58v2,58,88,94,158,94v72,0,154,-31,154,-90v0,-39,-35,-58,-106,-55v-57,2,-115,5,-165,-7","w":578},"h":{"d":"219,-135v3,82,-6,99,67,101r0,34r-272,0r0,-34v79,-2,74,-14,74,-101r0,-437v0,-23,-2,-38,-8,-44v-3,-6,-38,-19,-65,-28r0,-19r177,-54r27,0r0,349v53,-37,124,-81,193,-81v78,0,117,64,117,191r0,123v4,77,-7,99,59,101r0,34r-253,0r0,-34v68,-4,63,-17,63,-101r0,-140v1,-51,-23,-93,-70,-94v-31,0,-67,13,-109,40r0,194","w":613},"i":{"d":"235,-631v0,43,-43,73,-88,73v-44,0,-83,-31,-83,-73v0,-41,44,-74,88,-74v43,0,83,32,83,74xm219,-119v-1,65,13,84,66,85r0,34r-268,0r0,-34v55,2,72,-19,71,-75r0,-202v-1,-44,-3,-39,-37,-53r-35,-14r0,-26r183,-60r20,0r0,345","w":307},"j":{"d":"235,-631v0,43,-43,73,-88,73v-44,0,-83,-31,-83,-73v0,-41,44,-74,88,-74v43,0,83,32,83,74xm-127,182v-2,-44,60,-84,101,-54v10,7,23,20,37,40v27,38,59,28,71,-22v3,-15,5,-53,5,-116r0,-345v-1,-38,-5,-37,-36,-48r-36,-13r0,-26r181,-61r22,0r0,422v0,49,-3,84,-8,107v-23,104,-105,180,-226,180v-58,0,-109,-16,-111,-64","w":303},"k":{"d":"219,-119v-2,64,14,83,63,85r0,34r-260,0r0,-34v52,1,66,-21,66,-75r0,-472v-1,-36,-6,-38,-34,-48r-32,-11r0,-25r171,-52r26,0r0,466r145,-121v9,-7,13,-13,13,-18v-2,-21,-22,-12,-52,-15r0,-33r222,0r0,34v-82,-7,-153,73,-208,116r155,195v36,42,55,61,92,59r0,34r-247,0r0,-34v30,1,31,-15,15,-35r-135,-173r0,123","w":587},"l":{"d":"219,-119v-2,64,15,83,64,85r0,34r-266,0r0,-34v55,2,72,-19,71,-75r0,-442v-1,-43,1,-55,-28,-65r-46,-16r0,-32r186,-53r19,0r0,598","w":303},"m":{"d":"219,-119v-2,67,15,85,72,85r0,34r-271,0r0,-34v53,1,68,-21,68,-75r0,-215v4,-24,-41,-41,-70,-49r0,-27r181,-61r20,0r0,123v59,-41,105,-70,139,-86v34,-16,65,-25,93,-25v66,0,103,48,111,111v48,-39,177,-114,237,-111v92,5,111,75,112,184v2,60,-6,175,8,211v6,14,25,20,52,20r0,34r-252,0r0,-34v62,-14,61,-54,61,-141v0,-86,12,-191,-66,-193v-31,0,-81,22,-148,67r0,182v-1,64,13,82,60,85r0,34r-252,0r0,-34v48,1,61,-24,61,-75r0,-154v0,-70,-22,-105,-65,-105v-36,0,-86,23,-151,69r0,180","w":995},"n":{"d":"219,-119v-2,68,16,86,74,85r0,34r-273,0r0,-34v53,1,68,-21,68,-75r0,-215v4,-22,-37,-41,-73,-49r0,-27r184,-61r20,0r0,96v49,-34,154,-86,199,-84v91,5,112,78,112,184v0,60,-6,175,8,211v6,15,27,21,54,20r0,34r-254,0r0,-34v62,-14,61,-54,61,-141v0,-86,12,-191,-66,-193v-28,0,-66,16,-114,47r0,202","w":614},"o":{"d":"288,11v-139,0,-251,-92,-251,-227v0,-134,129,-234,269,-234v139,0,254,90,254,223v0,141,-125,238,-272,238xm279,-405v-68,1,-101,55,-100,128v0,57,12,111,35,163v25,54,61,81,108,81v67,-1,97,-59,96,-133v0,-69,-13,-127,-39,-172v-26,-45,-59,-67,-100,-67","w":596},"p":{"d":"17,210v66,-1,71,-23,71,-101r0,-421v0,-27,-10,-44,-30,-51r-39,-13r0,-27r172,-58r28,0r0,102v43,-35,77,-59,101,-71v130,-65,252,48,252,183v0,137,-100,258,-247,258v-32,0,-67,-4,-106,-13r0,108v2,87,21,96,106,104r0,34r-308,0r0,-34xm440,-186v0,-91,-37,-183,-114,-183v-31,0,-66,18,-107,55r0,234v33,35,69,52,109,52v72,-1,112,-77,112,-158","w":608},"q":{"d":"213,11v-103,1,-176,-96,-176,-204v0,-143,117,-256,262,-256v57,0,109,14,157,43r46,-43r26,0v-6,45,-9,89,-9,130r0,439v-3,67,10,85,65,90r0,34r-304,0r0,-34r35,0v65,-4,73,-17,73,-89r0,-200v-60,60,-118,90,-175,90xm294,-404v-82,0,-122,75,-122,165v0,86,42,166,120,166v50,0,61,-21,96,-53r0,-151v1,-73,-28,-127,-94,-127","w":594},"r":{"d":"219,-119v2,65,10,83,72,85r28,0r0,34r-299,0r0,-34v53,2,68,-21,68,-75r0,-176v-1,-49,-4,-57,-39,-72r-29,-11r0,-27r176,-66r23,0r0,120v25,-46,44,-76,55,-89v39,-45,105,3,147,15v-14,49,-31,87,-51,114v-26,-9,-59,-26,-88,-27v-20,0,-41,16,-63,48r0,161","w":421},"s":{"d":"220,12v-32,0,-73,-8,-111,-16v-5,0,-13,5,-22,14r-30,0r-12,-136r34,0v24,61,61,91,112,91v45,0,75,-53,39,-84v-9,-9,-35,-27,-80,-56v-39,-25,-67,-48,-82,-68v-15,-20,-22,-43,-22,-70v0,-87,76,-138,169,-136v37,0,77,7,118,22r2,115r-33,0v-21,-62,-55,-93,-102,-93v-26,-1,-49,17,-49,42v0,13,5,26,17,38v62,62,194,82,194,201v0,78,-62,136,-142,136","w":402},"t":{"d":"205,11v-94,0,-121,-56,-121,-163r0,-233r-57,0r0,-21v56,-19,141,-108,158,-166r30,0r0,130r142,0r-15,57r-127,0r0,242v-1,58,6,81,50,81v25,0,52,-18,81,-54r16,30v-27,49,-88,97,-157,97","w":370},"u":{"d":"528,-121v2,45,-3,62,32,65v11,0,21,-2,31,-7r0,33r-173,41r-21,0r0,-85v-89,57,-154,85,-193,85v-77,0,-116,-54,-116,-163r0,-163v-1,-38,0,-48,-23,-60r-22,-11r0,-24r154,-39r22,0r0,235v0,61,6,99,17,115v13,19,30,29,53,29v25,0,61,-15,108,-44r0,-194v-1,-43,-6,-52,-39,-62r-49,-15r0,-25r219,-39r0,328","w":611},"v":{"d":"407,-362v0,-34,-34,-36,-75,-42r0,-34r214,0r0,34v-29,2,-49,9,-60,20v-11,11,-27,39,-46,82r-137,308r-66,0r-151,-325v-29,-54,-31,-76,-91,-85r0,-34r272,0r0,34v-28,1,-63,-6,-61,23v0,9,5,24,15,46r91,205r83,-190v8,-17,12,-31,12,-42","w":545},"w":{"d":"387,-336v-16,-38,-27,-66,-67,-68r0,-34r243,0r0,34v-56,2,-54,33,-35,79r76,183r76,-183v21,-45,6,-77,-53,-79r0,-34r198,0r0,34v-64,9,-73,37,-99,97r-133,313r-61,0r-119,-279r-127,279r-59,0r-133,-311v-16,-38,-31,-64,-44,-77v-13,-13,-31,-21,-54,-22r0,-34r257,0r0,34v-43,6,-49,31,-33,68r81,194","w":825},"x":{"d":"22,0r0,-34v65,-1,153,-116,203,-163r-123,-149v-31,-35,-41,-51,-88,-58r0,-34r263,0r0,34v-34,-1,-44,14,-29,34r67,83r60,-64v24,-29,16,-52,-33,-53r0,-34r200,0r0,34v-61,10,-84,33,-127,77r-73,76r119,144v38,41,49,67,104,73r0,34r-276,0r0,-34v23,1,44,-4,42,-20v0,-7,-5,-18,-16,-32r-61,-76r-68,73v-26,26,-22,56,27,55r0,34r-191,0","w":570},"y":{"d":"107,250v-37,1,-68,-26,-67,-61v0,-42,27,-66,81,-69v41,-3,72,-26,93,-72r27,-59r-146,-295v-21,-41,-37,-68,-48,-79v-11,-11,-29,-18,-53,-19r0,-34r274,0r0,34v-33,-2,-56,9,-55,33v0,9,5,22,14,41r85,175r82,-165v7,-15,11,-27,11,-38v-1,-31,-32,-45,-67,-46r0,-34r200,0r0,34v-59,15,-67,31,-94,86r-216,442v-21,43,-37,72,-47,85v-20,27,-45,41,-74,41","w":543},"z":{"d":"99,-468v-1,30,7,30,40,30r354,0r0,30r-286,349v62,-2,150,8,197,-7v34,-11,59,-53,77,-83r33,0r-50,149r-442,0r0,-34r283,-345r-149,0v-21,0,-37,5,-48,16v-11,11,-25,36,-44,75r-36,0r35,-180r36,0","w":528},"{":{"d":"237,56v-3,84,20,110,98,111r0,33v-77,0,-124,-3,-142,-9v-54,-18,-71,-56,-71,-130r0,-184v-3,-75,0,-98,-59,-109v-1,-1,-5,-2,-12,-3r0,-27v45,-2,65,-15,69,-48v6,-46,0,-160,2,-221v2,-89,30,-136,124,-131r89,-5r0,33v-87,4,-98,19,-98,110r0,176v-1,61,-25,86,-76,99r0,3v56,10,76,47,76,115r0,187","w":380},"|":{"d":"201,167r0,-834r99,0r0,834r-99,0","w":500},"}":{"d":"45,167v76,0,98,-29,98,-111r0,-187v0,-68,20,-105,76,-115r0,-3v-51,-13,-75,-38,-76,-99r0,-176v-2,-91,-11,-106,-98,-110r0,-33v22,2,47,1,71,1v105,-1,142,40,142,135r0,140v2,68,-6,78,14,109v9,12,28,19,57,20r0,27v-63,10,-71,31,-71,112r0,184v0,78,-20,116,-79,132v-19,5,-63,7,-134,7r0,-33","w":380},"~":{"d":"269,-728v29,0,131,39,160,39v29,0,55,-15,79,-45r23,14v-37,74,-82,111,-134,111v-17,0,-51,-10,-104,-29v-50,-18,-91,-16,-125,25r-9,10r-22,-14v41,-74,85,-111,132,-111","w":667},"\u00a0":{"w":250},"\u00a1":{"d":"251,-411v0,43,-42,72,-86,72v-46,0,-86,-28,-86,-71v0,-43,43,-73,89,-73v44,0,83,30,83,72xm118,212v-24,-1,-32,0,-33,-21v0,-5,1,-13,2,-22r61,-400r36,0r63,420v0,19,-9,23,-30,23r-99,0","w":335},"\u00a2":{"d":"493,-359v1,32,-23,55,-55,54v-25,0,-49,-12,-72,-37r-108,271v20,18,44,27,73,27v46,0,91,-26,135,-77r31,18v-59,87,-149,128,-270,109r-69,174r-44,0r73,-185v-78,-29,-134,-97,-134,-196v0,-151,142,-267,312,-246r50,-127r44,0r-54,135v44,12,86,35,88,80xm286,-399v-104,0,-109,217,-58,293r108,-269v-17,-16,-33,-24,-50,-24"},"\u00a3":{"d":"-4,41v-20,0,-37,-18,-36,-38v0,-17,7,-33,22,-49v15,-16,40,-33,74,-52v19,-42,36,-96,59,-149r-133,0r14,-41r135,0v59,-147,113,-250,161,-310v48,-60,103,-89,163,-89v49,0,119,29,121,69v1,33,-45,78,-78,51v-10,-7,-46,-60,-56,-68v-21,-17,-37,-6,-51,20v-35,66,-108,282,-138,327r168,0r-13,41r-178,0v-23,39,-52,78,-87,118v94,-27,122,4,184,58v43,38,73,57,92,57v19,0,35,-20,35,-40v0,-22,-29,-64,-29,-86v0,-26,25,-46,51,-45v38,1,56,37,56,79v0,82,-81,147,-166,147v-39,0,-76,-12,-113,-37v-17,-11,-43,-35,-80,-69v-31,-28,-41,-29,-77,-6v-11,33,-25,60,-44,81v-19,21,-37,31,-56,31"},"\u00a4":{"d":"71,-106r-29,-30r67,-66v-62,-74,-63,-187,0,-260r-67,-67r29,-29r67,66v72,-61,190,-61,260,0r67,-66r29,29r-67,66v63,71,62,190,0,261r67,66r-29,30r-67,-67v-72,61,-189,61,-260,0xm144,-332v0,65,57,123,122,123v68,0,126,-55,126,-122v0,-68,-56,-125,-124,-125v-67,0,-124,57,-124,124"},"\u00a5":{"d":"345,-119v-1,71,18,85,85,84r0,35r-302,0r0,-35v64,1,84,-14,84,-84r0,-155r-40,-83r-152,0r0,-41r132,0r-32,-66r-100,0r0,-41r81,0v-16,-32,-48,-101,-64,-115v-9,-8,-31,-12,-56,-11r0,-36r277,0r0,36v-28,-1,-52,5,-50,24v3,30,30,74,42,102r127,0r12,-37v11,-33,16,-52,16,-58v1,-24,-21,-33,-51,-31r0,-36r184,0r0,36v-81,1,-88,59,-114,126r89,0r0,41r-103,0r-23,66r126,0r0,41r-140,0r-28,83r0,155xm324,-350r39,-114r-94,0"},"\u00a6":{"d":"201,-313r0,-354r99,0r0,354r-99,0xm201,-153r99,0r0,320r-99,0r0,-320","w":500},"\u00a7":{"d":"207,212v-48,0,-122,-38,-122,-79v-1,-27,25,-53,51,-52v46,2,77,77,130,77v30,0,54,-22,53,-51v0,-14,-6,-33,-18,-55v-12,-22,-41,-68,-87,-139v-59,-92,-98,-160,-118,-205v-20,-45,-30,-89,-30,-133v0,-134,117,-263,249,-263v56,0,136,28,138,74v2,37,-41,72,-76,48v-8,-5,-22,-16,-41,-33v-28,-24,-51,-36,-70,-36v-26,-1,-53,23,-52,48v0,18,8,41,25,69v8,14,35,56,81,126v61,94,99,159,114,195v26,61,39,114,39,161v0,133,-130,248,-266,248xm154,-339v22,51,159,263,190,341v11,29,18,63,20,103v58,-60,64,-135,30,-221v-31,-78,-174,-297,-193,-343v-16,-37,-28,-73,-33,-111v-58,57,-50,147,-14,231"},"\u00a8":{"d":"418,-599v0,34,-30,64,-64,64v-34,0,-64,-30,-64,-65v0,-34,30,-63,64,-63v34,0,64,30,64,64xm210,-599v0,34,-30,64,-64,64v-34,0,-64,-30,-64,-65v0,-34,30,-63,64,-63v34,0,64,30,64,64","w":500},"\u00a9":{"d":"394,17v-184,0,-347,-165,-347,-350v0,-188,164,-351,353,-351v191,0,352,162,352,353v0,190,-166,348,-358,348xm400,-638v-163,0,-302,141,-302,305v0,159,139,304,297,304v165,0,306,-138,306,-302v0,-165,-138,-307,-301,-307xm406,-159v-105,0,-203,-73,-203,-173v0,-103,106,-176,215,-176v31,0,74,12,106,22v3,0,6,-2,9,-6r19,0r5,99r-28,0v-17,-55,-53,-82,-107,-82v-77,-1,-130,58,-130,137v0,79,59,147,136,147v52,0,90,-25,113,-76r28,0v-4,34,-15,68,-33,103v-41,-14,-82,5,-130,5","w":798},"\u00aa":{"d":"285,-401v-25,0,-43,-15,-48,-35v-4,3,-8,5,-11,9v-42,47,-152,32,-149,-43v2,-45,33,-69,77,-80v35,-9,62,-21,79,-36v4,-34,-7,-60,-37,-61v-27,-1,-35,21,-31,48r-80,27v-3,-11,-4,-20,-4,-26v-4,-53,80,-84,130,-81v57,3,110,24,110,92r0,80v0,27,0,42,1,47v6,13,16,8,29,-1r14,20v-28,27,-55,40,-80,40xm163,-483v0,23,9,41,30,41v11,0,24,-8,41,-25r0,-82v-8,5,-21,11,-38,19v-22,11,-33,26,-33,47xm47,-304r0,-43r341,0r0,43r-341,0","w":434},"\u00ab":{"d":"204,-37r-178,-200r178,-201r36,0r-87,201r84,200r-33,0xm247,-237r146,-184r34,0r-68,184r68,185r-35,0","w":458},"\u00ac":{"d":"30,-198r0,-68r440,0r0,266r-160,0r0,-198r-280,0","w":500},"\u00ad":{"d":"39,-164r0,-107r371,0r0,107r-371,0","w":447},"\u00ae":{"d":"394,17v-184,0,-347,-165,-347,-350v0,-188,164,-351,353,-351v191,0,352,162,352,353v0,190,-166,348,-358,348xm400,-638v-163,0,-302,141,-302,305v0,159,139,304,297,304v165,0,306,-138,306,-302v0,-165,-138,-307,-301,-307xm335,-236v-3,43,19,42,60,42r0,27r-200,0r0,-27v40,0,57,-1,57,-42r0,-195v1,-41,-15,-42,-56,-42r0,-27v70,-6,125,-9,166,-9v69,0,118,9,145,29v25,18,37,42,37,70v-1,46,-37,78,-78,88v16,11,81,102,107,118v14,9,31,15,51,16r0,26v-71,3,-124,-3,-156,-34v-15,-14,-70,-91,-94,-110r-39,0r0,70xm335,-333v38,-1,63,-4,76,-9v29,-11,44,-32,44,-65v0,-55,-51,-81,-120,-72r0,146","w":798},"\u00af":{"d":"78,-559r0,-82r344,0r0,82r-344,0","w":500},"\u00b0":{"d":"266,-570v0,59,-52,111,-111,111v-61,0,-112,-51,-112,-112v0,-60,51,-110,112,-110v60,0,111,51,111,111xm88,-571v0,35,31,66,67,66v35,0,66,-31,66,-65v0,-36,-31,-67,-67,-67v-35,0,-66,31,-66,66","w":310},"\u00b1":{"d":"239,-121r0,-170r-184,0r0,-60r184,0r0,-170r60,0r0,170r183,0r0,60r-183,0r0,170r-60,0xm55,-11r0,-60r427,0r0,60r-427,0"},"\u00b2":{"d":"221,-465v45,-1,46,-9,55,-49r27,0r-13,122r-264,0r0,-27v56,-56,100,-104,132,-143v29,-35,43,-69,43,-103v1,-44,-22,-78,-63,-78v-39,0,-68,33,-74,70r-32,0v8,-72,59,-129,136,-130v66,-1,120,50,119,116v0,26,-6,49,-19,68v-23,38,-122,115,-154,154r107,0","w":347},"\u00b3":{"d":"288,-533v0,87,-76,151,-166,151v-46,0,-97,-19,-99,-57v0,-21,17,-38,39,-37v16,0,31,10,44,29v14,19,29,29,44,29v36,-1,54,-41,54,-83v0,-53,-34,-104,-86,-83r-14,-23v46,-32,69,-64,69,-95v1,-25,-19,-45,-44,-44v-23,0,-44,16,-61,47r-25,-11v16,-52,59,-91,122,-92v48,-1,92,30,92,75v0,29,-21,58,-62,85v55,2,93,50,93,109","w":346},"\u00b4":{"d":"165,-499r79,-202r169,0r-182,202r-66,0","w":500},"\u00b5":{"d":"58,196v-37,0,-65,-23,-65,-58v0,-13,3,-35,9,-65v35,-153,32,-327,31,-511r131,0r0,268v3,65,1,96,34,116v9,5,17,8,26,8v25,0,51,-18,80,-54r0,-338r131,0r0,306v2,55,-2,79,41,83v9,0,18,-2,28,-5r0,20r-128,45v-1,1,-3,1,-6,1v-39,-6,-41,-24,-57,-70v-47,46,-57,73,-127,73v-67,0,-83,-29,-108,-83v-7,78,35,131,42,207v3,33,-28,57,-62,57","w":480},"\u00b6":{"d":"451,49v3,91,0,108,80,115r0,43r-365,0r0,-43v80,-7,80,-24,80,-115r0,-294v-140,10,-221,-88,-221,-220v0,-134,73,-222,215,-222r291,0r0,42v-79,9,-80,25,-80,116r0,578xm317,154r64,0r0,-788r-64,0r0,788"},"\u00b7":{"d":"250,-356v0,44,-38,83,-82,83v-46,0,-83,-39,-83,-84v0,-43,39,-81,83,-81v44,0,82,38,82,82","w":335},"\u00b8":{"d":"203,175v24,1,48,-20,47,-44v0,-25,-20,-38,-61,-41r68,-96r36,0r-24,41v44,11,66,40,66,85v1,58,-50,102,-109,100v-33,0,-64,-9,-93,-26r10,-32v17,9,37,13,60,13","w":500},"\u00b9":{"d":"75,-392r0,-27v25,-4,63,8,63,-23r0,-271v-31,16,-57,26,-76,31r-12,-25v56,-25,101,-56,134,-95r42,0r0,357v-2,35,38,22,65,26r0,27r-216,0","w":346},"\u00ba":{"d":"381,-544v0,84,-80,144,-169,144v-87,0,-159,-54,-159,-137v0,-83,82,-142,169,-142v86,0,159,54,159,135xm147,-574v0,65,30,141,84,141v37,0,56,-25,56,-76v1,-66,-26,-137,-82,-137v-39,0,-58,30,-58,72xm47,-304r0,-43r341,0r0,43r-341,0","w":434},"\u00bb":{"d":"214,-37r87,-201r-86,-200r33,0r182,200r-182,201r-34,0xm27,-54r69,-185r-69,-185r35,0r143,185r-143,185r-35,0","w":458},"\u00bc":{"d":"75,-267r0,-27v25,-4,63,8,63,-23r0,-271v-31,16,-57,26,-76,31r-12,-25v56,-25,101,-56,134,-95r42,0r0,357v-2,35,38,22,65,26r0,27r-216,0xm179,0r427,-667r67,0r-427,667r-67,0xm493,-99r0,-33r190,-278r40,0r0,263r56,0r0,48r-56,0r0,109r-88,0r0,-109r-142,0xm542,-147r93,0r0,-136","w":813},"\u00bd":{"d":"75,-267r0,-27v25,-4,63,8,63,-23r0,-271v-31,16,-57,26,-76,31r-12,-25v56,-25,101,-56,134,-95r42,0r0,357v-2,35,38,22,65,26r0,27r-216,0xm159,0r427,-667r67,0r-427,667r-67,0xm687,-73v45,-1,46,-9,55,-48r27,0r-13,121r-264,0r0,-27v53,-53,98,-101,132,-143v29,-36,43,-71,43,-104v1,-44,-22,-78,-63,-78v-40,0,-68,34,-74,71r-32,0v7,-71,62,-130,136,-130v66,0,120,50,119,116v0,26,-7,49,-19,69v-20,35,-128,121,-154,153r107,0","w":813},"\u00be":{"d":"288,-408v0,87,-76,151,-166,151v-46,0,-97,-19,-99,-57v0,-21,17,-38,39,-37v16,0,31,10,44,29v14,19,29,29,44,29v36,-1,54,-41,54,-83v0,-53,-34,-104,-86,-83r-14,-23v46,-32,69,-64,69,-95v1,-25,-19,-45,-44,-44v-23,0,-44,16,-61,47r-25,-11v16,-52,59,-91,122,-92v48,-1,92,30,92,75v0,29,-21,58,-62,85v55,2,93,50,93,109xm172,0r427,-667r67,0r-427,667r-67,0xm493,-99r0,-33r190,-278r40,0r0,263r56,0r0,48r-56,0r0,109r-88,0r0,-109r-142,0xm542,-147r93,0r0,-136","w":813},"\u00bf":{"d":"315,-411v0,43,-42,72,-86,72v-46,0,-86,-28,-86,-71v0,-43,43,-73,89,-73v44,0,83,30,83,72xm231,212v-119,0,-205,-96,-202,-217v3,-124,69,-156,184,-188v44,-12,31,-41,10,-80r38,0v30,50,45,91,45,123v3,123,-221,69,-225,183v-1,39,30,69,69,69v26,0,96,-19,121,-19v38,0,65,21,65,58v-1,48,-51,71,-105,71","w":391},"\u00c0":{"d":"367,-725r-228,-179r193,0r115,179r-80,0xm176,-82v3,44,54,38,109,40r0,42r-285,0r0,-42v81,2,97,-31,121,-99r183,-512r-11,-30r157,0r215,545v26,61,40,89,109,96r0,42r-350,0r0,-42v48,0,103,6,102,-41v0,-11,-4,-26,-13,-46r-49,-120r-233,0v-17,52,-44,113,-55,167xm253,-308r187,0r-99,-250","w":774},"\u00c1":{"d":"301,-724r117,-180r187,0r-220,180r-84,0xm176,-82v3,44,54,38,109,40r0,42r-285,0r0,-42v81,2,97,-31,121,-99r183,-512r-11,-30r157,0r215,545v26,61,40,89,109,96r0,42r-350,0r0,-42v48,0,103,6,102,-41v0,-11,-4,-26,-13,-46r-49,-120r-233,0v-17,52,-44,113,-55,167xm253,-308r187,0r-99,-250","w":774},"\u00c2":{"d":"164,-725r119,-179r193,0r119,179r-106,0r-108,-105r-113,105r-104,0xm176,-82v3,44,54,38,109,40r0,42r-285,0r0,-42v81,2,97,-31,121,-99r183,-512r-11,-30r157,0r215,545v26,61,40,89,109,96r0,42r-350,0r0,-42v48,0,103,6,102,-41v0,-11,-4,-26,-13,-46r-49,-120r-233,0v-17,52,-44,113,-55,167xm253,-308r187,0r-99,-250","w":774},"\u00c3":{"d":"301,-778v-36,1,-47,22,-55,56r-70,0v7,-67,23,-104,61,-136v20,-17,43,-24,67,-24v61,0,110,57,171,57v26,0,44,-18,53,-55r68,0v-1,85,-48,156,-128,159v-38,1,-147,-64,-167,-57xm176,-82v3,44,54,38,109,40r0,42r-285,0r0,-42v81,2,97,-31,121,-99r183,-512r-11,-30r157,0r215,545v26,61,40,89,109,96r0,42r-350,0r0,-42v48,0,103,6,102,-41v0,-11,-4,-26,-13,-46r-49,-120r-233,0v-17,52,-44,113,-55,167xm253,-308r187,0r-99,-250","w":774},"\u00c4":{"d":"597,-799v0,40,-35,75,-75,75v-42,0,-76,-34,-76,-76v0,-40,35,-75,75,-75v40,0,76,36,76,76xm328,-799v0,40,-35,75,-75,75v-41,0,-76,-35,-76,-76v0,-40,35,-75,75,-75v41,0,76,35,76,76xm176,-82v3,44,54,38,109,40r0,42r-285,0r0,-42v81,2,97,-31,121,-99r183,-512r-11,-30r157,0r215,545v26,61,40,89,109,96r0,42r-350,0r0,-42v48,0,103,6,102,-41v0,-11,-4,-26,-13,-46r-49,-120r-233,0v-17,52,-44,113,-55,167xm253,-308r187,0r-99,-250","w":774},"\u00c5":{"d":"176,-82v3,44,54,38,109,40r0,42r-285,0r0,-42v81,2,97,-31,121,-99r184,-513v-31,-18,-56,-58,-57,-105v-1,-67,59,-126,126,-126v67,0,126,59,126,126v0,37,-14,68,-42,95r207,526v26,61,40,89,109,96r0,42r-350,0r0,-42v48,0,103,6,102,-41v0,-11,-4,-26,-13,-46r-49,-120r-233,0v-17,52,-44,113,-55,167xm303,-759v0,39,33,72,71,72v38,0,71,-33,71,-71v0,-39,-33,-72,-71,-72v-38,0,-71,33,-71,71xm253,-308r187,0r-99,-250","w":774},"\u00c6":{"d":"161,-77v0,31,33,38,68,35r0,42r-246,0r0,-42r9,0v48,0,94,-42,137,-126r206,-401v7,-13,10,-24,10,-33v0,-28,-39,-21,-73,-22r0,-43r609,0r10,156r-43,0v-5,-35,-16,-74,-28,-82v-13,-9,-35,-15,-68,-15r-167,0r0,244r109,0v69,-1,87,-13,93,-77r43,0r0,213r-43,0v-3,-63,-25,-77,-92,-77r-110,0r0,148v3,74,-6,98,46,98r122,0v91,-1,119,-32,133,-114r41,0r-15,173r-583,0r0,-42v76,0,108,-13,108,-94r0,-94r-208,0v-20,43,-68,107,-68,153xm260,-289r177,0r0,-346","w":963},"\u00c7":{"d":"397,145v-2,-39,-34,-40,-81,-46r74,-87v-135,-13,-225,-74,-286,-162v-38,-56,-57,-117,-57,-182v0,-203,199,-352,412,-352v55,0,112,13,170,35v29,11,39,17,56,-1r27,0r10,188r-43,0v-29,-96,-99,-165,-213,-167v-156,-2,-259,124,-259,285v0,163,116,308,272,306v111,-2,187,-68,223,-154r43,0v-6,50,-40,156,-61,195v-71,-24,-164,12,-244,12r-17,24v48,10,86,41,87,94v0,68,-71,111,-145,111v-44,0,-85,-9,-124,-28r13,-36v25,9,51,14,80,14v31,0,65,-21,63,-49","w":785},"\u00c8":{"d":"358,-725r-228,-179r193,0r115,179r-80,0xm525,-227v2,-65,-27,-78,-96,-78r-158,0r0,191v2,19,-1,48,17,51v12,6,25,4,41,4v69,0,171,9,221,-9v36,-13,52,-55,63,-100r40,0r-13,168r-645,0r0,-42r35,0v73,-3,93,-15,93,-94r0,-395v5,-80,-27,-94,-104,-94r0,-42r590,0r12,155r-42,0v-13,-70,-14,-96,-92,-96r-216,0r0,244r157,0v69,0,93,-11,96,-76r44,0r0,213r-43,0","w":690},"\u00c9":{"d":"265,-724r117,-180r187,0r-220,180r-84,0xm525,-227v2,-65,-27,-78,-96,-78r-158,0r0,191v2,19,-1,48,17,51v12,6,25,4,41,4v69,0,171,9,221,-9v36,-13,52,-55,63,-100r40,0r-13,168r-645,0r0,-42r35,0v73,-3,93,-15,93,-94r0,-395v5,-80,-27,-94,-104,-94r0,-42r590,0r12,155r-42,0v-13,-70,-14,-96,-92,-96r-216,0r0,244r157,0v69,0,93,-11,96,-76r44,0r0,213r-43,0","w":690},"\u00ca":{"d":"122,-725r119,-179r193,0r119,179r-106,0r-108,-105r-113,105r-104,0xm525,-227v2,-65,-27,-78,-96,-78r-158,0r0,191v2,19,-1,48,17,51v12,6,25,4,41,4v69,0,171,9,221,-9v36,-13,52,-55,63,-100r40,0r-13,168r-645,0r0,-42r35,0v73,-3,93,-15,93,-94r0,-395v5,-80,-27,-94,-104,-94r0,-42r590,0r12,155r-42,0v-13,-70,-14,-96,-92,-96r-216,0r0,244r157,0v69,0,93,-11,96,-76r44,0r0,213r-43,0","w":690},"\u00cb":{"d":"541,-799v0,40,-35,75,-75,75v-42,0,-76,-34,-76,-76v0,-40,35,-75,75,-75v40,0,76,36,76,76xm272,-799v0,40,-35,75,-75,75v-41,0,-76,-35,-76,-76v0,-40,35,-75,75,-75v41,0,76,35,76,76xm525,-227v2,-65,-27,-78,-96,-78r-158,0r0,191v2,19,-1,48,17,51v12,6,25,4,41,4v69,0,171,9,221,-9v36,-13,52,-55,63,-100r40,0r-13,168r-645,0r0,-42r35,0v73,-3,93,-15,93,-94r0,-395v5,-80,-27,-94,-104,-94r0,-42r590,0r12,155r-42,0v-13,-70,-14,-96,-92,-96r-216,0r0,244r157,0v69,0,93,-11,96,-76r44,0r0,213r-43,0","w":690},"\u00cc":{"d":"211,-725r-228,-179r193,0r115,179r-80,0xm271,-136v-4,79,26,93,100,94r0,42r-341,0r0,-42v70,-1,93,-19,93,-94r0,-395v4,-76,-23,-93,-93,-94r0,-42r341,0r0,42v-74,0,-100,16,-100,94r0,395","w":395},"\u00cd":{"d":"98,-724r117,-180r187,0r-220,180r-84,0xm271,-136v-4,79,26,93,100,94r0,42r-341,0r0,-42v70,-1,93,-19,93,-94r0,-395v4,-76,-23,-93,-93,-94r0,-42r341,0r0,42v-74,0,-100,16,-100,94r0,395","w":395},"\u00ce":{"d":"-19,-725r119,-179r193,0r119,179r-106,0r-108,-105r-113,105r-104,0xm271,-136v-4,79,26,93,100,94r0,42r-341,0r0,-42v70,-1,93,-19,93,-94r0,-395v4,-76,-23,-93,-93,-94r0,-42r341,0r0,42v-74,0,-100,16,-100,94r0,395","w":395},"\u00cf":{"d":"378,-799v0,40,-35,75,-75,75v-41,0,-76,-35,-76,-76v0,-40,35,-75,75,-75v41,0,76,35,76,76xm169,-799v0,40,-35,75,-75,75v-42,0,-76,-34,-76,-76v0,-40,35,-75,75,-75v40,0,76,36,76,76xm271,-136v-4,79,26,93,100,94r0,42r-341,0r0,-42v70,-1,93,-19,93,-94r0,-395v4,-76,-23,-93,-93,-94r0,-42r341,0r0,42v-74,0,-100,16,-100,94r0,395","w":395},"\u00d0":{"d":"123,-531v4,-78,-24,-93,-99,-94r0,-42r85,-6v179,-12,368,-17,497,20v126,36,222,149,222,303v0,144,-95,265,-204,309v-139,56,-399,37,-601,41r0,-42v74,0,100,-16,100,-94r0,-178r-93,0r0,-38r93,0r0,-179xm362,-42v189,5,305,-112,306,-292v0,-109,-46,-200,-112,-247v-63,-45,-172,-60,-285,-46r0,275r168,0r0,38r-168,0r0,189v2,78,11,80,91,83","w":875},"\u00d1":{"d":"351,-778v-36,1,-47,22,-55,56r-70,0v7,-67,23,-104,61,-136v20,-17,43,-24,67,-24v61,0,110,57,171,57v26,0,44,-18,53,-55r68,0v-1,85,-48,156,-128,159v-38,1,-147,-64,-167,-57xm188,-138v-4,82,30,94,106,96r0,42r-259,0r0,-42v66,-2,88,-11,88,-88r0,-472v-22,-15,-51,-23,-86,-23r0,-42r221,0r438,456r0,-323v1,-87,-26,-90,-113,-91r0,-42r277,0r0,42v-74,2,-99,3,-99,85r0,544r-58,0r-515,-538r0,396","w":875},"\u00d2":{"d":"477,-725r-228,-179r193,0r115,179r-80,0xm436,15v-217,0,-391,-137,-389,-347v2,-112,55,-200,121,-258v64,-56,174,-96,289,-98v214,-3,384,135,384,341v0,215,-182,362,-405,362xm431,-642v-143,0,-223,117,-223,268v0,102,23,185,70,248v47,63,108,95,183,95v144,0,220,-130,220,-281v0,-95,-25,-177,-77,-245v-43,-57,-101,-85,-173,-85","w":886},"\u00d3":{"d":"324,-724r117,-180r187,0r-220,180r-84,0xm436,15v-217,0,-391,-137,-389,-347v2,-112,55,-200,121,-258v64,-56,174,-96,289,-98v214,-3,384,135,384,341v0,215,-182,362,-405,362xm431,-642v-143,0,-223,117,-223,268v0,102,23,185,70,248v47,63,108,95,183,95v144,0,220,-130,220,-281v0,-95,-25,-177,-77,-245v-43,-57,-101,-85,-173,-85","w":886},"\u00d4":{"d":"227,-725r119,-179r193,0r119,179r-106,0r-108,-105r-113,105r-104,0xm436,15v-217,0,-391,-137,-389,-347v2,-112,55,-200,121,-258v64,-56,174,-96,289,-98v214,-3,384,135,384,341v0,215,-182,362,-405,362xm431,-642v-143,0,-223,117,-223,268v0,102,23,185,70,248v47,63,108,95,183,95v144,0,220,-130,220,-281v0,-95,-25,-177,-77,-245v-43,-57,-101,-85,-173,-85","w":886},"\u00d5":{"d":"367,-778v-36,1,-47,22,-55,56r-70,0v7,-67,23,-104,61,-136v20,-17,43,-24,67,-24v61,0,110,57,171,57v26,0,44,-18,53,-55r68,0v-1,85,-48,156,-128,159v-38,1,-147,-64,-167,-57xm436,15v-217,0,-391,-137,-389,-347v2,-112,55,-200,121,-258v64,-56,174,-96,289,-98v214,-3,384,135,384,341v0,215,-182,362,-405,362xm431,-642v-143,0,-223,117,-223,268v0,102,23,185,70,248v47,63,108,95,183,95v144,0,220,-130,220,-281v0,-95,-25,-177,-77,-245v-43,-57,-101,-85,-173,-85","w":886},"\u00d6":{"d":"653,-799v0,40,-35,75,-75,75v-42,0,-76,-34,-76,-76v0,-40,35,-75,75,-75v40,0,76,36,76,76xm384,-799v0,40,-35,75,-75,75v-41,0,-76,-35,-76,-76v0,-40,35,-75,75,-75v41,0,76,35,76,76xm436,15v-217,0,-391,-137,-389,-347v2,-112,55,-200,121,-258v64,-56,174,-96,289,-98v214,-3,384,135,384,341v0,215,-182,362,-405,362xm431,-642v-143,0,-223,117,-223,268v0,102,23,185,70,248v47,63,108,95,183,95v144,0,220,-130,220,-281v0,-95,-25,-177,-77,-245v-43,-57,-101,-85,-173,-85","w":886},"\u00d7":{"d":"124,-135r-42,-42r144,-144r-144,-144r42,-42r144,144r144,-144r42,42r-144,144r144,144r-42,42r-144,-144"},"\u00d8":{"d":"843,-347v0,209,-185,362,-400,362v-81,0,-156,-18,-225,-53r-94,110r-29,-24r90,-106v-78,-53,-137,-148,-138,-269v-3,-212,188,-361,408,-361v83,0,157,18,222,54r86,-101r31,25r-84,98v89,66,133,154,133,265xm432,-642v-145,0,-224,118,-224,272v0,86,18,160,55,222r345,-405v-46,-59,-105,-89,-176,-89xm285,-116v45,58,103,87,176,87v77,0,135,-32,173,-95v66,-111,61,-277,-4,-395","w":888},"\u00d9":{"d":"435,-725r-228,-179r193,0r115,179r-80,0xm830,-625v-84,2,-106,19,-106,118v0,117,10,279,-20,360v-39,108,-135,162,-288,162v-149,0,-274,-59,-300,-174v-22,-97,-10,-254,-10,-372v0,-87,-15,-91,-93,-94r0,-42r336,0r0,42v-71,1,-95,19,-95,94r0,265v1,68,1,88,23,128v30,51,93,82,173,82v106,1,182,-50,201,-135v15,-64,8,-216,8,-304v0,-104,-16,-129,-107,-130r0,-42r278,0r0,42","w":831},"\u00da":{"d":"362,-724r117,-180r187,0r-220,180r-84,0xm830,-625v-84,2,-106,19,-106,118v0,117,10,279,-20,360v-39,108,-135,162,-288,162v-149,0,-274,-59,-300,-174v-22,-97,-10,-254,-10,-372v0,-87,-15,-91,-93,-94r0,-42r336,0r0,42v-71,1,-95,19,-95,94r0,265v1,68,1,88,23,128v30,51,93,82,173,82v106,1,182,-50,201,-135v15,-64,8,-216,8,-304v0,-104,-16,-129,-107,-130r0,-42r278,0r0,42","w":831},"\u00db":{"d":"219,-725r119,-179r193,0r119,179r-106,0r-108,-105r-113,105r-104,0xm830,-625v-84,2,-106,19,-106,118v0,117,10,279,-20,360v-39,108,-135,162,-288,162v-149,0,-274,-59,-300,-174v-22,-97,-10,-254,-10,-372v0,-87,-15,-91,-93,-94r0,-42r336,0r0,42v-71,1,-95,19,-95,94r0,265v1,68,1,88,23,128v30,51,93,82,173,82v106,1,182,-50,201,-135v15,-64,8,-216,8,-304v0,-104,-16,-129,-107,-130r0,-42r278,0r0,42","w":831},"\u00dc":{"d":"652,-799v0,40,-35,75,-75,75v-41,0,-76,-35,-76,-76v0,-40,35,-75,75,-75v41,0,76,35,76,76xm383,-799v0,40,-35,75,-75,75v-42,0,-76,-34,-76,-76v0,-40,35,-75,75,-75v40,0,76,36,76,76xm830,-625v-84,2,-106,19,-106,118v0,117,10,279,-20,360v-39,108,-135,162,-288,162v-149,0,-274,-59,-300,-174v-22,-97,-10,-254,-10,-372v0,-87,-15,-91,-93,-94r0,-42r336,0r0,42v-71,1,-95,19,-95,94r0,265v1,68,1,88,23,128v30,51,93,82,173,82v106,1,182,-50,201,-135v15,-64,8,-216,8,-304v0,-104,-16,-129,-107,-130r0,-42r278,0r0,42","w":831},"\u00dd":{"d":"342,-724r117,-180r187,0r-220,180r-84,0xm481,-136v-5,82,31,94,110,94r0,42r-367,0r0,-42v78,1,109,-13,109,-94r0,-132r-209,-277v-27,-36,-45,-57,-54,-64v-14,-11,-41,-16,-73,-15r0,-43r350,0r0,43v-54,-3,-90,14,-63,50r173,230r118,-184v17,-27,26,-48,26,-63v0,-26,-31,-35,-71,-33r0,-43r254,0r0,43v-35,3,-59,9,-74,20v-15,11,-38,40,-67,85r-162,251r0,132","w":791},"\u00de":{"d":"272,-148v-4,80,16,106,93,106r33,0r0,42r-365,0r0,-42v72,-1,91,-5,91,-87r0,-409v0,-75,-7,-83,-74,-87r-25,0r0,-42r357,0r0,42v-73,-2,-116,11,-110,84v45,-6,83,-9,114,-9v154,-2,279,69,279,210v0,134,-122,206,-269,203v-41,0,-83,-4,-124,-11xm504,-345v0,-101,-56,-161,-155,-161v-25,0,-51,3,-77,9r0,305v23,5,48,7,76,7v100,0,156,-59,156,-160","w":694},"\u00df":{"d":"215,-135v1,81,-1,95,54,101r0,34r-248,0r0,-34v67,-3,63,-18,63,-101r0,-287v0,-98,10,-165,31,-202v36,-65,105,-97,206,-97v113,0,213,59,213,163v0,96,-81,155,-171,174v114,11,207,88,207,192v0,120,-117,217,-249,204r0,-36v82,-9,116,-59,116,-152v1,-110,-48,-187,-145,-194r0,-34v75,-3,113,-47,113,-134v0,-83,-35,-140,-102,-144v-49,-3,-80,49,-85,100v-2,19,-3,52,-3,99r0,348","w":606},"\u00e0":{"d":"252,-499r-189,-202r173,0r79,202r-63,0xm164,11v-74,1,-127,-41,-125,-112v2,-76,47,-109,122,-130v62,-17,105,-40,132,-64r0,-40v1,-39,-28,-72,-66,-72v-45,0,-64,36,-56,83r-120,42v-16,-66,6,-103,64,-133v74,-39,143,-49,221,-17v58,24,90,53,90,132r0,135v0,48,1,75,4,82v9,25,27,19,49,4r16,25v-26,30,-76,64,-122,64v-41,0,-66,-21,-75,-64v-10,6,-18,13,-26,21v-31,29,-67,44,-108,44xm181,-174v-26,39,-12,128,41,125v15,0,40,-15,73,-44r0,-154v-19,20,-96,45,-114,73","w":495},"\u00e1":{"d":"182,-499r79,-202r169,0r-182,202r-66,0xm164,11v-74,1,-127,-41,-125,-112v2,-76,47,-109,122,-130v62,-17,105,-40,132,-64r0,-40v1,-39,-28,-72,-66,-72v-45,0,-64,36,-56,83r-120,42v-16,-66,6,-103,64,-133v74,-39,143,-49,221,-17v58,24,90,53,90,132r0,135v0,48,1,75,4,82v9,25,27,19,49,4r16,25v-26,30,-76,64,-122,64v-41,0,-66,-21,-75,-64v-10,6,-18,13,-26,21v-31,29,-67,44,-108,44xm181,-174v-26,39,-12,128,41,125v15,0,40,-15,73,-44r0,-154v-19,20,-96,45,-114,73","w":495},"\u00e2":{"d":"75,-499r86,-202r158,0r90,202r-83,0r-85,-113r-81,113r-85,0xm164,11v-74,1,-127,-41,-125,-112v2,-76,47,-109,122,-130v62,-17,105,-40,132,-64r0,-40v1,-39,-28,-72,-66,-72v-45,0,-64,36,-56,83r-120,42v-16,-66,6,-103,64,-133v74,-39,143,-49,221,-17v58,24,90,53,90,132r0,135v0,48,1,75,4,82v9,25,27,19,49,4r16,25v-26,30,-76,64,-122,64v-41,0,-66,-21,-75,-64v-10,6,-18,13,-26,21v-31,29,-67,44,-108,44xm181,-174v-26,39,-12,128,41,125v15,0,40,-15,73,-44r0,-154v-19,20,-96,45,-114,73","w":495},"\u00e3":{"d":"321,-521v-52,2,-112,-56,-159,-56v-24,0,-41,19,-50,56r-68,0v-2,-85,42,-154,119,-159v37,-3,123,56,156,56v25,0,41,-18,50,-54r69,0v-1,77,-47,154,-117,157xm164,11v-74,1,-127,-41,-125,-112v2,-76,47,-109,122,-130v62,-17,105,-40,132,-64r0,-40v1,-39,-28,-72,-66,-72v-45,0,-64,36,-56,83r-120,42v-16,-66,6,-103,64,-133v74,-39,143,-49,221,-17v58,24,90,53,90,132r0,135v0,48,1,75,4,82v9,25,27,19,49,4r16,25v-26,30,-76,64,-122,64v-41,0,-66,-21,-75,-64v-10,6,-18,13,-26,21v-31,29,-67,44,-108,44xm181,-174v-26,39,-12,128,41,125v15,0,40,-15,73,-44r0,-154v-19,20,-96,45,-114,73","w":495},"\u00e4":{"d":"408,-599v0,34,-30,64,-64,64v-34,0,-64,-30,-64,-65v0,-34,30,-63,64,-63v34,0,64,30,64,64xm200,-599v0,34,-30,64,-64,64v-34,0,-64,-30,-64,-65v0,-34,30,-63,64,-63v34,0,64,30,64,64xm164,11v-74,1,-127,-41,-125,-112v2,-76,47,-109,122,-130v62,-17,105,-40,132,-64r0,-40v1,-39,-28,-72,-66,-72v-45,0,-64,36,-56,83r-120,42v-16,-66,6,-103,64,-133v74,-39,143,-49,221,-17v58,24,90,53,90,132r0,135v0,48,1,75,4,82v9,25,27,19,49,4r16,25v-26,30,-76,64,-122,64v-41,0,-66,-21,-75,-64v-10,6,-18,13,-26,21v-31,29,-67,44,-108,44xm181,-174v-26,39,-12,128,41,125v15,0,40,-15,73,-44r0,-154v-19,20,-96,45,-114,73","w":495},"\u00e5":{"d":"355,-608v0,55,-48,104,-103,104v-57,0,-104,-47,-104,-104v0,-54,50,-103,104,-103v56,0,103,47,103,103xm187,-608v0,36,30,67,65,67v35,0,66,-31,66,-67v0,-35,-30,-66,-65,-66v-35,0,-66,31,-66,66xm164,11v-74,1,-127,-41,-125,-112v2,-76,47,-109,122,-130v62,-17,105,-40,132,-64r0,-40v1,-39,-28,-72,-66,-72v-45,0,-64,36,-56,83r-120,42v-16,-66,6,-103,64,-133v74,-39,143,-49,221,-17v58,24,90,53,90,132r0,135v0,48,1,75,4,82v9,25,27,19,49,4r16,25v-26,30,-76,64,-122,64v-41,0,-66,-21,-75,-64v-10,6,-18,13,-26,21v-31,29,-67,44,-108,44xm181,-174v-26,39,-12,128,41,125v15,0,40,-15,73,-44r0,-154v-19,20,-96,45,-114,73","w":495},"\u00e6":{"d":"158,10v-69,1,-119,-44,-118,-111v0,-83,60,-116,135,-136v48,-13,86,-30,114,-52v10,-60,-12,-118,-66,-118v-32,-1,-55,25,-54,57r5,26r-123,43v-12,-50,4,-93,39,-118v79,-59,213,-71,289,-9v66,-59,203,-54,265,7v21,21,35,48,43,85v7,33,16,55,25,66r0,17r-293,0v8,88,49,164,134,164v43,0,86,-25,128,-75r21,26v-45,63,-134,129,-227,129v-69,0,-131,-34,-166,-74v-51,49,-101,73,-151,73xm419,-267r151,0v-3,-35,-8,-59,-11,-72v-17,-68,-89,-83,-121,-26v-13,23,-19,56,-19,98xm289,-240v-56,43,-121,35,-122,118v-1,36,19,73,51,73v25,0,49,-14,71,-41r0,-150","w":745},"\u00e7":{"d":"259,11v-126,0,-222,-87,-222,-212v0,-142,130,-249,277,-249v47,0,85,9,116,26v31,17,47,39,47,65v0,49,-56,65,-95,44v-19,-10,-78,-88,-112,-85v-64,6,-89,84,-89,163v0,100,45,193,133,193v47,0,92,-26,136,-77r31,18v-40,63,-101,101,-182,112r-15,26v38,9,65,40,65,85v1,58,-50,100,-109,99v-33,0,-64,-8,-93,-25r10,-32v18,8,38,12,60,12v24,1,48,-20,47,-44v0,-25,-20,-38,-61,-41","w":514},"\u00e8":{"d":"271,-499r-189,-202r173,0r79,202r-63,0xm233,11v-119,3,-196,-97,-196,-220v0,-136,96,-244,230,-240v109,3,169,56,185,159v3,16,10,27,21,34r0,24r-299,0v3,79,60,163,136,164v37,0,80,-26,129,-77r24,21v-50,71,-127,133,-230,135xm249,-398v-56,0,-81,65,-77,132r153,0v-1,-68,-19,-132,-76,-132","w":506},"\u00e9":{"d":"168,-499r79,-202r169,0r-182,202r-66,0xm233,11v-119,3,-196,-97,-196,-220v0,-136,96,-244,230,-240v109,3,169,56,185,159v3,16,10,27,21,34r0,24r-299,0v3,79,60,163,136,164v37,0,80,-26,129,-77r24,21v-50,71,-127,133,-230,135xm249,-398v-56,0,-81,65,-77,132r153,0v-1,-68,-19,-132,-76,-132","w":506},"\u00ea":{"d":"81,-499r86,-202r158,0r90,202r-83,0r-85,-113r-81,113r-85,0xm233,11v-119,3,-196,-97,-196,-220v0,-136,96,-244,230,-240v109,3,169,56,185,159v3,16,10,27,21,34r0,24r-299,0v3,79,60,163,136,164v37,0,80,-26,129,-77r24,21v-50,71,-127,133,-230,135xm249,-398v-56,0,-81,65,-77,132r153,0v-1,-68,-19,-132,-76,-132","w":506},"\u00eb":{"d":"421,-599v0,34,-30,64,-64,64v-34,0,-64,-30,-64,-65v0,-34,30,-63,64,-63v34,0,64,30,64,64xm213,-599v0,34,-30,64,-64,64v-34,0,-64,-30,-64,-65v0,-34,30,-63,64,-63v34,0,64,30,64,64xm233,11v-119,3,-196,-97,-196,-220v0,-136,96,-244,230,-240v109,3,169,56,185,159v3,16,10,27,21,34r0,24r-299,0v3,79,60,163,136,164v37,0,80,-26,129,-77r24,21v-50,71,-127,133,-230,135xm249,-398v-56,0,-81,65,-77,132r153,0v-1,-68,-19,-132,-76,-132","w":506},"\u00ec":{"d":"145,-499r-189,-202r173,0r79,202r-63,0xm219,-119v-1,65,13,84,66,85r0,34r-268,0r0,-34v55,2,72,-19,71,-75r0,-202v-1,-44,-3,-39,-37,-53r-35,-14r0,-26r183,-60r20,0r0,345","w":307},"\u00ed":{"d":"69,-499r79,-202r169,0r-182,202r-66,0xm219,-119v-1,65,13,84,66,85r0,34r-268,0r0,-34v55,2,72,-19,71,-75r0,-202v-1,-44,-3,-39,-37,-53r-35,-14r0,-26r183,-60r20,0r0,345","w":307},"\u00ee":{"d":"-32,-499r86,-202r158,0r90,202r-83,0r-85,-113r-81,113r-85,0xm219,-119v-1,65,13,84,66,85r0,34r-268,0r0,-34v55,2,72,-19,71,-75r0,-202v-1,-44,-3,-39,-37,-53r-35,-14r0,-26r183,-60r20,0r0,345","w":307},"\u00ef":{"d":"290,-599v0,34,-30,64,-64,64v-34,0,-64,-30,-64,-65v0,-34,30,-63,64,-63v34,0,64,30,64,64xm122,-599v0,34,-30,64,-64,64v-34,0,-64,-30,-64,-65v0,-34,30,-63,64,-63v34,0,64,30,64,64xm219,-119v-1,65,13,84,66,85r0,34r-268,0r0,-34v55,2,72,-19,71,-75r0,-202v-1,-44,-3,-39,-37,-53r-35,-14r0,-26r183,-60r20,0r0,345","w":307},"\u00f0":{"d":"558,-254v0,162,-107,265,-269,265v-107,0,-185,-49,-225,-121v-90,-162,63,-344,223,-340v23,0,47,5,73,14v-11,-57,-32,-108,-65,-153r-109,71r-20,-31r105,-68v-18,-21,-43,-44,-75,-70r22,-30v18,8,54,28,108,60r109,-71r20,31r-97,63v59,47,86,72,124,131v51,79,76,162,76,249xm279,-406v-117,0,-115,161,-81,256v22,61,50,119,121,119v69,0,101,-59,101,-134v0,-70,-13,-128,-40,-173v-27,-45,-60,-68,-101,-68","w":594},"\u00f1":{"d":"381,-521v-52,2,-112,-56,-159,-56v-24,0,-41,19,-50,56r-68,0v-2,-85,42,-154,119,-159v37,-3,123,56,156,56v25,0,41,-18,50,-54r69,0v-1,77,-47,154,-117,157xm219,-119v-2,68,16,86,74,85r0,34r-273,0r0,-34v53,1,68,-21,68,-75r0,-215v4,-22,-37,-41,-73,-49r0,-27r184,-61r20,0r0,96v49,-34,154,-86,199,-84v91,5,112,78,112,184v0,60,-6,175,8,211v6,15,27,21,54,20r0,34r-254,0r0,-34v62,-14,61,-54,61,-141v0,-86,12,-191,-66,-193v-28,0,-66,16,-114,47r0,202","w":614},"\u00f2":{"d":"317,-499r-189,-202r173,0r79,202r-63,0xm288,11v-139,0,-251,-92,-251,-227v0,-134,129,-234,269,-234v139,0,254,90,254,223v0,141,-125,238,-272,238xm279,-405v-68,1,-101,55,-100,128v0,57,12,111,35,163v25,54,61,81,108,81v67,-1,97,-59,96,-133v0,-69,-13,-127,-39,-172v-26,-45,-59,-67,-100,-67","w":596},"\u00f3":{"d":"213,-499r79,-202r169,0r-182,202r-66,0xm288,11v-139,0,-251,-92,-251,-227v0,-134,129,-234,269,-234v139,0,254,90,254,223v0,141,-125,238,-272,238xm279,-405v-68,1,-101,55,-100,128v0,57,12,111,35,163v25,54,61,81,108,81v67,-1,97,-59,96,-133v0,-69,-13,-127,-39,-172v-26,-45,-59,-67,-100,-67","w":596},"\u00f4":{"d":"137,-499r86,-202r158,0r90,202r-83,0r-85,-113r-81,113r-85,0xm288,11v-139,0,-251,-92,-251,-227v0,-134,129,-234,269,-234v139,0,254,90,254,223v0,141,-125,238,-272,238xm279,-405v-68,1,-101,55,-100,128v0,57,12,111,35,163v25,54,61,81,108,81v67,-1,97,-59,96,-133v0,-69,-13,-127,-39,-172v-26,-45,-59,-67,-100,-67","w":596},"\u00f5":{"d":"382,-521v-52,2,-112,-56,-159,-56v-24,0,-41,19,-50,56r-68,0v-2,-85,42,-154,119,-159v37,-3,123,56,156,56v25,0,41,-18,50,-54r69,0v-1,77,-47,154,-117,157xm288,11v-139,0,-251,-92,-251,-227v0,-134,129,-234,269,-234v139,0,254,90,254,223v0,141,-125,238,-272,238xm279,-405v-68,1,-101,55,-100,128v0,57,12,111,35,163v25,54,61,81,108,81v67,-1,97,-59,96,-133v0,-69,-13,-127,-39,-172v-26,-45,-59,-67,-100,-67","w":596},"\u00f6":{"d":"466,-599v0,34,-30,64,-64,64v-34,0,-64,-30,-64,-65v0,-34,30,-63,64,-63v34,0,64,30,64,64xm258,-599v0,34,-30,64,-64,64v-34,0,-64,-30,-64,-65v0,-34,30,-63,64,-63v34,0,64,30,64,64xm288,11v-139,0,-251,-92,-251,-227v0,-134,129,-234,269,-234v139,0,254,90,254,223v0,141,-125,238,-272,238xm279,-405v-68,1,-101,55,-100,128v0,57,12,111,35,163v25,54,61,81,108,81v67,-1,97,-59,96,-133v0,-69,-13,-127,-39,-172v-26,-45,-59,-67,-100,-67","w":596},"\u00f7":{"d":"323,-487v0,28,-26,54,-54,54v-28,0,-55,-26,-55,-54v0,-30,25,-55,55,-55v29,0,54,26,54,55xm55,-291r0,-60r427,0r0,60r-427,0xm269,-100v-28,0,-55,-26,-55,-54v0,-30,25,-55,55,-55v29,0,54,26,54,55v0,28,-26,54,-54,54"},"\u00f8":{"d":"560,-227v0,137,-126,238,-267,238v-53,0,-99,-10,-139,-31r-60,69r-30,-24r56,-66v-55,-43,-83,-100,-83,-172v0,-137,126,-237,268,-237v51,0,97,11,138,32r69,-81r30,27r-65,76v55,44,83,100,83,169xm279,-405v-67,0,-101,55,-100,127v0,50,8,97,25,140r173,-203v-23,-43,-56,-64,-98,-64xm321,-33v118,1,109,-174,75,-268r-174,202v25,44,58,66,99,66","w":596},"\u00f9":{"d":"304,-499r-189,-202r173,0r79,202r-63,0xm528,-121v2,45,-3,62,32,65v11,0,21,-2,31,-7r0,33r-173,41r-21,0r0,-85v-89,57,-154,85,-193,85v-77,0,-116,-54,-116,-163r0,-163v-1,-38,0,-48,-23,-60r-22,-11r0,-24r154,-39r22,0r0,235v0,61,6,99,17,115v13,19,30,29,53,29v25,0,61,-15,108,-44r0,-194v-1,-43,-6,-52,-39,-62r-49,-15r0,-25r219,-39r0,328","w":611},"\u00fa":{"d":"241,-499r79,-202r169,0r-182,202r-66,0xm528,-121v2,45,-3,62,32,65v11,0,21,-2,31,-7r0,33r-173,41r-21,0r0,-85v-89,57,-154,85,-193,85v-77,0,-116,-54,-116,-163r0,-163v-1,-38,0,-48,-23,-60r-22,-11r0,-24r154,-39r22,0r0,235v0,61,6,99,17,115v13,19,30,29,53,29v25,0,61,-15,108,-44r0,-194v-1,-43,-6,-52,-39,-62r-49,-15r0,-25r219,-39r0,328","w":611},"\u00fb":{"d":"134,-499r86,-202r158,0r90,202r-83,0r-85,-113r-81,113r-85,0xm528,-121v2,45,-3,62,32,65v11,0,21,-2,31,-7r0,33r-173,41r-21,0r0,-85v-89,57,-154,85,-193,85v-77,0,-116,-54,-116,-163r0,-163v-1,-38,0,-48,-23,-60r-22,-11r0,-24r154,-39r22,0r0,235v0,61,6,99,17,115v13,19,30,29,53,29v25,0,61,-15,108,-44r0,-194v-1,-43,-6,-52,-39,-62r-49,-15r0,-25r219,-39r0,328","w":611},"\u00fc":{"d":"474,-599v0,34,-30,64,-64,64v-34,0,-64,-30,-64,-65v0,-34,30,-63,64,-63v34,0,64,30,64,64xm266,-599v0,34,-30,64,-64,64v-34,0,-64,-30,-64,-65v0,-34,30,-63,64,-63v34,0,64,30,64,64xm528,-121v2,45,-3,62,32,65v11,0,21,-2,31,-7r0,33r-173,41r-21,0r0,-85v-89,57,-154,85,-193,85v-77,0,-116,-54,-116,-163r0,-163v-1,-38,0,-48,-23,-60r-22,-11r0,-24r154,-39r22,0r0,235v0,61,6,99,17,115v13,19,30,29,53,29v25,0,61,-15,108,-44r0,-194v-1,-43,-6,-52,-39,-62r-49,-15r0,-25r219,-39r0,328","w":611},"\u00fd":{"d":"226,-499r79,-202r169,0r-182,202r-66,0xm107,250v-37,1,-68,-26,-67,-61v0,-42,27,-66,81,-69v41,-3,72,-26,93,-72r27,-59r-146,-295v-21,-41,-37,-68,-48,-79v-11,-11,-29,-18,-53,-19r0,-34r274,0r0,34v-33,-2,-56,9,-55,33v0,9,5,22,14,41r85,175r82,-165v7,-15,11,-27,11,-38v-1,-31,-32,-45,-67,-46r0,-34r200,0r0,34v-59,15,-67,31,-94,86r-216,442v-21,43,-37,72,-47,85v-20,27,-45,41,-74,41","w":543},"\u00fe":{"d":"17,210v66,-1,71,-23,71,-101r0,-676v0,-27,-10,-44,-30,-51r-39,-14r0,-27r172,-58r28,0r0,358v43,-35,77,-59,101,-71v130,-65,252,49,252,183v0,137,-100,258,-247,258v-32,0,-67,-4,-106,-13r0,108v2,87,21,96,106,104r0,34r-308,0r0,-34xm440,-186v0,-91,-37,-183,-114,-183v-31,0,-66,18,-107,55r0,234v33,35,69,52,109,52v72,-1,112,-77,112,-158","w":608},"\u00ff":{"d":"446,-599v0,34,-30,64,-64,64v-34,0,-64,-30,-64,-65v0,-34,30,-63,64,-63v34,0,64,30,64,64xm238,-599v0,34,-30,64,-64,64v-34,0,-64,-30,-64,-65v0,-34,30,-63,64,-63v34,0,64,30,64,64xm107,250v-37,1,-68,-26,-67,-61v0,-42,27,-66,81,-69v41,-3,72,-26,93,-72r27,-59r-146,-295v-21,-41,-37,-68,-48,-79v-11,-11,-29,-18,-53,-19r0,-34r274,0r0,34v-33,-2,-56,9,-55,33v0,9,5,22,14,41r85,175r82,-165v7,-15,11,-27,11,-38v-1,-31,-32,-45,-67,-46r0,-34r200,0r0,34v-59,15,-67,31,-94,86r-216,442v-21,43,-37,72,-47,85v-20,27,-45,41,-74,41","w":543},"\u0152":{"d":"525,0v-37,-1,-78,4,-106,5v-124,0,-218,-36,-283,-106v-93,-100,-118,-249,-55,-383v55,-114,171,-194,335,-192v15,0,45,2,91,5v35,3,75,4,121,4r427,0r8,157r-42,0v-19,-97,-13,-98,-124,-98r-158,0r0,243r122,0v76,-2,91,-9,99,-76r42,0r0,213r-43,0v-2,-70,-25,-78,-101,-78r-119,0r0,247v81,-3,190,10,253,-9v40,-12,53,-55,63,-104r43,0r-15,172r-558,0xm447,-630v-149,-1,-241,117,-241,272v0,158,110,314,257,314v54,0,101,-28,114,-69v26,-83,14,-249,14,-361v0,-53,-7,-89,-21,-108v-23,-32,-64,-48,-123,-48","w":1134},"\u0153":{"d":"276,12v-131,0,-240,-101,-240,-230v0,-132,118,-230,254,-230v63,0,118,16,164,49v77,-63,200,-69,270,-5v21,19,38,50,50,91v7,20,12,41,23,56r0,24r-277,0v8,83,51,160,129,160v40,0,79,-22,117,-66r26,25v-43,64,-125,121,-221,123v-44,0,-87,-15,-130,-45v-56,32,-111,48,-165,48xm519,-267r136,0v-1,-42,-8,-75,-19,-99v-18,-39,-61,-48,-89,-18v-25,27,-28,58,-28,117xm264,-400v-59,0,-91,54,-91,119v0,63,16,126,48,188v20,39,48,59,85,59v60,0,94,-53,92,-118v-3,-89,-24,-191,-80,-230v-17,-12,-35,-18,-54,-18","w":830},"\u0178":{"d":"625,-799v0,40,-35,75,-75,75v-42,0,-76,-34,-76,-76v0,-40,35,-75,75,-75v40,0,76,36,76,76xm356,-799v0,40,-35,75,-75,75v-41,0,-76,-35,-76,-76v0,-40,35,-75,75,-75v41,0,76,35,76,76xm481,-136v-5,82,31,94,110,94r0,42r-367,0r0,-42v78,1,109,-13,109,-94r0,-132r-209,-277v-27,-36,-45,-57,-54,-64v-14,-11,-41,-16,-73,-15r0,-43r350,0r0,43v-54,-3,-90,14,-63,50r173,230r118,-184v17,-27,26,-48,26,-63v0,-26,-31,-35,-71,-33r0,-43r254,0r0,43v-35,3,-59,9,-74,20v-15,11,-38,40,-67,85r-162,251r0,132","w":791},"\u02c6":{"d":"78,-499r86,-202r158,0r90,202r-83,0r-85,-113r-81,113r-85,0","w":500},"\u02dc":{"d":"324,-521v-52,2,-112,-56,-159,-56v-24,0,-41,19,-50,56r-68,0v-2,-85,42,-154,119,-159v37,-3,123,56,156,56v25,0,41,-18,50,-54r69,0v-1,77,-47,154,-117,157","w":500},"\u2013":{"d":"-6,-220r0,-97r549,0r0,97r-549,0"},"\u2014":{"d":"-6,-220r0,-97r1085,0r0,97r-1085,0","w":1073},"\u2018":{"d":"271,-466v0,44,-37,72,-84,72v-70,0,-115,-51,-115,-123v0,-94,79,-174,176,-166r8,45v-58,3,-115,34,-117,88v-1,27,33,13,52,13v45,-1,80,27,80,71","w":335},"\u2019":{"d":"248,-561v0,97,-74,172,-176,167r-9,-45v59,-3,116,-35,118,-89v1,-27,-33,-13,-52,-13v-45,1,-80,-27,-80,-71v0,-44,37,-72,84,-72v70,0,115,51,115,123","w":302},"\u201a":{"d":"146,10v-45,1,-80,-27,-80,-71v0,-44,37,-72,84,-72v70,0,115,51,115,123v0,95,-76,172,-176,167r-9,-46v59,-3,116,-34,118,-88v1,-27,-33,-13,-52,-13","w":335},"\u201c":{"d":"563,-466v0,44,-37,72,-84,72v-70,0,-114,-51,-114,-123v0,-94,78,-174,175,-166r9,45v-59,3,-115,34,-117,88v-1,27,32,14,51,13v47,-1,80,27,80,71xm268,-466v0,44,-37,72,-84,72v-70,0,-115,-51,-115,-123v0,-94,79,-174,176,-166r8,45v-58,3,-115,34,-117,88v-1,27,33,13,52,13v45,-1,80,27,80,71","w":626},"\u201d":{"d":"558,-561v0,97,-74,171,-175,167r-9,-45v58,-3,115,-35,117,-89v1,-27,-32,-14,-51,-13v-47,1,-80,-27,-80,-71v0,-44,37,-72,84,-72v70,0,114,51,114,123xm262,-561v0,97,-74,172,-176,167r-9,-45v59,-3,116,-35,118,-89v1,-27,-33,-13,-52,-13v-45,1,-80,-27,-80,-71v0,-44,37,-72,84,-72v70,0,115,51,115,123","w":626},"\u201e":{"d":"439,10v-47,1,-80,-27,-80,-71v0,-44,37,-72,84,-72v70,0,114,51,114,123v0,95,-76,172,-175,167r-9,-46v58,-2,115,-35,117,-88v1,-27,-32,-14,-51,-13xm142,10v-45,1,-80,-27,-80,-71v0,-44,37,-72,84,-72v70,0,115,51,115,123v0,95,-76,172,-176,167r-9,-46v59,-3,116,-34,118,-88v1,-27,-33,-13,-52,-13","w":626},"\u2022":{"d":"473,-339v0,75,-64,139,-138,139v-74,0,-139,-64,-139,-138v0,-76,65,-139,141,-139v72,0,136,66,136,138","w":667},"\u2026":{"d":"835,11v-45,0,-84,-29,-84,-72v0,-43,42,-72,87,-72v46,0,86,28,86,71v0,43,-43,73,-89,73xm500,11v-45,0,-84,-29,-84,-72v0,-43,42,-72,87,-72v46,0,86,28,86,71v0,43,-43,73,-89,73xm164,11v-44,0,-83,-30,-83,-72v0,-43,42,-72,86,-72v46,0,86,28,86,71v0,43,-43,73,-89,73","w":1006},"\u2039":{"d":"203,-37r-180,-199r180,-202r36,0r-88,202r88,199r-36,0","w":268},"\u203a":{"d":"27,-37r86,-200r-86,-201r34,0r180,201r-179,200r-35,0","w":268},"\u20ac":{"d":"500,15v-195,0,-358,-125,-385,-293r-69,0r17,-41r48,0v-1,-11,-1,-15,0,-26r-65,0r17,-41r52,0v34,-222,327,-368,578,-263v28,12,39,17,56,-1r26,0r10,188r-42,0v-30,-95,-98,-166,-213,-167v-147,-1,-242,104,-257,243r351,0r-17,41r-336,0v0,14,0,23,1,26r325,0r-18,41r-302,0v20,129,125,241,265,241v112,0,187,-68,223,-155r43,0v-5,50,-41,156,-61,195v-70,-24,-163,12,-247,12","w":853},"\u2122":{"d":"293,-366v-3,51,22,49,70,49r0,30r-233,0r0,-30r19,0v43,-1,51,-6,51,-49r0,-264r-62,0v-65,2,-58,11,-73,72r-32,0r11,-119r25,0v14,13,13,10,44,10r281,0v15,0,26,-3,31,-10r24,0r12,119r-31,0v-17,-57,-6,-72,-66,-72r-71,0r0,264xm601,-373v-3,42,8,59,52,56r0,30r-146,0r0,-30v50,-1,50,-9,53,-61r15,-231v0,-25,-16,-25,-43,-28r0,-30r138,0r121,248r115,-248r140,0r0,30v-25,5,-49,-4,-46,25r16,239v5,53,3,50,55,56r0,30r-204,0r0,-30v38,0,62,2,59,-37r-15,-227r-137,294r-19,0r-140,-287","w":1093}}});
