/*!
 * The following copyright notice may not be removed under any circumstances.
 * 
 * Copyright:
 * Typeface © FontSite Inc., 1996-2008. All Rights Reserved. www.fontsite.com
 * 
 * Trademark:
 * Bergamo is a trademark of FontSite Inc.
 * 
 * Designer:
 * FontSite.com
 * 
 * Vendor URL:
 * http://www.fontsite.com
 * 
 * License information:
 * http://www.fontsite.com/license.html
 */
Cufon.registerFont({"w":527,"face":{"font-family":"Bergamo Std","font-weight":400,"font-style":"italic","font-stretch":"normal","units-per-em":"1000","panose-1":"2 2 5 2 6 3 6 9 8 4","ascent":"722","descent":"-278","x-height":"13","bbox":"-233 -884 1120 250.631","underline-thickness":"50","underline-position":"-50","slope":"-11.5","unicode-range":"U+0020-U+2122"},"glyphs":{" ":{"w":250},"!":{"d":"238,-684v24,0,57,-6,55,19v0,6,-1,12,-3,18r-132,470r-20,0r64,-469v7,-33,1,-38,36,-38xm116,13v-26,0,-41,-20,-41,-48v0,-32,21,-63,51,-63v25,0,41,22,41,49v0,32,-21,62,-51,62","w":313},"\"":{"d":"287,-677v39,0,40,56,34,101r-23,163r-21,0r-23,-163v-2,-20,-3,-34,-3,-41v-1,-29,11,-60,36,-60xm166,-677v26,0,39,31,38,61v0,3,-1,16,-4,40r-22,163r-22,0r-23,-163v-7,-39,-5,-101,33,-101","w":306},"#":{"d":"78,0r66,-229r-104,0r10,-35r105,0r43,-152r-104,0r10,-35r105,0r62,-216r38,0r-62,216r153,0r62,-216r39,0r-63,216r99,0r-10,35r-99,0r-44,152r99,0r-10,35r-99,0r-66,229r-39,0r66,-229r-153,0r-66,229r-38,0xm193,-264r153,0r44,-152r-153,0"},"$":{"d":"167,4v-48,-15,-93,-56,-94,-113v-1,-24,13,-47,36,-46v28,1,36,27,30,60v-7,36,4,58,33,77r59,-292v-47,-48,-71,-99,-71,-153v0,-90,55,-149,135,-162r13,-64r17,0r-12,62r57,2r13,-64r17,0r-14,67v54,13,93,54,93,117v0,33,-11,49,-32,49v-19,0,-31,-18,-29,-38r6,-50v0,-25,-14,-44,-42,-56r-58,287v61,59,92,115,92,167v0,93,-69,152,-159,159r-16,80r-17,0r16,-79v-19,0,-37,-2,-56,-6r-18,85r-17,0xm309,-327r57,-278v-25,-4,-29,-4,-57,-1r-47,231v21,24,28,29,47,48xm290,-602v-45,14,-81,55,-81,111v0,30,13,63,39,98xm188,-11v20,5,35,7,56,5r49,-240r-48,-49xm262,-8v50,-10,93,-57,93,-114v0,-34,-16,-70,-48,-107"},"%":{"d":"85,29r666,-730r47,0r-666,730r-47,0xm412,-518v0,131,-92,272,-213,271v-88,0,-134,-71,-134,-164v0,-128,98,-273,216,-271v90,1,131,67,131,164xm123,-367v-1,59,23,102,76,103v46,0,83,-31,111,-93v29,-65,44,-133,44,-203v0,-70,-26,-105,-77,-105v-80,0,-117,92,-137,185v-10,47,-17,85,-17,113xm637,15v-89,0,-134,-69,-134,-164v0,-129,96,-274,216,-272v90,1,131,68,131,165v0,131,-92,272,-213,271xm715,-404v-109,0,-149,185,-154,300v-3,59,23,101,76,102v46,0,83,-31,111,-93v30,-67,45,-135,45,-204v0,-70,-26,-105,-78,-105","w":875},"&":{"d":"740,-438v39,6,31,59,6,84v-34,33,-83,52,-155,53v83,64,58,156,-14,226v-62,61,-144,92,-245,92v-125,0,-208,-42,-253,-123v-33,-59,-33,-119,3,-174v37,-57,98,-96,184,-107v-81,-23,-122,-64,-122,-124v0,-103,122,-173,246,-173v63,0,110,13,143,39v27,21,41,42,41,63v0,29,-45,44,-62,20v-6,-8,-12,-23,-18,-45v-9,-34,-43,-51,-102,-51v-94,0,-162,74,-162,163v0,63,39,112,108,94v17,0,25,6,25,17v0,12,-11,18,-33,18v-18,0,-70,-6,-92,8v-58,21,-90,73,-90,144v0,126,88,195,220,194v79,0,145,-27,197,-81v34,-36,51,-72,51,-108v0,-59,-50,-95,-112,-95v-31,0,-76,9,-80,30v-2,10,28,31,25,43v0,14,-14,26,-29,25v-21,0,-35,-14,-35,-34v-1,-43,48,-90,90,-102v46,-13,131,-8,192,-7v28,1,63,-9,65,-29v1,-9,-21,-27,-18,-38v0,-11,14,-23,26,-22","w":760},"'":{"d":"166,-677v26,0,39,31,38,61v0,3,-1,16,-4,40r-22,163r-22,0r-23,-163v-7,-39,-5,-101,33,-101","w":185},"(":{"d":"170,250v-57,-139,-95,-217,-95,-375v0,-80,17,-158,47,-235v46,-117,166,-275,261,-362r9,16v-113,132,-160,216,-220,396v-59,179,-53,374,15,552","w":324},")":{"d":"162,-722v58,142,96,215,96,375v0,155,-65,313,-195,473v-35,43,-73,85,-114,124r-9,-16v113,-131,163,-224,221,-395v27,-79,40,-167,40,-263v0,-134,-18,-169,-56,-290","w":324},"*":{"d":"140,-275r-24,-24r113,-151r-144,-120r15,-28r177,60r72,-171r31,6r-3,185r185,14r4,32r-178,55r45,182r-32,13r-106,-148"},"+":{"d":"273,-131r0,-194r-204,0r0,-33r204,0r0,-194r33,0r0,194r203,0r0,33r-203,0r0,194r-33,0"},",":{"d":"114,48v0,-23,-31,-74,-31,-97v0,-25,20,-50,45,-49v32,0,53,40,53,77v0,79,-51,148,-153,207r-9,-19v36,-25,61,-47,75,-64v14,-17,20,-36,20,-55","w":313},"-":{"d":"50,-179r14,-67r242,0r-14,67r-242,0","w":358},".":{"d":"116,13v-26,0,-41,-20,-41,-48v0,-32,21,-63,51,-63v25,0,41,22,41,49v0,32,-21,62,-51,62","w":313},"\/":{"d":"-45,239r-40,0r407,-947r40,0","w":313},"0":{"d":"354,-684v118,0,162,104,162,236v0,162,-66,319,-152,398v-46,43,-93,65,-143,65v-116,0,-165,-108,-165,-239v0,-134,64,-294,130,-369v53,-60,109,-91,168,-91xm443,-516v0,-80,-24,-146,-94,-146v-55,0,-99,43,-138,128v-30,65,-82,283,-81,375v0,53,9,92,28,118v39,53,102,40,150,-8v39,-38,73,-112,100,-222v23,-95,35,-177,35,-245"},"1":{"d":"300,-60v0,39,29,39,79,43r-3,17r-256,0r4,-17v29,0,70,1,81,-11v7,-8,15,-25,20,-53r102,-504v-70,56,-132,93,-185,110r6,-29v101,-43,179,-102,236,-179r40,0r-121,593v-2,8,-3,18,-3,30"},"2":{"d":"319,-684v96,-1,177,60,174,152v-3,80,-37,113,-88,169v-47,52,-100,93,-150,140r-161,151r254,0v48,3,44,-24,55,-64r20,0r-24,136r-391,0r0,-16r94,-92v103,-101,180,-183,230,-249v51,-67,76,-128,76,-181v1,-61,-47,-101,-109,-100v-87,2,-138,60,-164,133r-21,0v16,-99,96,-178,205,-179"},"3":{"d":"95,15v-39,0,-79,-11,-81,-42v-1,-18,17,-37,35,-36v9,0,19,4,31,11v32,18,60,26,83,26v95,2,185,-140,185,-245v0,-59,-36,-108,-92,-107v-19,0,-49,11,-89,32r6,-26v75,-44,127,-82,159,-112v32,-30,48,-59,48,-86v1,-42,-38,-76,-81,-74v-60,3,-84,32,-119,74r-14,-13v41,-67,96,-101,165,-101v68,0,130,41,130,104v0,60,-55,111,-164,153v83,-10,141,51,137,130v-7,147,-123,252,-248,295v-34,12,-64,17,-91,17"},"4":{"d":"58,-203r0,-38r400,-442r28,0r-85,422r98,0r-12,58r-98,0r-45,218r-77,0r45,-218r-254,0xm111,-261r212,0r62,-303"},"5":{"d":"433,-289v0,151,-161,303,-314,303v-57,0,-86,-15,-86,-44v-1,-17,17,-36,34,-35v20,-3,85,46,110,44v49,-5,93,-37,120,-71v40,-48,60,-103,60,-165v0,-70,-38,-123,-104,-123v-25,0,-53,8,-84,24r83,-311v66,-3,136,3,202,4v28,0,45,-7,50,-22r18,0r-18,89v-52,8,-91,1,-152,1v-43,0,-74,1,-93,4r-41,153v27,-10,51,-15,70,-15v84,-1,145,77,145,164"},"6":{"d":"224,15v-102,0,-159,-82,-159,-190v0,-77,24,-155,71,-233v47,-78,109,-141,186,-190v77,-49,149,-77,217,-85r-6,27v-179,40,-292,181,-358,356v56,-54,110,-81,162,-81v75,-1,129,70,129,149v0,122,-121,247,-242,247xm386,-261v1,-50,-27,-86,-74,-86v-39,0,-88,27,-147,80v-22,63,-33,113,-33,150v-1,62,31,110,89,110v104,0,161,-140,165,-254"},"7":{"d":"165,15r304,-610r-273,0v-45,1,-58,5,-68,40r-14,54r-18,0r41,-167r385,0r0,28r-306,655r-51,0"},"8":{"d":"239,15v-92,0,-180,-64,-179,-152v0,-49,26,-96,79,-139v19,-16,54,-39,107,-68v-61,-61,-92,-118,-92,-171v-1,-101,87,-169,193,-169v85,0,160,48,160,126v0,43,-25,83,-74,122v-20,15,-56,37,-109,65v44,44,75,80,92,109v79,130,-37,277,-177,277xm345,-662v-66,0,-126,54,-126,119v0,47,31,99,92,156v61,-40,124,-101,128,-183v2,-54,-39,-92,-94,-92xm234,-9v73,0,135,-63,135,-136v0,-62,-36,-123,-107,-182v-89,61,-133,131,-133,211v0,61,44,107,105,107"},"9":{"d":"351,-684v104,0,165,82,161,192v-7,181,-101,297,-214,385v-85,66,-146,104,-268,122r5,-25v177,-39,297,-182,363,-353v-56,46,-87,74,-160,77v-75,3,-126,-73,-126,-152v0,-119,121,-246,239,-246xm190,-410v-1,50,26,91,73,91v39,0,89,-27,149,-81v16,-51,34,-127,34,-157v0,-58,-32,-105,-88,-105v-49,0,-88,26,-119,78v-33,57,-49,115,-49,174"},":":{"d":"236,-389v0,32,-21,62,-51,62v-26,0,-42,-20,-42,-48v0,-33,20,-63,51,-63v26,0,42,22,42,49xm117,13v-26,0,-41,-20,-41,-48v0,-32,21,-63,51,-63v25,0,41,22,41,49v0,32,-21,62,-51,62","w":313},";":{"d":"241,-389v0,32,-21,62,-51,62v-26,0,-42,-20,-42,-48v0,-31,22,-63,51,-63v26,0,42,22,42,49xm113,48v0,-23,-31,-74,-31,-97v0,-25,20,-50,45,-49v32,0,53,40,53,77v0,79,-51,148,-153,207r-9,-19v36,-25,60,-47,74,-64v14,-17,21,-36,21,-55","w":313},"<":{"d":"67,-339r0,-6r413,-266r0,35r-317,207r317,211r0,95","w":500},"=":{"d":"69,-398r0,-33r440,0r0,33r-440,0xm69,-251r0,-33r440,0r0,33r-440,0"},">":{"d":"67,-63r0,-36r317,-206r-317,-212r0,-94r413,276r0,6","w":500},"?":{"d":"232,-684v90,-1,153,73,151,166v-3,98,-39,159,-118,194v-73,33,-91,62,-114,148r-21,0v19,-140,28,-179,123,-232v54,-31,91,-49,94,-113v3,-50,-43,-86,-95,-85v-13,-2,-61,17,-89,17v-18,0,-27,-20,-27,-40v2,-40,56,-55,96,-55xm108,13v-26,0,-41,-20,-41,-48v0,-32,21,-63,51,-63v25,0,41,22,41,49v0,32,-21,62,-51,62","w":425},"@":{"d":"432,122v-189,0,-347,-161,-347,-350v0,-187,160,-351,345,-351v167,0,307,130,307,295v0,136,-117,253,-255,249v-30,0,-42,-14,-42,-45v0,-15,4,-43,13,-85v-82,85,-133,127,-153,127v-31,-2,-54,-54,-52,-93v3,-105,81,-200,157,-245v54,-32,96,-47,156,-42r-60,294v-8,33,-7,53,29,54v27,0,55,-12,84,-35v60,-48,90,-107,90,-178v0,-147,-131,-266,-274,-266v-170,0,-312,149,-312,320v0,174,144,321,317,321v73,0,141,-23,203,-70r40,0v-65,67,-147,100,-246,100xm303,-149v-1,28,8,66,29,66v14,0,56,-36,127,-109r37,-181v-93,9,-134,42,-168,112v-17,36,-25,73,-25,112","w":766},"A":{"d":"95,-65v3,43,39,43,89,46r-4,19r-232,0r4,-19v73,-13,86,-38,133,-99r434,-566r56,0r5,602v0,57,32,57,90,63r-4,19r-286,0r3,-19v78,0,113,-16,113,-89r-1,-183r-241,0r-140,181v-13,16,-19,31,-19,45xm284,-329r210,0r-2,-276","w":749},"B":{"d":"450,-372v82,18,153,82,153,174v0,78,-50,140,-108,167v-42,20,-96,31,-163,31r-330,0r4,-19v74,-1,88,-41,103,-110r83,-409v16,-66,13,-107,-54,-110r-24,0r4,-19r301,0v113,-1,202,41,202,142v0,91,-80,142,-171,153xm532,-534v0,-85,-57,-111,-152,-108r-82,0r-51,251v78,1,179,1,219,-25v43,-27,66,-65,66,-118xm510,-211v0,-100,-78,-156,-183,-154r-85,0r-45,221v-3,18,-5,31,-5,40v2,64,46,78,118,78v78,0,116,-15,154,-56v31,-34,46,-77,46,-129","w":656},"C":{"d":"608,-8v-45,4,-163,26,-204,25v-141,-3,-237,-56,-288,-151v-26,-47,-38,-97,-38,-152v0,-111,46,-205,136,-282v90,-77,201,-116,332,-116v91,0,170,16,235,49r-39,160r-20,0v19,-122,-63,-183,-183,-183v-142,0,-286,103,-335,226v-20,50,-32,102,-32,157v-2,155,88,268,237,267v113,0,206,-54,279,-162r20,0r-53,168v-18,0,-30,-7,-47,-6","w":788},"D":{"d":"429,-667v198,-4,354,110,353,297v-1,153,-104,279,-220,330v-59,27,-123,40,-193,40r-375,0r4,-19v48,2,83,-13,96,-48v3,-9,8,-29,15,-62r86,-422v17,-63,7,-93,-61,-96r-29,0r4,-20r320,0xm189,-88v4,61,43,62,118,63v173,3,264,-64,329,-169v56,-92,71,-228,14,-321v-54,-88,-143,-131,-295,-126r-56,0r-107,526v-2,9,-3,18,-3,27","w":818},"E":{"d":"355,-26v108,-1,189,-44,234,-118r18,0r-48,144r-568,0r5,-19v76,-3,95,-22,110,-97r89,-435v15,-60,5,-94,-62,-95r-27,0r5,-21r550,0r-30,148r-17,0v7,-85,-28,-121,-115,-121r-201,0r-59,289r211,0v68,-1,85,-21,110,-71r19,0r-39,188r-18,0v6,-74,-27,-90,-108,-90r-180,0r-46,225v-10,65,27,73,98,73r69,0","w":675},"F":{"d":"494,-234v-3,-68,-13,-90,-78,-90r-182,0r-42,208v-22,71,11,100,90,96r-5,20r-279,0r4,-20v72,-2,89,-25,104,-96r89,-435v5,-23,7,-38,7,-46v-1,-41,-41,-53,-88,-50r5,-20r508,0r-30,146r-17,0v2,-84,-17,-119,-100,-119r-182,0r-58,289r189,0v62,-2,81,-28,104,-77r19,0r-39,194r-19,0","w":605},"G":{"d":"775,-486v-23,-105,-115,-173,-241,-172v-128,1,-224,65,-281,148v-74,107,-99,251,-39,372v42,85,136,128,254,129v55,0,99,-12,134,-31v32,-18,45,-86,48,-127v3,-33,-26,-49,-73,-48r4,-20r237,0r-5,20v-75,13,-68,20,-87,96v-5,19,-11,37,-11,58v0,14,12,21,36,21r-4,19v-191,54,-449,62,-566,-56v-63,-63,-97,-134,-97,-217v0,-107,46,-199,134,-276v147,-129,372,-147,571,-62r5,146r-19,0","w":842},"H":{"d":"673,-597v-1,-39,-39,-53,-84,-50r4,-20r265,0r-3,20v-79,2,-90,33,-106,109r-86,422v-18,66,8,100,83,96r-4,20r-286,0r4,-20v80,0,102,-21,118,-96r42,-204r-387,0r-42,204v-17,61,0,95,69,96r25,0r-4,20r-299,0r4,-19v86,3,106,-29,122,-110r86,-422v5,-23,7,-39,7,-46v-1,-43,-45,-53,-94,-50r4,-20r287,0r-4,20v-78,0,-98,20,-114,96r-40,195r387,0r40,-195v4,-18,6,-33,6,-46","w":811},"I":{"d":"202,-597v-1,-39,-37,-53,-82,-50r4,-20r268,0r-4,20v-74,3,-92,20,-107,96r-89,435v-21,69,9,98,85,96r-4,20r-277,0r4,-20v73,-3,93,-24,107,-96r88,-435v5,-23,7,-38,7,-46","w":339},"J":{"d":"-185,169v21,0,90,29,123,27v81,-5,115,-52,130,-139r107,-608v14,-59,2,-96,-64,-96r-20,0r4,-20r270,0r-3,20v-72,3,-89,24,-102,96r-92,521v-19,99,-39,145,-101,198v-51,45,-133,81,-220,82v-53,0,-80,-9,-80,-27v0,-18,26,-54,48,-54","w":324},"K":{"d":"607,-618v-2,-28,-20,-25,-53,-29r4,-20r243,0r-4,20v-94,17,-125,34,-231,109r-226,159r246,289v38,42,64,70,131,71r-4,19r-160,0r-280,-332r-44,31r-38,185v-20,67,8,99,84,96r-4,20r-278,0r4,-20v74,-3,94,-23,109,-96r88,-435v5,-23,7,-39,7,-46v-1,-35,-31,-51,-71,-50r4,-20r259,0r-4,20v-75,1,-94,22,-109,96r-43,211r328,-230v27,-21,38,-19,42,-48","w":759},"L":{"d":"367,-35v124,-2,167,-36,229,-112r20,0r-49,147r-574,0r4,-20v78,1,97,-34,112,-110r86,-421v5,-23,7,-39,7,-46v-1,-41,-41,-53,-88,-50r4,-20r280,0r-4,20v-79,0,-99,22,-114,96r-87,428v-10,47,-5,88,49,88r125,0","w":626},"M":{"d":"215,-596v1,-43,-46,-53,-96,-51r4,-20r198,0r98,570r371,-570r175,0r-4,20v-75,0,-94,24,-109,96r-89,435v-21,67,9,100,86,96r-5,20r-279,0r4,-20v73,-3,94,-24,109,-96r98,-481r-389,597r-36,0r-101,-601r-130,463v-18,62,2,118,74,118r-4,20r-215,0r4,-20v37,-7,64,-20,79,-40v15,-20,31,-62,49,-127r99,-355v6,-19,9,-37,9,-54","w":916},"N":{"d":"138,-147v-17,77,9,124,89,127r-4,20r-223,0r4,-20v72,-11,90,-46,105,-120r96,-469v-13,-21,-44,-34,-93,-39r4,-19r144,0r399,562r87,-427v3,-18,5,-33,5,-44v-1,-52,-36,-68,-91,-72r5,-19r218,0r-4,19v-68,10,-93,45,-107,114r-111,546r-26,0r-410,-588","w":827},"O":{"d":"817,-371v0,212,-197,388,-414,388v-132,0,-236,-72,-285,-163v-26,-47,-39,-97,-39,-151v0,-225,192,-383,410,-387v176,-3,328,140,328,313xm723,-402v0,-142,-92,-256,-229,-256v-147,0,-245,103,-288,222v-21,56,-32,113,-32,173v0,144,90,257,230,254v158,-4,245,-107,290,-229v20,-53,29,-108,29,-164","w":849},"P":{"d":"525,-498v0,-97,-49,-145,-159,-142r-68,0r-107,524v-18,66,9,101,85,96r-4,20r-266,0r4,-20v71,-6,85,-38,99,-109r86,-422v18,-62,-1,-102,-75,-96r4,-20v129,4,313,-15,395,27v64,32,96,84,96,157v0,50,-17,95,-50,134v-57,70,-166,100,-286,83r4,-19v145,24,242,-80,242,-213","w":605},"Q":{"d":"817,-371v0,196,-169,365,-350,384r42,29v95,65,169,98,222,98v25,0,49,-4,71,-13r10,14v-55,50,-157,59,-238,23v-60,-27,-157,-91,-221,-132v-10,-7,-20,-14,-30,-23v-130,-23,-244,-157,-244,-306v0,-203,200,-387,407,-387v179,0,331,137,331,313xm723,-402v0,-142,-92,-256,-229,-256v-148,0,-245,103,-288,222v-21,56,-32,114,-32,173v0,144,90,257,230,254v158,-4,245,-107,290,-229v20,-53,29,-108,29,-164","w":848},"R":{"d":"615,-503v-2,115,-100,180,-212,199v20,22,106,174,157,222v46,43,82,71,159,68r0,17v-48,15,-122,7,-162,-11v-29,-13,-56,-36,-85,-64v-24,-24,-123,-183,-157,-222v-25,3,-59,2,-88,1r-36,177v-15,60,1,96,70,96r20,0r-4,20r-293,0r4,-20v78,0,103,-21,118,-96r89,-435v4,-19,6,-35,6,-46v-1,-40,-39,-53,-85,-50r4,-20r302,0v107,-2,195,63,193,164xm525,-520v0,-86,-64,-122,-176,-118r-51,0r-66,321v141,1,222,-20,270,-107v16,-29,23,-61,23,-96","w":752},"S":{"d":"503,-173v0,118,-115,192,-243,190v-84,-2,-175,-33,-233,-68r35,-153r19,0v-11,123,63,195,182,195v88,0,166,-46,167,-126v0,-32,-14,-62,-42,-91v-14,-15,-47,-41,-99,-79v-53,-38,-91,-73,-113,-103v-22,-30,-33,-61,-33,-94v-1,-100,102,-172,208,-172v35,0,99,21,135,21v11,0,23,-5,35,-15r21,0r-24,176r-19,0v1,-96,-54,-157,-148,-157v-73,0,-140,41,-140,108v0,21,7,41,21,60v56,70,189,143,232,204v25,35,39,69,39,104","w":570},"T":{"d":"632,-667v67,-1,81,1,113,-29r20,0r-35,172r-20,0v-2,-73,-4,-116,-79,-116r-154,0r-107,524v-22,70,12,101,92,96r-4,20r-294,0r5,-20v78,-1,101,-21,116,-96r106,-524r-124,0v-103,2,-125,36,-160,116r-19,0r35,-172r19,0v18,24,29,28,71,29r419,0","w":704},"U":{"d":"184,-173v0,103,91,164,201,164v90,0,159,-29,206,-88v27,-33,47,-85,60,-156r51,-280v15,-71,-11,-116,-93,-114r5,-20r220,0r-4,20v-53,7,-87,47,-100,120r-52,282v-29,171,-122,262,-309,262v-99,0,-174,-25,-220,-78v-55,-64,-56,-118,-36,-218r55,-272v5,-25,7,-41,7,-46v-1,-40,-39,-53,-86,-50r4,-20r272,0r-4,20v-74,1,-93,24,-108,96r-56,275v-9,44,-13,78,-13,103","w":782},"V":{"d":"702,-603v-1,-32,-26,-46,-69,-44r4,-20r204,0r-3,20v-58,21,-82,49,-126,99r-479,565r-35,0r16,-568v3,-74,-17,-93,-78,-96r4,-20r260,0r-4,20v-65,-4,-96,27,-99,96r-16,470r379,-448v28,-33,42,-58,42,-74","w":749},"W":{"d":"189,-582v-2,-54,-19,-57,-75,-64r4,-21r243,0r-4,21v-67,7,-83,30,-87,101r-23,449r334,-449v5,-67,-11,-100,-83,-101r5,-21r253,0r-4,21v-63,6,-83,23,-86,88r-11,462r309,-438v19,-26,28,-47,28,-64v1,-33,-25,-49,-71,-48r4,-21r195,0r-5,21v-51,15,-65,41,-101,91r-406,572r-39,0r12,-514r-383,514r-36,0","w":1028},"X":{"d":"143,-61v0,37,27,41,70,44r-3,17r-239,0r4,-17v72,-9,93,-30,141,-78r247,-248r-139,-246v-27,-47,-49,-55,-120,-59r3,-19r285,0r-4,19v-44,3,-76,1,-76,34v0,9,5,22,14,39r95,172r161,-162v44,-46,35,-80,-50,-83r4,-19r243,0r-4,19v-86,13,-101,28,-160,87r-180,181r152,273v39,61,39,77,115,90r-4,17r-256,0r3,-17v29,-3,48,-6,58,-11v21,-11,17,-34,5,-55r-132,-236r-191,190v-28,28,-42,51,-42,68","w":737},"Y":{"d":"140,0r4,-20v83,0,107,-17,123,-96r32,-157r-135,-296v-26,-49,-30,-74,-86,-79r4,-19r223,0r-4,19v-64,5,-68,34,-46,81r121,262r208,-239v25,-29,38,-51,38,-65v0,-24,-21,-37,-64,-39r4,-19r183,0r-4,18v-46,18,-58,33,-93,73r-263,303r-32,157v-17,64,0,94,69,96r27,0r-4,20r-305,0","w":670},"Z":{"d":"388,-640v-117,2,-162,56,-198,151r-20,0r41,-178r545,0r0,22r-612,618r314,0v51,0,93,-11,124,-33v31,-22,63,-64,98,-125r20,0r-51,185r-625,0r0,-21r611,-619r-247,0","w":737},"[":{"d":"97,173v-9,34,2,42,53,43r73,0r-4,17r-201,0r190,-935r201,0r-3,18r-97,0v-33,1,-39,11,-46,41","w":324},"\\":{"d":"226,239r-105,-947r37,0r104,947r-36,0","w":313},"]":{"d":"238,-663v-2,-22,-25,-22,-56,-22r-73,0r3,-17r201,0r-190,935r-201,0r4,-18r97,0v33,-1,39,-11,46,-41r166,-816v2,-8,3,-15,3,-21","w":324},"^":{"d":"0,-287r276,-413r6,0r266,413r-35,0r-207,-317r-211,317r-95,0","w":500},"_":{"d":"0,88r500,0r0,40r-500,0r0,-40","w":500},"`":{"d":"359,-481r-168,-232r76,0r112,232r-20,0","w":500},"a":{"d":"271,13v-20,-1,-29,-25,-29,-49v0,-23,5,-56,15,-101v-96,100,-157,150,-182,150v-37,0,-63,-64,-61,-110v4,-117,81,-215,161,-273v50,-37,128,-75,209,-66r-64,314v-5,26,-8,45,-8,57v0,11,3,16,10,16v9,0,30,-19,61,-56r0,26v-54,61,-91,92,-112,92xm80,-120v-1,33,10,79,34,79v17,0,67,-43,150,-128r43,-214v-109,9,-159,51,-198,132v-19,42,-29,86,-29,131","w":429},"b":{"d":"153,13v-60,1,-103,-38,-102,-97v0,-17,2,-37,7,-60r100,-489v2,-11,3,-18,3,-21v0,-5,-2,-8,-7,-8v-7,0,-21,6,-40,18r-9,-15r91,-52v13,-7,23,-11,30,-11v16,-1,12,17,10,28r-82,407v37,-39,75,-74,114,-105v39,-31,64,-46,75,-46v13,0,27,16,39,48v31,82,20,173,-17,246v-23,46,-57,84,-100,115v-38,28,-75,42,-112,42xm125,-144v-15,60,-17,135,43,135v74,0,115,-72,140,-138v25,-64,30,-137,13,-201v-7,-21,-15,-32,-26,-32v-21,0,-71,42,-148,126","w":420},"c":{"d":"107,13v-57,3,-93,-50,-92,-111v1,-84,38,-174,77,-231v49,-73,102,-109,160,-109v30,0,55,12,55,39v0,17,-12,33,-28,33v-15,4,-57,-28,-80,-28v-25,0,-49,26,-70,77v-31,77,-47,146,-47,207v-1,46,21,80,63,81v35,0,71,-22,107,-67r14,11v-40,46,-94,95,-159,98","w":297},"d":{"d":"356,-662v-3,-3,-41,19,-71,34r-8,-16r121,-67v13,-7,23,-11,29,-11v15,1,15,10,11,27r-126,619v-2,16,-5,25,6,28v9,0,29,-22,60,-66r14,10v-20,31,-43,59,-70,82v-27,23,-47,35,-62,35v-15,0,-22,-11,-22,-32v1,-39,17,-97,24,-136v-87,112,-148,168,-184,168v-17,0,-32,-12,-43,-36v-31,-71,-18,-164,17,-235v23,-47,54,-90,94,-126v39,-36,73,-54,100,-54v27,0,49,12,66,37r51,-252v0,-6,-2,-9,-7,-9xm85,-123v0,39,7,84,37,84v12,0,32,-15,61,-46v29,-31,58,-69,88,-114r30,-145v-17,-42,-40,-63,-69,-63v-28,0,-56,24,-84,73v-42,71,-63,142,-63,211","w":421},"e":{"d":"302,-69v-47,38,-111,82,-177,82v-65,0,-106,-73,-106,-146v0,-133,108,-305,238,-305v50,0,85,23,85,70v0,42,-33,81,-98,116v-29,16,-79,35,-148,57v-18,80,-4,167,74,168v32,0,73,-19,123,-56xm101,-215v69,-22,115,-42,136,-59v29,-24,43,-56,43,-95v0,-31,-13,-47,-39,-47v-28,0,-53,14,-76,42v-21,26,-42,79,-64,159","w":352},"f":{"d":"-183,168v19,-5,75,49,101,47v37,-2,71,-31,85,-60v19,-40,39,-111,57,-215r59,-330r-76,0r4,-20v32,-5,41,-5,78,-15v21,-110,69,-223,150,-271v28,-17,56,-26,84,-26v36,-1,76,19,77,51v0,17,-14,31,-31,31v-18,6,-71,-45,-95,-44v-32,0,-56,24,-77,70v-11,24,-32,130,-42,189r91,0r-10,35r-87,0r-49,277v-12,68,-24,118,-36,151v-25,67,-57,119,-98,156v-41,37,-87,56,-138,56v-36,0,-81,-18,-82,-49v-1,-17,17,-34,35,-33","w":246},"g":{"d":"125,-68v-49,-23,-88,-75,-88,-142v0,-71,49,-132,96,-172v43,-37,89,-59,139,-56r125,8r0,50r-60,-6v28,67,33,115,4,176v-34,72,-102,103,-176,139v-42,20,-57,33,-26,61v31,29,141,94,160,114v48,50,28,88,-39,118v-76,34,-232,39,-309,4v-70,-31,-74,-76,-13,-120v29,-21,79,-50,150,-85v-29,-40,-8,-61,37,-89xm106,-201v0,46,27,101,67,101v66,0,116,-121,116,-201v0,-56,-18,-105,-64,-109v-64,-6,-119,142,-119,209xm-43,154v0,91,181,90,261,62v60,-21,63,-49,12,-83v-60,-41,-100,-71,-120,-88r-10,-9v-95,42,-143,81,-143,118","w":390},"h":{"d":"387,-438v27,1,41,30,40,61v0,19,-3,41,-10,68r-66,256v0,7,3,10,9,10v14,0,42,-24,84,-72r11,11v-25,32,-51,59,-79,82v-28,23,-48,35,-63,35v-19,0,-28,-14,-28,-41v0,-19,3,-40,9,-64r55,-215v7,-25,10,-45,10,-59v0,-16,-5,-24,-16,-24v-15,0,-43,21,-83,62v-40,41,-81,93,-126,156r-31,148v-10,36,-3,36,-46,36v-24,0,-27,-2,-23,-22r131,-643v0,-5,-2,-8,-7,-8v-7,0,-25,8,-53,24r-9,-16r104,-58v13,-7,22,-11,29,-11v13,-2,15,14,12,25r-98,484v52,-70,99,-125,143,-165v44,-40,78,-60,101,-60","w":484},"i":{"d":"222,-667v41,0,26,69,12,93v-17,29,-62,33,-62,-11v0,-35,21,-82,50,-82xm90,13v-34,2,-31,-46,-24,-79r60,-301v0,-5,-2,-7,-6,-7v-9,-1,-48,40,-60,53r-11,-14v62,-69,105,-103,129,-103v27,0,23,31,17,61r-60,299v-3,12,-8,34,6,35v11,0,33,-22,68,-66r13,12v-20,27,-44,52,-72,75v-28,23,-47,35,-60,35","w":260},"j":{"d":"231,-667v40,0,26,69,11,93v-17,29,-61,33,-61,-11v0,-35,20,-82,50,-82xm-136,168v33,0,57,47,92,46v21,0,40,-14,56,-43v16,-29,29,-75,42,-139r77,-380v1,-7,3,-24,-7,-22v-5,0,-12,3,-20,10v-8,7,-24,22,-47,45r-12,-11v26,-31,53,-58,80,-80v27,-22,47,-33,60,-33v15,0,22,10,22,30v0,8,-2,24,-7,49r-66,327v-19,96,-57,173,-115,232v-32,33,-71,49,-116,49v-37,1,-69,-15,-70,-48v0,-18,13,-32,31,-32","w":250},"k":{"d":"399,-437v34,0,63,47,62,85v-2,59,-44,99,-92,118v-39,15,-89,25,-148,28v23,24,51,57,82,99v29,39,61,60,98,65r48,-47r12,11r-91,91v-46,0,-94,-39,-144,-117v-31,-49,-59,-83,-82,-102r-39,195v-7,27,-6,24,-40,24v-25,0,-32,-2,-28,-18r131,-646v0,-7,-2,-10,-7,-10v-7,0,-23,7,-48,22r-9,-16r105,-58v17,-7,25,-15,35,-5v2,3,3,7,2,11r-90,442v62,-55,111,-96,148,-121v49,-34,81,-51,95,-51xm379,-291v24,-35,29,-100,-17,-100v-15,0,-44,16,-86,47v-42,31,-84,68,-126,110r-2,10v108,2,190,-6,231,-67","w":488},"l":{"d":"83,14v-38,0,-41,-46,-32,-87r118,-580v0,-5,-2,-8,-7,-8v-7,0,-28,10,-65,30r-9,-16r103,-58v21,-11,35,-17,42,-17v16,1,13,14,10,31r-128,631v-2,17,-5,31,8,31v11,0,36,-22,75,-65r13,11v-54,65,-97,97,-128,97","w":236},"m":{"d":"635,-436v35,0,34,50,26,87r-58,283v-1,9,-6,20,3,20v9,0,33,-23,72,-70r14,10v-27,35,-54,64,-79,86v-25,22,-45,32,-59,32v-28,0,-26,-37,-21,-59r63,-309v2,-9,3,-17,3,-22v0,-5,-2,-8,-7,-8v-28,8,-71,50,-94,76v-70,77,-110,141,-121,194r-17,85v-12,39,3,42,-41,43v-33,-6,-33,-4,-28,-30r69,-339v0,-11,7,-30,-7,-30v-12,0,-33,16,-64,47v-57,59,-142,157,-159,255r-14,68v-7,32,-6,29,-44,29v-32,0,-26,-11,-21,-36r67,-332v0,-5,-2,-8,-7,-8v-6,0,-24,18,-55,54r-11,-13v27,-33,53,-61,78,-83v25,-22,44,-32,56,-32v17,0,19,19,15,39r-42,205v41,-65,87,-122,136,-171v49,-49,86,-73,111,-73v20,1,29,23,29,47v-2,45,-24,137,-33,188v47,-71,94,-128,140,-170v45,-42,79,-63,100,-63","w":724},"n":{"d":"84,12v-27,0,-41,4,-37,-18r70,-346v0,-5,-2,-7,-5,-7v-9,1,-29,23,-60,64r-13,-11v20,-31,45,-62,74,-90v29,-28,50,-42,63,-42v21,1,20,30,15,50r-37,180v121,-153,204,-230,247,-230v51,0,46,76,33,124r-63,239v-5,17,-7,29,-7,35v0,6,2,9,7,9v11,0,42,-30,93,-90r12,10v-64,83,-114,124,-149,124v-32,0,-33,-45,-25,-78r68,-267v8,-25,9,-52,-13,-57v-11,0,-25,7,-41,23v-61,60,-117,125,-169,196r-34,163v-5,20,-3,19,-29,19","w":500},"o":{"d":"276,-438v59,0,98,85,98,157v0,98,-43,178,-128,239v-51,37,-93,55,-125,55v-57,0,-98,-99,-96,-168v3,-97,55,-171,118,-220v53,-42,98,-63,133,-63xm95,-160v0,81,42,168,117,120v60,-39,89,-133,93,-227v2,-62,-30,-130,-83,-130v-33,0,-62,24,-88,73v-26,49,-39,103,-39,164","w":399},"p":{"d":"427,-282v0,138,-125,299,-257,295v-21,0,-40,-3,-58,-10r-24,121v-7,34,-10,56,-10,65v0,38,29,40,84,41r-4,20r-251,0r4,-20v86,-5,94,-26,110,-106r91,-445v4,-19,6,-31,6,-38v0,-5,-2,-8,-7,-8v-12,0,-38,25,-77,75r-14,-13v29,-37,58,-69,88,-95v30,-26,51,-38,64,-38v12,0,18,10,18,30v0,51,-15,97,-23,142v88,-114,151,-171,188,-171v18,0,34,17,49,49v15,32,23,67,23,106xm121,-40v21,18,43,27,68,27v44,0,84,-27,119,-81v35,-54,52,-115,52,-184v0,-30,-5,-55,-14,-76v-9,-21,-21,-31,-34,-31v-12,0,-33,15,-62,45v-29,30,-59,68,-91,114","w":452},"q":{"d":"271,192v3,37,41,37,88,38r-4,20r-248,0r4,-20v93,-13,86,-15,105,-107r53,-259v-12,12,-19,19,-22,21v-90,85,-146,128,-169,128v-38,0,-64,-72,-62,-121v4,-100,68,-188,133,-243v67,-58,142,-87,224,-87v20,0,22,8,19,23r-109,538v-8,39,-12,62,-12,69xm122,-42v21,0,73,-43,154,-129r43,-211v-121,4,-170,50,-209,136v-18,40,-26,81,-26,122v0,55,13,82,38,82","w":432},"r":{"d":"305,-438v30,1,32,45,17,68v-13,20,-25,17,-44,11v-49,16,-51,39,-76,99v-54,128,-55,134,-86,257v-4,18,-7,16,-32,16v-18,0,-30,2,-32,-9r62,-355v0,-10,-3,-15,-10,-15v-7,0,-26,19,-56,56r-12,-12v63,-77,104,-116,125,-116v12,0,24,17,23,31v-6,62,-43,218,-61,275v0,7,7,8,9,3v1,-3,5,-12,11,-29v35,-100,66,-172,91,-215v25,-43,48,-65,71,-65","w":291},"s":{"d":"244,-121v0,87,-75,134,-170,134v-55,0,-82,-16,-82,-49v0,-19,14,-31,33,-31v22,0,86,47,116,47v32,0,61,-25,60,-56v0,-69,-122,-144,-124,-220v-2,-61,87,-142,150,-142v31,0,64,29,64,58v0,26,-26,45,-46,28v-8,-7,-28,-60,-55,-54v-29,-2,-65,42,-65,72v0,33,50,86,73,113v31,37,46,70,46,100","w":311},"t":{"d":"91,13v-23,0,-36,-19,-34,-43v7,-88,50,-261,68,-359r-55,0r4,-18v55,-23,107,-75,157,-157r18,0v-25,47,-42,93,-50,137r84,0r-8,38r-84,0r-66,324v-2,14,-3,22,-3,23v0,9,4,14,11,14v13,0,47,-27,102,-80r11,13v-29,31,-58,57,-87,77v-29,20,-52,31,-68,31","w":276},"u":{"d":"418,-438v25,-1,35,0,31,23r-70,347v0,6,2,9,7,9v9,0,31,-22,68,-65r13,12v-28,35,-56,64,-83,88v-27,24,-46,37,-57,37v-13,0,-19,-10,-19,-30v0,-36,14,-112,41,-229v-49,66,-95,122,-140,167v-61,61,-101,92,-120,92v-19,0,-29,-20,-29,-59v0,-102,41,-210,58,-309v0,-5,-2,-7,-6,-7v-9,0,-28,18,-57,54r-13,-8v23,-34,47,-63,72,-86v25,-23,44,-34,58,-34v28,0,20,45,15,71r-52,253v-3,17,-5,30,-5,41v0,13,5,19,14,19v13,0,42,-26,90,-78v48,-52,83,-97,104,-134v19,-32,33,-80,43,-144v5,-27,6,-29,37,-30","w":498},"v":{"d":"382,-438v29,1,48,32,47,65v0,33,-17,75,-49,125v-32,50,-76,102,-132,157v-71,69,-122,104,-153,104v-17,0,-26,-17,-26,-51v2,-109,42,-208,42,-311v0,-11,-3,-16,-9,-16v-8,0,-29,20,-64,59r-13,-12v63,-79,108,-119,135,-119v15,0,22,11,22,34v0,112,-52,234,-52,346v0,13,4,19,11,19v11,0,29,-12,57,-36v57,-48,106,-112,136,-182v15,-36,23,-68,23,-95v0,-20,-27,-25,-27,-40v0,-18,33,-48,52,-47","w":427},"w":{"d":"99,12v-22,0,-33,-20,-33,-44v4,-108,31,-214,40,-318v0,-8,-3,-12,-8,-12v-9,0,-30,21,-63,63r-14,-11v64,-85,110,-128,137,-128v13,0,19,11,19,32v0,99,-30,213,-43,311v-3,19,-4,34,-4,45v0,11,4,16,13,16v13,0,41,-23,82,-68v41,-45,80,-94,117,-148r21,-146v6,-32,5,-39,37,-41v36,-2,30,22,25,52r-46,295v-3,15,-4,27,-4,38v0,13,4,19,12,19v9,0,29,-13,57,-41v51,-50,89,-102,115,-155v23,-47,35,-86,35,-117v0,-11,-5,-21,-16,-30v-25,-24,14,-62,40,-61v28,0,45,29,44,60v0,77,-66,180,-197,307v-57,55,-99,83,-126,83v-19,0,-29,-14,-29,-42v2,-51,17,-126,24,-178v-35,51,-77,102,-126,151v-45,45,-82,68,-109,68","w":656},"x":{"d":"463,-437v47,0,55,53,38,102r-20,0v-1,-29,-15,-43,-41,-43v-27,0,-57,22,-90,65r-59,79r46,118v18,46,34,69,47,69v9,0,18,-5,27,-16v9,-11,20,-31,35,-61r16,8v-41,86,-78,129,-111,129v-15,0,-27,-7,-35,-20v-22,-37,-50,-120,-70,-168r-49,59v-71,85,-124,128,-158,128v-21,0,-31,-12,-31,-37v0,-19,8,-50,25,-94r20,0v5,38,3,59,36,59v27,0,59,-25,99,-75r50,-62r-54,-138v-12,-40,-39,-67,-71,-31v-11,12,-25,32,-43,63r-18,-10v29,-47,52,-80,69,-98v27,-29,64,-40,89,-10v29,34,51,118,72,168r45,-60v61,-83,107,-124,136,-124","w":525},"y":{"d":"410,-438v27,0,43,24,42,53v0,39,-37,115,-112,226v-73,110,-65,98,-119,224r-42,102v-9,23,-14,36,-14,39v0,13,17,19,52,20v6,0,11,0,16,1r-8,17r-221,0r7,-17v60,-3,66,-2,87,-42v33,-63,54,-114,67,-151v13,-37,19,-72,19,-103v0,-75,-13,-167,-42,-273v-13,-47,-20,-57,-48,-30v-9,10,-25,29,-48,58r-14,-9v55,-76,96,-114,122,-114v19,0,36,34,53,103v21,87,33,187,35,298v35,-65,61,-114,76,-147v42,-89,63,-148,63,-175v0,-14,-13,-24,-13,-39v0,-22,20,-42,42,-41","w":469},"z":{"d":"454,-86v-31,46,-74,98,-134,98v-51,0,-54,-14,-108,-41v-48,-24,-84,-39,-110,-39v-33,0,-51,12,-53,37v-3,29,-12,44,-27,44v-10,0,-15,-6,-15,-17v0,-33,40,-78,63,-100v79,-72,121,-85,251,-161v72,-42,94,-49,135,-100v-85,42,-134,45,-222,2v-35,-17,-60,-25,-74,-25v-27,0,-53,17,-78,52r-13,-9v59,-72,102,-107,185,-85v26,7,122,69,149,63v38,0,60,-15,67,-45v3,-17,9,-26,18,-26v10,0,15,6,15,17v3,45,-85,126,-127,150v-12,12,-263,142,-308,192v46,-24,100,-31,150,-17v14,5,43,20,89,43v59,30,94,12,133,-43","w":516},"{":{"d":"104,145v4,59,40,71,114,70r-4,18v-82,-2,-120,7,-154,-29v-27,-28,-23,-58,-12,-111r39,-192v11,-53,16,-83,16,-92v0,-39,-28,-50,-71,-51r3,-13v39,-4,65,-12,75,-27v35,-52,55,-201,72,-283v26,-122,75,-136,222,-137r-3,18v-95,1,-138,31,-154,110r-46,225v-13,59,-38,85,-96,99r-1,3v58,13,66,51,53,115r-48,236v-3,17,-5,30,-5,41","w":324},"|":{"d":"249,167r0,-834r50,0r0,834r-50,0","w":500},"}":{"d":"223,-574v19,-78,-20,-114,-108,-110r3,-18v41,1,107,2,129,11v47,19,50,67,38,126r-37,180v-9,45,-14,72,-14,80v0,31,24,47,72,50r-3,13v-53,-1,-81,19,-92,51v-21,61,-43,206,-60,284v-15,65,-30,99,-80,124v-21,10,-69,15,-143,16r4,-18v99,0,137,-28,154,-111r48,-236v15,-68,36,-100,99,-115r1,-3v-49,-10,-68,-41,-56,-99","w":324},"~":{"d":"251,-673v-52,5,-55,21,-91,59r-14,-9v39,-64,85,-96,139,-96v30,0,136,40,170,40v37,0,70,-18,100,-55r13,9v-24,45,-78,90,-136,94v-17,1,-150,-45,-181,-42","w":667},"\u00a0":{"w":250},"\u00a1":{"d":"237,-389v0,32,-21,62,-51,62v-26,0,-42,-20,-42,-48v0,-33,20,-63,51,-63v26,0,42,22,42,49xm74,250v-25,0,-57,6,-55,-19v0,-5,1,-11,3,-18r132,-469r21,0r-64,468v-7,34,-1,38,-37,38","w":313},"\u00a2":{"d":"219,12v-62,0,-96,-46,-96,-110v0,-122,93,-293,180,-327r51,-269r18,0r-51,263v40,-15,94,-8,94,32v0,18,-10,33,-27,33v-13,3,-53,-23,-74,-27r-70,363v46,5,74,-19,117,-66r14,11v-33,40,-87,85,-139,95r-44,230r-17,0xm190,-110v0,39,13,64,38,76r68,-358v-15,3,-28,15,-41,35v-30,46,-66,174,-65,247"},"\u00a3":{"d":"27,33v-14,0,-27,-12,-27,-26v0,-18,14,-37,43,-58v7,-5,26,-13,57,-26v18,-21,41,-68,70,-141r-117,0r5,-27r122,0v67,-166,78,-203,151,-322v53,-84,111,-126,176,-126v37,-1,75,18,76,51v1,19,-21,34,-41,34v-38,0,-36,-52,-69,-53v-19,0,-37,12,-54,37v-45,72,-131,301,-175,379r147,0r-5,27r-156,0v-29,53,-60,99,-91,138v63,0,121,14,176,43v39,20,67,30,86,30v29,1,53,-25,52,-54v4,-10,-23,-43,-24,-64v-1,-17,19,-35,36,-34v27,1,39,26,39,56v0,71,-61,132,-132,132v-99,0,-155,-97,-253,-86v-36,60,-67,90,-92,90","w":583},"\u00a4":{"d":"89,-109r-21,-21r66,-66v-64,-75,-64,-187,0,-261r-66,-66r21,-22r67,67v72,-65,189,-65,260,0r67,-67r21,22r-66,66v64,75,64,185,0,261r66,66r-21,21r-66,-66v-77,64,-185,64,-262,0xm142,-327v0,76,67,144,142,144v78,0,146,-66,146,-143v0,-78,-66,-145,-144,-145v-78,0,-144,67,-144,144"},"\u00a5":{"d":"92,0r3,-17v75,0,96,-15,111,-87r36,-175r-22,-89r-143,0r5,-27r131,0r-23,-90r-89,0r5,-27r78,0v-18,-58,-18,-137,-90,-138r3,-17r194,0r-3,17v-57,6,-59,22,-46,73r17,65r182,0v19,-31,43,-60,59,-93v4,-31,-14,-42,-57,-45r3,-17r159,0r-5,17v-57,14,-92,90,-126,138r72,0r-5,27r-85,0r-60,90r126,0r-5,27r-139,0r-59,89r-36,175v-14,53,0,88,62,87r24,0r-3,17r-274,0xm309,-312r114,-173r-158,0"},"\u00a6":{"d":"249,-334r0,-333r50,0r0,333r-50,0xm249,-153r50,0r0,320r-50,0r0,-320","w":500},"\u00a7":{"d":"62,250v-45,1,-100,-15,-100,-51v0,-30,26,-61,57,-44v14,7,76,53,111,51v96,-6,140,-141,104,-242v-8,-25,-24,-62,-49,-112v-74,-150,-86,-247,-10,-382v55,-97,166,-189,300,-192v40,-1,96,17,98,48v2,23,-16,51,-37,51v-12,0,-27,-7,-46,-21v-32,-24,-61,-36,-87,-36v-59,1,-91,65,-91,132v0,57,21,128,58,217v41,97,63,120,63,220v0,102,-49,192,-148,270v-57,46,-136,88,-223,91xm249,-124v42,86,53,168,15,252v82,-63,123,-141,123,-233v0,-50,-18,-115,-54,-194v-42,-95,-63,-170,-63,-226v0,-24,4,-50,12,-79v-110,125,-142,226,-79,383v4,10,19,42,46,97"},"\u00a8":{"d":"449,-581v0,21,-18,39,-39,39v-21,0,-40,-19,-40,-40v0,-21,19,-39,40,-39v21,0,39,19,39,40xm278,-581v0,21,-18,39,-39,39v-22,0,-40,-19,-40,-40v0,-21,19,-39,40,-39v21,0,39,19,39,40","w":500},"\u00a9":{"d":"427,17v-184,0,-347,-165,-347,-350v0,-188,164,-351,353,-351v191,0,352,162,352,353v0,190,-166,348,-358,348xm433,-654v-172,0,-318,149,-318,321v0,167,146,320,312,320v175,0,323,-144,323,-318v0,-173,-145,-323,-317,-323xm434,-159v-104,0,-192,-70,-192,-171v0,-105,90,-181,199,-178v33,0,65,5,97,17v16,6,20,1,37,1r6,80r-14,0v-15,-46,-65,-82,-124,-82v-86,0,-146,64,-146,151v0,88,67,163,153,163v57,0,101,-25,132,-76r14,0v-6,24,-18,51,-37,82v-26,-8,-89,13,-125,13","w":818},"\u00aa":{"d":"86,-474v0,-92,119,-210,212,-204v5,0,10,0,17,1r-44,222v0,5,2,8,5,8v5,0,18,-12,39,-36r0,21v-33,37,-56,56,-70,56v-13,0,-20,-10,-20,-31v0,-9,3,-27,8,-54v-56,57,-92,85,-107,85v-25,-1,-40,-39,-40,-68xm130,-488v0,19,6,46,20,46v11,0,40,-25,88,-75r26,-124v-88,3,-130,67,-134,153xm48,-321r5,-27r248,0r-6,27r-247,0","w":300},"\u00ab":{"d":"194,-37r-114,-197r206,-199r22,0r-154,199r65,197r-25,0xm344,-63r-83,-171r168,-175r23,0r-115,175r30,171r-23,0","w":469},"\u00ac":{"d":"60,-228r0,-39r428,0r0,267r-89,0r0,-228r-339,0","w":500},"\u00ad":{"d":"50,-179r14,-67r242,0r-14,67r-242,0","w":358},"\u00ae":{"d":"427,17v-184,0,-347,-165,-347,-350v0,-188,164,-351,353,-351v191,0,352,162,352,353v0,190,-166,348,-358,348xm433,-654v-172,0,-318,149,-318,321v0,167,146,320,312,320v175,0,323,-144,323,-318v0,-173,-145,-323,-317,-323xm344,-236v-3,53,11,55,56,55r0,14r-159,0r0,-14v44,0,54,-3,54,-55r0,-196v0,-51,-4,-53,-53,-54r0,-14v43,-3,87,-5,130,-5v91,-2,157,24,157,96v0,50,-23,66,-70,87v34,23,107,107,151,131v18,10,39,16,60,17r0,13v-111,0,-118,-14,-186,-77v-43,-40,-69,-63,-78,-69v-16,2,-45,2,-62,1r0,70xm344,-320v80,10,130,-19,130,-85v0,-65,-53,-95,-130,-85r0,170","w":818},"\u00af":{"d":"174,-578r8,-51r303,0r-8,51r-303,0","w":500},"\u00b0":{"d":"320,-577v0,53,-46,100,-99,100v-55,0,-101,-47,-101,-101v0,-54,47,-99,101,-99v53,0,99,47,99,100xm144,-578v0,40,36,76,76,76v40,0,76,-35,76,-74v0,-42,-35,-77,-77,-77v-40,0,-75,35,-75,75","w":294},"\u00b1":{"d":"255,-131r0,-194r-204,0r0,-33r204,0r0,-194r33,0r0,194r203,0r0,33r-204,0r0,194r-32,0xm51,-51r0,-33r440,0r0,33r-440,0","w":547},"\u00b2":{"d":"239,-802v60,0,108,36,108,93v0,23,-9,45,-26,66v-29,36,-156,152,-213,205r151,0v28,2,25,-16,31,-39r16,0r-15,86r-242,0r0,-12r58,-56v70,-68,119,-120,145,-156v26,-36,39,-68,39,-96v0,-35,-28,-60,-65,-59v-46,0,-79,26,-98,79r-16,0v10,-62,58,-111,127,-111","w":338},"\u00b3":{"d":"312,-571v0,89,-116,188,-208,188v-24,0,-51,-7,-52,-26v-1,-13,11,-26,24,-24v18,2,51,26,70,22v56,2,110,-81,110,-142v0,-35,-22,-63,-55,-63v-12,0,-31,7,-57,20r4,-20v45,-25,76,-47,96,-65v20,-18,30,-35,30,-50v1,-24,-23,-44,-48,-43v-23,0,-47,15,-72,44r-12,-9v26,-42,61,-63,104,-63v42,0,81,24,81,64v0,35,-30,65,-90,88v50,4,75,30,75,79","w":338},"\u00b4":{"d":"219,-481r114,-232r73,0r-165,232r-22,0","w":500},"\u00b5":{"d":"145,15v-58,-1,-87,-30,-91,-89v-17,71,-17,98,-22,166v-5,65,-22,97,-51,97v-19,0,-28,-11,-28,-34v0,-10,7,-34,20,-71v65,-186,97,-334,134,-522r67,0r-55,267v-6,28,-9,52,-9,71v-1,42,29,72,71,70v69,-3,100,-36,143,-82r66,-326r66,0r-65,322v-5,25,-7,40,-7,45v-1,36,39,37,63,20r-3,15r-87,46v-36,1,-44,-35,-37,-84v-45,36,-79,60,-102,72v-23,12,-47,17,-73,17","w":498},"\u00b6":{"d":"346,173v2,37,26,44,68,47r-4,20r-345,0r4,-20v86,-9,86,-29,104,-116r82,-402v-111,6,-172,-49,-172,-154v0,-97,55,-192,119,-229v35,-20,78,-32,131,-32r271,0r-4,20v-86,9,-86,29,-104,116r-138,681v-8,39,-12,62,-12,69xm196,208r96,0r181,-889r-95,0"},"\u00b7":{"d":"229,-304v0,28,-26,54,-54,54v-30,0,-54,-25,-54,-55v0,-29,26,-53,54,-53v28,0,54,26,54,54","w":313},"\u00b8":{"d":"77,185v59,6,115,-11,116,-64v0,-26,-18,-40,-54,-42r41,-79r17,0r-14,29v35,1,62,33,61,71v-1,79,-80,110,-170,102","w":500},"\u00b9":{"d":"233,-447v-7,35,9,40,47,41r-3,14r-160,0r3,-14v0,0,44,1,50,-6v4,-4,8,-14,11,-30r60,-295v-41,31,-79,53,-112,64r4,-22v59,-24,108,-59,145,-106r27,0","w":338},"\u00ba":{"d":"263,-678v37,0,62,53,62,96v0,59,-26,107,-78,143v-32,22,-59,33,-78,33v-35,-1,-60,-59,-60,-102v0,-51,24,-95,72,-132v33,-25,61,-38,82,-38xm156,-512v0,37,14,79,43,79v48,0,80,-81,80,-139v0,-36,-19,-77,-49,-77v-44,0,-74,82,-74,137xm48,-321r5,-27r248,0r-6,27r-247,0","w":300},"\u00bb":{"d":"168,-37r154,-199r-64,-197r25,0r114,197r-206,199r-23,0xm25,-61r115,-175r-30,-171r23,0r82,171r-167,175r-23,0","w":469},"\u00bc":{"d":"233,-322v-10,38,8,38,47,41r-3,14r-160,0r3,-14v17,0,44,1,50,-6v4,-4,8,-14,11,-30r60,-295v-41,31,-78,53,-113,64r5,-22v60,-24,108,-59,144,-106r28,0xm112,0r609,-667r44,0r-608,667r-45,0xm476,-121r0,-25r243,-264r21,0r-51,251r60,0r-8,38r-60,0r-26,130r-51,0r26,-130r-154,0xm514,-159r124,0r35,-172","w":789},"\u00bd":{"d":"233,-322v-10,38,8,38,47,41r-3,14r-160,0r3,-14v17,0,44,1,50,-6v4,-4,8,-14,11,-30r60,-295v-41,31,-78,53,-113,64r5,-22v60,-24,108,-59,144,-106r28,0xm92,0r609,-667r44,0r-608,667r-45,0xm636,-410v60,0,108,35,108,92v0,23,-8,46,-26,68v-30,38,-155,150,-213,203r151,0v28,2,26,-15,31,-38r16,0r-15,85r-242,0r0,-12r58,-56v68,-66,116,-117,143,-154v27,-37,41,-70,41,-98v0,-35,-28,-59,-65,-58v-46,0,-79,26,-98,78r-16,0v10,-62,58,-110,127,-110","w":789},"\u00be":{"d":"312,-446v0,89,-116,188,-208,188v-24,0,-51,-7,-52,-26v-1,-13,11,-26,24,-24v18,2,51,26,70,22v56,2,110,-81,110,-142v0,-35,-22,-63,-55,-63v-12,0,-31,7,-57,20r4,-20v45,-25,76,-47,96,-65v20,-18,30,-35,30,-50v1,-24,-23,-44,-48,-43v-23,0,-47,15,-72,44r-12,-9v26,-42,61,-63,104,-63v42,0,81,24,81,64v0,35,-30,65,-90,88v50,4,75,30,75,79xm105,0r609,-667r44,0r-608,667r-45,0xm476,-121r-1,-25r244,-264r21,0r-51,251r59,0r-7,38r-60,0r-27,130r-51,0r27,-130r-154,0xm514,-159r124,0r35,-172","w":789},"\u00bf":{"d":"328,-389v0,32,-21,62,-51,62v-26,0,-41,-20,-41,-48v0,-32,21,-63,51,-63v25,0,41,22,41,49xm163,250v-89,0,-152,-74,-150,-166v3,-98,39,-158,118,-193v73,-33,91,-62,113,-149r21,0v-17,140,-28,179,-122,232v-54,31,-91,49,-94,113v-3,50,43,85,95,85v19,0,63,-17,88,-17v18,0,27,20,27,40v-2,36,-52,55,-96,55","w":425},"\u00c0":{"d":"553,-725r-153,-159r87,0r88,159r-22,0xm95,-65v3,43,39,43,89,46r-4,19r-232,0r4,-19v73,-13,86,-38,133,-99r434,-566r56,0r5,602v0,57,32,57,90,63r-4,19r-286,0r3,-19v78,0,113,-16,113,-89r-1,-183r-241,0r-140,181v-13,16,-19,31,-19,45xm284,-329r210,0r-2,-276","w":749},"\u00c1":{"d":"524,-725r92,-157r85,0r-156,157r-21,0xm95,-65v3,43,39,43,89,46r-4,19r-232,0r4,-19v73,-13,86,-38,133,-99r434,-566r56,0r5,602v0,57,32,57,90,63r-4,19r-286,0r3,-19v78,0,113,-16,113,-89r-1,-183r-241,0r-140,181v-13,16,-19,31,-19,45xm284,-329r210,0r-2,-276","w":749},"\u00c2":{"d":"389,-731r155,-149r68,0r90,149r-20,0r-111,-100r-159,100r-23,0xm95,-65v3,43,39,43,89,46r-4,19r-232,0r4,-19v73,-13,86,-38,133,-99r434,-566r56,0r5,602v0,57,32,57,90,63r-4,19r-286,0r3,-19v78,0,113,-16,113,-89r-1,-183r-241,0r-140,181v-13,16,-19,31,-19,45xm284,-329r210,0r-2,-276","w":749},"\u00c3":{"d":"465,-777v-31,0,-51,25,-56,54r-21,0v5,-60,45,-106,107,-106v25,0,56,9,94,29v34,18,57,27,72,27v29,0,53,-28,58,-55r22,0v-6,60,-44,104,-106,105v-27,0,-59,-10,-98,-29v-33,-17,-57,-25,-72,-25xm95,-65v3,43,39,43,89,46r-4,19r-232,0r4,-19v73,-13,86,-38,133,-99r434,-566r56,0r5,602v0,57,32,57,90,63r-4,19r-286,0r3,-19v78,0,113,-16,113,-89r-1,-183r-241,0r-140,181v-13,16,-19,31,-19,45xm284,-329r210,0r-2,-276","w":749},"\u00c4":{"d":"708,-773v0,23,-21,44,-44,44v-25,0,-45,-20,-45,-45v0,-24,21,-44,45,-44v24,0,44,21,44,45xm474,-774v0,24,-20,45,-44,45v-25,0,-45,-20,-45,-45v0,-24,21,-44,45,-44v23,0,44,21,44,44xm95,-65v2,44,40,43,89,46r-4,19r-232,0r4,-19v72,-14,87,-39,133,-99r434,-566r56,0r5,602v0,57,32,57,90,63r-4,19r-286,0r3,-19v78,0,113,-16,113,-89r-1,-183r-241,0r-140,181v-13,16,-19,31,-19,45xm284,-329r210,0r-2,-276","w":749},"\u00c5":{"d":"95,-65v2,44,40,43,89,46r-4,19r-232,0r4,-19v72,-14,87,-39,133,-99r429,-559v-44,-9,-82,-51,-82,-102v0,-56,49,-104,105,-104v56,0,106,48,104,104v0,47,-29,83,-66,98r5,599v0,57,32,57,90,63r-4,19r-286,0r3,-19v78,0,113,-16,113,-89r-1,-183r-241,0r-140,181v-13,16,-19,31,-19,45xm459,-779v0,42,36,78,78,78v40,0,77,-36,77,-77v0,-41,-35,-78,-77,-78v-41,0,-78,35,-78,77xm284,-329r210,0r-2,-276","w":749},"\u00c6":{"d":"85,-58v0,34,28,38,73,39r-4,19r-220,0r4,-19v30,-3,57,-14,81,-35v24,-21,63,-64,116,-131r335,-418v14,-16,17,-30,-6,-37v-11,-3,-31,-5,-62,-7r7,-20r574,0r-30,148r-19,0v3,-86,-27,-121,-113,-121r-200,0r-58,288r215,0v53,0,88,-24,105,-73r18,0r-39,190r-18,0v5,-75,-26,-90,-108,-90r-179,0r-46,225v-1,5,-2,12,-2,21v-2,71,97,50,169,52v106,3,190,-49,235,-120r18,0r-53,147r-561,0r4,-20v75,-3,93,-24,108,-96r31,-150r-226,0r-115,144v-23,28,-34,49,-34,64xm256,-293r209,0r72,-354","w":998},"\u00c7":{"d":"240,217v78,2,156,-10,156,-71v0,-29,-24,-45,-71,-48r50,-82v-119,-6,-188,-48,-242,-122v-37,-51,-55,-111,-55,-178v0,-112,45,-207,136,-284v91,-77,203,-116,335,-116v91,0,169,16,234,49r-40,160r-20,0v19,-122,-63,-183,-182,-183v-143,0,-288,103,-337,226v-20,50,-32,103,-32,158v-2,155,87,267,236,265v127,-1,222,-74,279,-161r21,0r-54,168v-18,0,-31,-7,-48,-6v-50,4,-165,29,-208,25r-16,26v44,0,83,34,82,77v-3,95,-114,123,-227,115","w":790},"\u00c8":{"d":"442,-725r-153,-159r87,0r88,159r-22,0xm355,-26v108,-1,189,-44,234,-118r18,0r-48,144r-568,0r5,-19v76,-3,95,-22,110,-97r89,-435v15,-60,5,-94,-62,-95r-27,0r5,-21r550,0r-30,148r-17,0v7,-85,-28,-121,-115,-121r-201,0r-59,289r211,0v68,-1,85,-21,110,-71r19,0r-39,188r-18,0v6,-74,-27,-90,-108,-90r-180,0r-46,225v-10,65,27,73,98,73r69,0","w":675},"\u00c9":{"d":"386,-725r92,-157r85,0r-156,157r-21,0xm355,-26v108,-1,189,-44,234,-118r18,0r-48,144r-568,0r5,-19v76,-3,95,-22,110,-97r89,-435v15,-60,5,-94,-62,-95r-27,0r5,-21r550,0r-30,148r-17,0v7,-85,-28,-121,-115,-121r-201,0r-59,289r211,0v68,-1,85,-21,110,-71r19,0r-39,188r-18,0v6,-74,-27,-90,-108,-90r-180,0r-46,225v-10,65,27,73,98,73r69,0","w":675},"\u00ca":{"d":"259,-731r155,-149r68,0r90,149r-20,0r-111,-100r-159,100r-23,0xm355,-26v108,-1,189,-44,234,-118r18,0r-48,144r-568,0r5,-19v76,-3,95,-22,110,-97r89,-435v15,-60,5,-94,-62,-95r-27,0r5,-21r550,0r-30,148r-17,0v7,-85,-28,-121,-115,-121r-201,0r-59,289r211,0v68,-1,85,-21,110,-71r19,0r-39,188r-18,0v6,-74,-27,-90,-108,-90r-180,0r-46,225v-10,65,27,73,98,73r69,0","w":675},"\u00cb":{"d":"601,-773v0,23,-21,44,-44,44v-25,0,-45,-20,-45,-45v0,-24,21,-44,45,-44v24,0,44,21,44,45xm351,-774v0,24,-20,45,-44,45v-25,0,-45,-20,-45,-45v0,-24,21,-44,45,-44v23,0,44,21,44,44xm355,-26v108,-1,189,-44,234,-118r18,0r-48,144r-568,0r5,-19v76,-3,95,-22,110,-97r89,-435v15,-60,5,-94,-62,-95r-27,0r5,-21r550,0r-30,148r-17,0v7,-85,-28,-121,-115,-121r-201,0r-59,289r211,0v68,-1,85,-21,110,-71r19,0r-39,188r-18,0v6,-74,-27,-90,-108,-90r-180,0r-46,225v-10,65,27,73,98,73r69,0","w":675},"\u00cc":{"d":"274,-725r-153,-159r87,0r88,159r-22,0xm202,-597v-1,-39,-37,-53,-82,-50r4,-20r268,0r-4,20v-74,3,-92,20,-107,96r-89,435v-21,69,9,98,85,96r-4,20r-277,0r4,-20v73,-3,93,-24,107,-96r88,-435v5,-23,7,-38,7,-46","w":339},"\u00cd":{"d":"219,-725r92,-157r85,0r-156,157r-21,0xm202,-597v-1,-39,-37,-53,-82,-50r4,-20r268,0r-4,20v-74,3,-92,20,-107,96r-89,435v-21,69,9,98,85,96r-4,20r-277,0r4,-20v73,-3,93,-24,107,-96r88,-435v5,-23,7,-38,7,-46","w":339},"\u00ce":{"d":"111,-731r155,-149r68,0r90,149r-20,0r-111,-100r-159,100r-23,0xm202,-597v-1,-39,-37,-53,-82,-50r4,-20r268,0r-4,20v-74,3,-92,20,-107,96r-89,435v-21,69,9,98,85,96r-4,20r-277,0r4,-20v73,-3,93,-24,107,-96r88,-435v5,-23,7,-38,7,-46","w":339},"\u00cf":{"d":"433,-773v0,23,-21,44,-44,44v-25,0,-45,-20,-45,-45v0,-24,21,-44,45,-44v24,0,44,21,44,45xm223,-774v0,24,-20,45,-44,45v-25,0,-45,-20,-45,-45v0,-24,21,-44,45,-44v23,0,44,21,44,44xm202,-597v-1,-39,-37,-53,-82,-50r4,-20r268,0r-4,20v-74,3,-92,20,-107,96r-89,435v-21,69,9,98,85,96r-4,20r-277,0r4,-20v73,-3,93,-24,107,-96r88,-435v5,-23,7,-38,7,-46","w":339},"\u00d0":{"d":"429,-667v198,-4,354,110,353,297v-1,153,-104,279,-220,330v-59,27,-123,40,-193,40r-375,0r4,-19v48,2,83,-13,96,-48v3,-9,8,-29,15,-62r41,-198r-83,0r6,-26r82,0r40,-198v17,-64,7,-93,-61,-96r-29,0r4,-20r320,0xm189,-88v4,61,43,62,118,63v173,3,264,-64,329,-169v57,-93,71,-228,14,-321v-54,-88,-143,-131,-295,-126r-56,0r-59,288r195,0r-5,26r-195,0r-43,212v-2,9,-3,18,-3,27","w":818},"\u00d1":{"d":"429,-787v-31,0,-51,25,-56,54r-21,0v5,-60,45,-106,107,-106v25,0,56,9,94,29v34,18,57,27,72,27v29,0,53,-28,58,-55r22,0v-6,60,-44,104,-106,105v-27,0,-59,-10,-98,-29v-33,-17,-57,-25,-72,-25xm138,-147v-17,77,9,124,89,127r-4,20r-223,0r4,-20v72,-11,90,-46,105,-120r96,-469v-13,-21,-44,-34,-93,-39r4,-19r144,0r399,562r87,-427v3,-18,5,-33,5,-44v-1,-52,-36,-68,-91,-72r5,-19r218,0r-4,19v-68,10,-93,45,-107,114r-111,546r-26,0r-410,-588","w":827},"\u00d2":{"d":"529,-725r-153,-159r87,0r88,159r-22,0xm817,-371v0,212,-197,388,-414,388v-132,0,-236,-72,-285,-163v-26,-47,-39,-97,-39,-151v0,-225,192,-383,410,-387v176,-3,328,140,328,313xm723,-402v0,-142,-92,-256,-229,-256v-147,0,-245,103,-288,222v-21,56,-32,113,-32,173v0,144,90,257,230,254v158,-4,245,-107,290,-229v20,-53,29,-108,29,-164","w":849},"\u00d3":{"d":"473,-725r92,-157r85,0r-156,157r-21,0xm817,-371v0,212,-197,388,-414,388v-132,0,-236,-72,-285,-163v-26,-47,-39,-97,-39,-151v0,-225,192,-383,410,-387v176,-3,328,140,328,313xm723,-402v0,-142,-92,-256,-229,-256v-147,0,-245,103,-288,222v-21,56,-32,113,-32,173v0,144,90,257,230,254v158,-4,245,-107,290,-229v20,-53,29,-108,29,-164","w":849},"\u00d4":{"d":"366,-731r155,-149r68,0r90,149r-20,0r-111,-100r-159,100r-23,0xm817,-371v0,212,-197,388,-414,388v-132,0,-236,-72,-285,-163v-26,-47,-39,-97,-39,-151v0,-225,192,-383,410,-387v176,-3,328,140,328,313xm723,-402v0,-142,-92,-256,-229,-256v-147,0,-245,103,-288,222v-21,56,-32,113,-32,173v0,144,90,257,230,254v158,-4,245,-107,290,-229v20,-53,29,-108,29,-164","w":849},"\u00d5":{"d":"441,-777v-31,0,-51,25,-56,54r-21,0v5,-60,45,-106,107,-106v25,0,56,9,94,29v34,18,57,27,72,27v29,0,53,-28,58,-55r22,0v-6,60,-44,104,-106,105v-27,0,-59,-10,-98,-29v-33,-17,-57,-25,-72,-25xm817,-371v0,212,-197,388,-414,388v-132,0,-236,-72,-285,-163v-26,-47,-39,-97,-39,-151v0,-225,192,-383,410,-387v176,-3,328,140,328,313xm723,-402v0,-142,-92,-256,-229,-256v-147,0,-245,103,-288,222v-21,56,-32,113,-32,173v0,144,90,257,230,254v158,-4,245,-107,290,-229v20,-53,29,-108,29,-164","w":849},"\u00d6":{"d":"680,-773v0,23,-21,44,-44,44v-25,0,-45,-20,-45,-45v0,-24,21,-44,45,-44v24,0,44,21,44,45xm446,-774v0,24,-20,45,-44,45v-25,0,-45,-20,-45,-45v0,-24,21,-44,45,-44v23,0,44,21,44,44xm817,-371v0,212,-197,388,-414,388v-132,0,-236,-72,-285,-163v-26,-47,-39,-97,-39,-151v0,-225,192,-383,410,-387v176,-3,328,140,328,313xm723,-402v0,-142,-92,-256,-229,-256v-147,0,-245,103,-288,222v-21,56,-32,113,-32,173v0,144,90,257,230,254v158,-4,245,-107,290,-229v20,-53,29,-108,29,-164","w":849},"\u00d7":{"d":"133,-162r-23,-23r156,-156r-156,-156r23,-23r156,156r156,-156r23,23r-156,156r156,156r-23,23r-156,-156"},"\u00d8":{"d":"79,-298v0,-203,200,-386,407,-386v69,0,132,19,191,56r68,-77r20,15r-67,77v125,90,152,261,78,409v-60,121,-207,221,-374,221v-76,0,-142,-22,-199,-65r-90,103r-20,-15r91,-104v-70,-65,-105,-143,-105,-234xm218,-103r431,-493v-99,-95,-264,-72,-356,20v-95,95,-167,330,-75,473xm233,-83v65,77,181,94,285,49v88,-39,141,-112,176,-204v42,-112,43,-259,-27,-339","w":848},"\u00d9":{"d":"496,-725r-153,-159r87,0r88,159r-22,0xm184,-173v0,103,91,164,201,164v90,0,159,-29,206,-88v27,-33,47,-85,60,-156r51,-280v15,-71,-11,-116,-93,-114r5,-20r220,0r-4,20v-53,7,-87,47,-100,120r-52,282v-29,171,-122,262,-309,262v-99,0,-174,-25,-220,-78v-55,-64,-56,-118,-36,-218r55,-272v5,-25,7,-41,7,-46v-1,-40,-39,-53,-86,-50r4,-20r272,0r-4,20v-74,1,-93,24,-108,96r-56,275v-9,44,-13,78,-13,103","w":782},"\u00da":{"d":"454,-725r92,-157r85,0r-156,157r-21,0xm184,-173v0,103,91,164,201,164v90,0,159,-29,206,-88v27,-33,47,-85,60,-156r51,-280v15,-71,-11,-116,-93,-114r5,-20r220,0r-4,20v-53,7,-87,47,-100,120r-52,282v-29,171,-122,262,-309,262v-99,0,-174,-25,-220,-78v-55,-64,-56,-118,-36,-218r55,-272v5,-25,7,-41,7,-46v-1,-40,-39,-53,-86,-50r4,-20r272,0r-4,20v-74,1,-93,24,-108,96r-56,275v-9,44,-13,78,-13,103","w":782},"\u00db":{"d":"339,-731r155,-149r68,0r90,149r-20,0r-111,-100r-159,100r-23,0xm184,-173v0,103,91,164,201,164v90,0,159,-29,206,-88v27,-33,47,-85,60,-156r51,-280v15,-71,-11,-116,-93,-114r5,-20r220,0r-4,20v-53,7,-87,47,-100,120r-52,282v-29,171,-122,262,-309,262v-99,0,-174,-25,-220,-78v-55,-64,-56,-118,-36,-218r55,-272v5,-25,7,-41,7,-46v-1,-40,-39,-53,-86,-50r4,-20r272,0r-4,20v-74,1,-93,24,-108,96r-56,275v-9,44,-13,78,-13,103","w":782},"\u00dc":{"d":"665,-773v0,23,-21,44,-44,44v-25,0,-45,-20,-45,-45v0,-24,21,-44,45,-44v24,0,44,21,44,45xm428,-774v0,24,-20,45,-44,45v-25,0,-45,-20,-45,-45v0,-24,21,-44,45,-44v23,0,44,21,44,44xm184,-173v0,103,91,164,201,164v90,0,159,-29,206,-88v27,-33,47,-85,60,-156r51,-280v15,-71,-11,-116,-93,-114r5,-20r220,0r-4,20v-53,7,-87,47,-100,120r-52,282v-29,171,-122,262,-309,262v-99,0,-174,-25,-220,-78v-55,-64,-56,-118,-36,-218r55,-272v5,-25,7,-41,7,-46v-1,-40,-39,-53,-86,-50r4,-20r272,0r-4,20v-74,1,-93,24,-108,96r-56,275v-9,44,-13,78,-13,103","w":782},"\u00dd":{"d":"398,-725r92,-157r85,0r-156,157r-21,0xm140,0r4,-20v83,0,107,-17,123,-96r32,-157r-135,-296v-26,-49,-30,-74,-86,-79r4,-19r223,0r-4,19v-64,5,-68,34,-46,81r121,262r208,-239v25,-29,38,-51,38,-65v0,-24,-21,-37,-64,-39r4,-19r183,0r-4,18v-46,18,-58,33,-93,73r-263,303r-32,157v-17,64,0,94,69,96r27,0r-4,20r-305,0","w":670},"\u00de":{"d":"499,-367v0,-97,-50,-145,-159,-142r-68,0r-81,393v-18,66,9,100,85,96r-4,20r-266,0r4,-20v71,-6,85,-38,99,-109r86,-422v4,-18,6,-33,6,-46v-1,-38,-37,-53,-81,-50r4,-20r255,0r-4,20v-70,1,-89,46,-98,111v81,-2,177,5,216,27v63,36,96,86,96,157v0,50,-18,94,-51,134v-57,69,-166,100,-285,83r3,-19v145,24,243,-80,243,-213","w":605},"\u00df":{"d":"-181,165v28,0,81,53,107,50v33,-4,61,-33,74,-61v16,-35,31,-85,42,-152r55,-315v26,-139,31,-191,80,-280v36,-65,101,-125,187,-128v68,-2,122,59,121,128v-1,89,-76,154,-171,173v77,29,115,85,115,166v0,115,-102,267,-207,267v-29,0,-57,-15,-57,-41v0,-16,13,-29,29,-29v11,0,24,11,44,29v41,38,85,-26,96,-62v15,-46,23,-93,23,-142v-1,-92,-32,-144,-97,-177r3,-14v72,-14,110,-43,137,-99v12,-26,18,-54,18,-83v1,-50,-28,-95,-75,-94v-49,1,-94,43,-110,83v-63,148,-90,488,-147,655v-32,94,-108,209,-205,210v-42,0,-92,-21,-93,-56v0,-16,15,-28,31,-28","w":456},"\u00e0":{"d":"297,-481r-168,-232r76,0r112,232r-20,0xm271,13v-20,-1,-29,-25,-29,-49v0,-23,5,-56,15,-101v-96,100,-157,150,-182,150v-37,0,-63,-64,-61,-110v4,-117,81,-215,161,-273v50,-37,128,-75,209,-66r-64,314v-5,26,-8,45,-8,57v0,11,3,16,10,16v9,0,30,-19,61,-56r0,26v-54,61,-91,92,-112,92xm80,-120v-1,33,10,79,34,79v17,0,67,-43,150,-128r43,-214v-109,9,-159,51,-198,132v-19,42,-29,86,-29,131","w":429},"\u00e1":{"d":"217,-481r114,-232r73,0r-165,232r-22,0xm271,13v-20,-1,-29,-25,-29,-49v0,-23,5,-56,15,-101v-96,100,-157,150,-182,150v-37,0,-63,-64,-61,-110v4,-117,81,-215,161,-273v50,-37,128,-75,209,-66r-64,314v-5,26,-8,45,-8,57v0,11,3,16,10,16v9,0,30,-19,61,-56r0,26v-54,61,-91,92,-112,92xm80,-120v-1,33,10,79,34,79v17,0,67,-43,150,-128r43,-214v-109,9,-159,51,-198,132v-19,42,-29,86,-29,131","w":429},"\u00e2":{"d":"145,-475r177,-234r58,0r1,234r-25,0r-34,-151r-153,151r-24,0xm271,13v-20,-1,-29,-25,-29,-49v0,-23,5,-56,15,-101v-96,100,-157,150,-182,150v-37,0,-63,-64,-61,-110v4,-117,81,-215,161,-273v50,-37,128,-75,209,-66r-64,314v-5,26,-8,45,-8,57v0,11,3,16,10,16v9,0,30,-19,61,-56r0,26v-54,61,-91,92,-112,92xm80,-120v-1,33,10,79,34,79v17,0,67,-43,150,-128r43,-214v-109,9,-159,51,-198,132v-19,42,-29,86,-29,131","w":429},"\u00e3":{"d":"447,-644v-1,59,-29,103,-85,103v-25,0,-57,-12,-98,-37v-28,-17,-50,-26,-67,-26v-30,0,-46,21,-49,62r-14,0v3,-58,32,-102,89,-103v21,0,53,13,94,39v26,17,47,25,64,25v34,0,53,-27,52,-63r14,0xm271,13v-20,-1,-29,-25,-29,-49v0,-23,5,-56,15,-101v-96,100,-157,150,-182,150v-37,0,-63,-64,-61,-110v4,-117,81,-215,161,-273v50,-37,128,-75,209,-66r-64,314v-5,26,-8,45,-8,57v0,11,3,16,10,16v9,0,30,-19,61,-56r0,26v-54,61,-91,92,-112,92xm80,-120v-1,33,10,79,34,79v17,0,67,-43,150,-128r43,-214v-109,9,-159,51,-198,132v-19,42,-29,86,-29,131","w":429},"\u00e4":{"d":"409,-581v0,21,-18,39,-39,39v-21,0,-40,-19,-40,-40v0,-21,19,-39,40,-39v21,0,39,19,39,40xm238,-581v0,21,-18,39,-39,39v-22,0,-40,-19,-40,-40v0,-21,19,-39,40,-39v21,0,39,19,39,40xm271,13v-20,-1,-29,-25,-29,-49v0,-23,5,-56,15,-101v-96,100,-157,150,-182,150v-37,0,-63,-64,-61,-110v4,-117,81,-215,161,-273v50,-37,128,-75,209,-66r-64,314v-5,26,-8,45,-8,57v0,11,3,16,10,16v9,0,30,-19,61,-56r0,26v-54,61,-91,92,-112,92xm80,-120v-1,33,10,79,34,79v17,0,67,-43,150,-128r43,-214v-109,9,-159,51,-198,132v-19,42,-29,86,-29,131","w":429},"\u00e5":{"d":"393,-595v0,52,-44,97,-96,97v-53,0,-97,-45,-97,-98v0,-50,46,-95,97,-95v52,0,96,44,96,96xm224,-596v0,40,33,74,73,74v39,0,72,-34,72,-72v0,-40,-33,-73,-73,-73v-37,0,-72,33,-72,71xm271,13v-20,-1,-29,-25,-29,-49v0,-23,5,-56,15,-101v-96,100,-157,150,-182,150v-37,0,-63,-64,-61,-110v4,-117,81,-215,161,-273v50,-37,128,-75,209,-66r-64,314v-5,26,-8,45,-8,57v0,11,3,16,10,16v9,0,30,-19,61,-56r0,26v-54,61,-91,92,-112,92xm80,-120v-1,33,10,79,34,79v17,0,67,-43,150,-128r43,-214v-109,9,-159,51,-198,132v-19,42,-29,86,-29,131","w":429},"\u00e6":{"d":"366,13v-63,-1,-108,-71,-98,-144v-101,95,-164,143,-187,143v-41,-1,-71,-69,-70,-118v4,-130,95,-233,191,-284v61,-33,119,-48,188,-47r-13,65v45,-44,89,-66,133,-66v48,-1,90,28,88,74v-2,59,-53,95,-105,117v-53,23,-102,40,-147,51v-22,78,-6,170,70,170v27,0,67,-17,121,-51r9,13v-75,51,-135,77,-180,77xm540,-364v1,-30,-21,-52,-50,-52v-31,0,-59,17,-84,52v-25,35,-44,84,-57,148v38,-8,72,-21,110,-41v54,-27,81,-63,81,-107xm117,-41v24,0,76,-40,155,-119r47,-230v-82,10,-128,30,-172,76v-46,48,-69,108,-69,181v0,27,4,50,11,67v7,17,17,25,28,25","w":596},"\u00e7":{"d":"109,12v-60,2,-95,-48,-94,-110v1,-84,38,-174,77,-231v48,-73,101,-109,160,-109v30,0,55,12,55,39v0,18,-10,33,-28,33v-14,4,-58,-28,-80,-28v-25,0,-49,26,-70,77v-31,78,-47,147,-47,207v-1,46,21,80,63,81v35,0,71,-22,107,-67r14,11v-32,38,-88,84,-138,95r-9,25v76,24,74,120,12,162v-32,21,-70,36,-119,39r5,-17v38,-7,65,-17,81,-29v39,-31,31,-91,-20,-110","w":297},"\u00e8":{"d":"272,-481r-168,-232r76,0r112,232r-20,0xm302,-69v-47,38,-111,82,-177,82v-65,0,-106,-73,-106,-146v0,-133,108,-305,238,-305v50,0,85,23,85,70v0,42,-33,81,-98,116v-29,16,-79,35,-148,57v-18,80,-4,167,74,168v32,0,73,-19,123,-56xm101,-215v69,-22,115,-42,136,-59v29,-24,43,-56,43,-95v0,-31,-13,-47,-39,-47v-28,0,-53,14,-76,42v-21,26,-42,79,-64,159","w":352},"\u00e9":{"d":"179,-481r114,-232r73,0r-165,232r-22,0xm302,-69v-47,38,-111,82,-177,82v-65,0,-106,-73,-106,-146v0,-133,108,-305,238,-305v50,0,85,23,85,70v0,42,-33,81,-98,116v-29,16,-79,35,-148,57v-18,80,-4,167,74,168v32,0,73,-19,123,-56xm101,-215v69,-22,115,-42,136,-59v29,-24,43,-56,43,-95v0,-31,-13,-47,-39,-47v-28,0,-53,14,-76,42v-21,26,-42,79,-64,159","w":352},"\u00ea":{"d":"113,-475r177,-234r58,0r1,234r-25,0r-34,-151r-153,151r-24,0xm302,-69v-47,38,-111,82,-177,82v-65,0,-106,-73,-106,-146v0,-133,108,-305,238,-305v50,0,85,23,85,70v0,42,-33,81,-98,116v-29,16,-79,35,-148,57v-18,80,-4,167,74,168v32,0,73,-19,123,-56xm101,-215v69,-22,115,-42,136,-59v29,-24,43,-56,43,-95v0,-31,-13,-47,-39,-47v-28,0,-53,14,-76,42v-21,26,-42,79,-64,159","w":352},"\u00eb":{"d":"375,-581v0,21,-18,39,-39,39v-21,0,-40,-19,-40,-40v0,-21,19,-39,40,-39v21,0,39,19,39,40xm204,-581v0,21,-18,39,-39,39v-22,0,-40,-19,-40,-40v0,-21,19,-39,40,-39v21,0,39,19,39,40xm302,-69v-47,38,-111,82,-177,82v-65,0,-106,-73,-106,-146v0,-133,108,-305,238,-305v50,0,85,23,85,70v0,42,-33,81,-98,116v-29,16,-79,35,-148,57v-18,80,-4,167,74,168v32,0,73,-19,123,-56xm101,-215v69,-22,115,-42,136,-59v29,-24,43,-56,43,-95v0,-31,-13,-47,-39,-47v-28,0,-53,14,-76,42v-21,26,-42,79,-64,159","w":352},"\u00ec":{"d":"172,-481r-168,-232r76,0r112,232r-20,0xm90,13v-34,2,-31,-46,-24,-79r60,-301v0,-5,-2,-7,-6,-7v-9,-1,-48,40,-60,53r-11,-14v62,-69,105,-103,129,-103v27,0,23,31,17,61r-60,299v-3,12,-8,34,6,35v11,0,33,-22,68,-66r13,12v-20,27,-44,52,-72,75v-28,23,-47,35,-60,35","w":260},"\u00ed":{"d":"132,-481r114,-232r73,0r-165,232r-22,0xm90,13v-34,2,-31,-46,-24,-79r60,-301v0,-5,-2,-7,-6,-7v-9,-1,-48,40,-60,53r-11,-14v62,-69,105,-103,129,-103v27,0,23,31,17,61r-60,299v-3,12,-8,34,6,35v11,0,33,-22,68,-66r13,12v-20,27,-44,52,-72,75v-28,23,-47,35,-60,35","w":260},"\u00ee":{"d":"38,-475r177,-234r58,0r1,234r-25,0r-34,-151r-153,151r-24,0xm90,13v-34,1,-31,-44,-24,-79r61,-301v-2,-12,-14,-6,-21,0v-4,3,-28,29,-46,46r-10,-14v63,-69,106,-103,129,-103v27,0,23,31,17,61r-61,299v-2,14,-3,22,-3,23v0,8,3,12,9,12v11,0,34,-22,69,-66r13,12v-20,27,-44,52,-72,75v-28,23,-48,35,-61,35","w":260},"\u00ef":{"d":"298,-581v0,21,-18,39,-39,39v-22,0,-40,-19,-40,-40v0,-21,19,-39,40,-39v21,0,39,19,39,40xm161,-581v0,21,-18,39,-39,39v-21,0,-40,-19,-40,-40v0,-21,19,-39,40,-39v21,0,39,19,39,40xm90,13v-34,2,-31,-46,-24,-79r60,-301v0,-5,-2,-7,-6,-7v-9,-1,-48,40,-60,53r-11,-14v62,-69,105,-103,129,-103v27,0,23,31,17,61r-60,299v-3,12,-8,34,6,35v11,0,33,-22,68,-66r13,12v-20,27,-44,52,-72,75v-28,23,-47,35,-60,35","w":260},"\u00f0":{"d":"123,12v-61,-2,-98,-92,-98,-165v0,-89,40,-164,120,-225v53,-41,98,-61,135,-61v10,0,22,5,37,14v1,-50,-5,-89,-20,-135r-106,33r-5,-17r104,-32v-14,-33,-38,-65,-71,-94r11,-14v41,28,74,60,97,97r100,-31r4,16r-95,30v48,90,59,186,40,306v-12,71,-28,122,-59,156v-35,39,-69,65,-98,84v-40,25,-72,38,-96,38xm95,-160v0,81,42,168,117,120v60,-39,89,-133,93,-227v2,-62,-30,-130,-83,-130v-33,0,-62,24,-88,73v-26,49,-39,103,-39,164","w":399},"\u00f1":{"d":"482,-644v-1,59,-29,103,-85,103v-25,0,-57,-12,-98,-37v-28,-17,-50,-26,-67,-26v-30,0,-46,21,-49,62r-14,0v3,-58,32,-102,89,-103v21,0,53,13,94,39v26,17,47,25,64,25v34,0,53,-27,52,-63r14,0xm84,12v-27,0,-41,4,-37,-18r70,-346v0,-5,-2,-7,-5,-7v-9,1,-29,23,-60,64r-13,-11v20,-31,45,-62,74,-90v29,-28,50,-42,63,-42v21,1,20,30,15,50r-37,180v121,-153,204,-230,247,-230v51,0,46,76,33,124r-63,239v-5,17,-7,29,-7,35v0,6,2,9,7,9v11,0,42,-30,93,-90r12,10v-64,83,-114,124,-149,124v-32,0,-33,-45,-25,-78r68,-267v8,-25,9,-52,-13,-57v-11,0,-25,7,-41,23v-61,60,-117,125,-169,196r-34,163v-5,20,-3,19,-29,19","w":500},"\u00f2":{"d":"308,-481r-168,-232r76,0r112,232r-20,0xm276,-438v59,0,98,85,98,157v0,98,-43,178,-128,239v-51,37,-93,55,-125,55v-57,0,-98,-99,-96,-168v3,-97,55,-171,118,-220v53,-42,98,-63,133,-63xm95,-160v0,81,42,168,117,120v60,-39,89,-133,93,-227v2,-62,-30,-130,-83,-130v-33,0,-62,24,-88,73v-26,49,-39,103,-39,164","w":399},"\u00f3":{"d":"202,-481r114,-232r73,0r-165,232r-22,0xm276,-438v59,0,98,85,98,157v0,98,-43,178,-128,239v-51,37,-93,55,-125,55v-57,0,-98,-99,-96,-168v3,-97,55,-171,118,-220v53,-42,98,-63,133,-63xm95,-160v0,81,42,168,117,120v60,-39,89,-133,93,-227v2,-62,-30,-130,-83,-130v-33,0,-62,24,-88,73v-26,49,-39,103,-39,164","w":399},"\u00f4":{"d":"142,-475r177,-234r58,0r1,234r-25,0r-34,-151r-153,151r-24,0xm276,-438v59,0,98,85,98,157v0,98,-43,178,-128,239v-51,37,-93,55,-125,55v-57,0,-98,-99,-96,-168v3,-97,55,-171,118,-220v53,-42,98,-63,133,-63xm95,-160v0,81,42,168,117,120v60,-39,89,-133,93,-227v2,-62,-30,-130,-83,-130v-33,0,-62,24,-88,73v-26,49,-39,103,-39,164","w":399},"\u00f5":{"d":"439,-644v-1,59,-29,103,-85,103v-25,0,-57,-12,-98,-37v-28,-17,-50,-26,-67,-26v-30,0,-46,21,-49,62r-14,0v3,-58,32,-102,89,-103v21,0,53,13,94,39v26,17,47,25,64,25v34,0,53,-27,52,-63r14,0xm276,-438v59,0,98,85,98,157v0,98,-43,178,-128,239v-51,37,-93,55,-125,55v-57,0,-98,-99,-96,-168v3,-97,55,-171,118,-220v53,-42,98,-63,133,-63xm95,-160v0,81,42,168,117,120v60,-39,89,-133,93,-227v2,-62,-30,-130,-83,-130v-33,0,-62,24,-88,73v-26,49,-39,103,-39,164","w":399},"\u00f6":{"d":"412,-581v0,21,-18,39,-39,39v-22,0,-40,-19,-40,-40v0,-21,19,-39,40,-39v21,0,39,19,39,40xm241,-581v0,21,-18,39,-39,39v-21,0,-40,-19,-40,-40v0,-21,19,-39,40,-39v21,0,39,19,39,40xm276,-438v59,0,98,85,98,157v0,98,-43,178,-128,239v-51,37,-93,55,-125,55v-57,0,-98,-99,-96,-168v3,-97,55,-171,118,-220v53,-42,98,-63,133,-63xm95,-160v0,81,42,168,117,120v60,-39,89,-133,93,-227v2,-62,-30,-130,-83,-130v-33,0,-62,24,-88,73v-26,49,-39,103,-39,164","w":399},"\u00f7":{"d":"328,-512v1,21,-17,39,-38,39v-21,0,-39,-18,-39,-39v0,-21,18,-38,39,-38v20,0,38,18,38,38xm69,-325r0,-33r440,0r0,33r-440,0xm288,-132v-19,0,-38,-19,-38,-38v0,-21,17,-39,39,-39v20,0,38,18,38,38v0,22,-18,39,-39,39"},"\u00f8":{"d":"3,0r45,-51v-32,-70,-26,-154,9,-223v34,-67,148,-163,220,-164v23,0,46,15,67,46r42,-48r11,14r-44,50v15,27,22,59,22,96v0,97,-43,176,-128,238v-51,37,-93,55,-126,55v-23,0,-44,-16,-64,-48r-43,49xm100,-111r194,-223v-15,-42,-39,-63,-71,-63v-33,0,-62,24,-88,73v-31,61,-47,133,-35,213xm105,-90v22,62,58,81,109,50v61,-37,88,-133,92,-227v0,-13,-2,-28,-6,-47","w":399},"\u00f9":{"d":"332,-481r-168,-232r76,0r112,232r-20,0xm418,-438v25,-1,35,0,31,23r-70,347v0,6,2,9,7,9v9,0,31,-22,68,-65r13,12v-28,35,-56,64,-83,88v-27,24,-46,37,-57,37v-13,0,-19,-10,-19,-30v0,-36,14,-112,41,-229v-49,66,-95,122,-140,167v-61,61,-101,92,-120,92v-19,0,-29,-20,-29,-59v0,-102,41,-210,58,-309v0,-5,-2,-7,-6,-7v-9,0,-28,18,-57,54r-13,-8v23,-34,47,-63,72,-86v25,-23,44,-34,58,-34v28,0,20,45,15,71r-52,253v-3,17,-5,30,-5,41v0,13,5,19,14,19v13,0,42,-26,90,-78v48,-52,83,-97,104,-134v19,-32,33,-80,43,-144v5,-27,6,-29,37,-30","w":498},"\u00fa":{"d":"259,-481r114,-232r73,0r-165,232r-22,0xm418,-438v25,-1,35,0,31,23r-70,347v0,6,2,9,7,9v9,0,31,-22,68,-65r13,12v-28,35,-56,64,-83,88v-27,24,-46,37,-57,37v-13,0,-19,-10,-19,-30v0,-36,14,-112,41,-229v-49,66,-95,122,-140,167v-61,61,-101,92,-120,92v-19,0,-29,-20,-29,-59v0,-102,41,-210,58,-309v0,-5,-2,-7,-6,-7v-9,0,-28,18,-57,54r-13,-8v23,-34,47,-63,72,-86v25,-23,44,-34,58,-34v28,0,20,45,15,71r-52,253v-3,17,-5,30,-5,41v0,13,5,19,14,19v13,0,42,-26,90,-78v48,-52,83,-97,104,-134v19,-32,33,-80,43,-144v5,-27,6,-29,37,-30","w":498},"\u00fb":{"d":"167,-475r177,-234r58,0r1,234r-25,0r-34,-151r-153,151r-24,0xm418,-438v25,-1,35,0,31,23r-70,347v0,6,2,9,7,9v9,0,31,-22,68,-65r13,12v-28,35,-56,64,-83,88v-27,24,-46,37,-57,37v-13,0,-19,-10,-19,-30v0,-36,14,-112,41,-229v-49,66,-95,122,-140,167v-61,61,-101,92,-120,92v-19,0,-29,-20,-29,-59v0,-102,41,-210,58,-309v0,-5,-2,-7,-6,-7v-9,0,-28,18,-57,54r-13,-8v23,-34,47,-63,72,-86v25,-23,44,-34,58,-34v28,0,20,45,15,71r-52,253v-3,17,-5,30,-5,41v0,13,5,19,14,19v13,0,42,-26,90,-78v48,-52,83,-97,104,-134v19,-32,33,-80,43,-144v5,-27,6,-29,37,-30","w":498},"\u00fc":{"d":"442,-581v0,21,-18,39,-39,39v-22,0,-40,-19,-40,-40v0,-21,19,-39,40,-39v21,0,39,19,39,40xm271,-581v0,21,-18,39,-39,39v-21,0,-40,-19,-40,-40v0,-21,19,-39,40,-39v21,0,39,19,39,40xm418,-438v25,-1,35,0,31,23r-70,347v0,6,2,9,7,9v9,0,31,-22,68,-65r13,12v-28,35,-56,64,-83,88v-27,24,-46,37,-57,37v-13,0,-19,-10,-19,-30v0,-36,14,-112,41,-229v-49,66,-95,122,-140,167v-61,61,-101,92,-120,92v-19,0,-29,-20,-29,-59v0,-102,41,-210,58,-309v0,-5,-2,-7,-6,-7v-9,0,-28,18,-57,54r-13,-8v23,-34,47,-63,72,-86v25,-23,44,-34,58,-34v28,0,20,45,15,71r-52,253v-3,17,-5,30,-5,41v0,13,5,19,14,19v13,0,42,-26,90,-78v48,-52,83,-97,104,-134v19,-32,33,-80,43,-144v5,-27,6,-29,37,-30","w":498},"\u00fd":{"d":"264,-481r114,-232r73,0r-165,232r-22,0xm410,-438v27,0,43,24,42,53v0,39,-37,115,-112,226v-73,110,-65,98,-119,224r-42,102v-9,23,-14,36,-14,39v0,13,17,19,52,20v6,0,11,0,16,1r-8,17r-221,0r7,-17v60,-3,66,-2,87,-42v33,-63,54,-114,67,-151v13,-37,19,-72,19,-103v0,-75,-13,-167,-42,-273v-13,-47,-20,-57,-48,-30v-9,10,-25,29,-48,58r-14,-9v55,-76,96,-114,122,-114v19,0,36,34,53,103v21,87,33,187,35,298v35,-65,61,-114,76,-147v42,-89,63,-148,63,-175v0,-14,-13,-24,-13,-39v0,-22,20,-42,42,-41","w":469},"\u00fe":{"d":"427,-282v0,138,-125,299,-257,295v-21,0,-40,-3,-58,-10r-24,121v-7,34,-10,56,-10,65v0,38,29,40,85,41r-5,20r-251,0r4,-20v86,-5,94,-26,110,-106r158,-777v0,-5,-2,-8,-7,-8v-7,0,-29,10,-65,30r-9,-16r103,-58v21,-11,35,-17,42,-17v16,1,13,15,10,31r-86,425v88,-114,151,-171,188,-171v18,0,34,17,49,49v15,32,23,67,23,106xm121,-40v21,18,43,27,68,27v44,0,84,-27,119,-81v35,-54,52,-115,52,-184v0,-30,-5,-55,-14,-76v-9,-21,-21,-31,-34,-31v-12,0,-33,15,-62,45v-29,30,-60,69,-91,114","w":452},"\u00ff":{"d":"434,-581v0,21,-18,39,-39,39v-22,0,-40,-19,-40,-40v0,-21,19,-39,40,-39v21,0,39,19,39,40xm263,-581v0,21,-18,39,-39,39v-21,0,-40,-19,-40,-40v0,-21,19,-39,40,-39v21,0,39,19,39,40xm410,-438v27,0,43,24,42,53v0,39,-37,115,-112,226v-73,110,-65,98,-119,224r-42,102v-9,23,-14,36,-14,39v0,13,17,19,52,20v6,0,11,0,16,1r-8,17r-221,0r7,-17v60,-3,66,-2,87,-42v33,-63,54,-114,67,-151v13,-37,19,-72,19,-103v0,-75,-13,-167,-42,-273v-13,-47,-20,-57,-48,-30v-9,10,-25,29,-48,58r-14,-9v55,-76,96,-114,122,-114v19,0,36,34,53,103v21,87,33,187,35,298v35,-65,61,-114,76,-147v42,-89,63,-148,63,-175v0,-14,-13,-24,-13,-39v0,-22,20,-42,42,-41","w":469},"\u0152":{"d":"393,4v-188,3,-315,-119,-314,-298v2,-161,98,-281,219,-336v60,-28,138,-46,235,-42r137,5r420,0r-30,148r-16,0v3,-88,-28,-121,-116,-121r-187,0r-58,289r202,0v55,0,90,-25,105,-74r18,0r-39,191r-18,0v5,-74,-27,-90,-108,-90r-166,0r-46,226v-10,65,27,72,98,72v140,0,227,-25,291,-120r18,0r-58,146r-446,0xm172,-276v0,147,83,259,231,254v114,-4,139,-40,162,-151r72,-354v18,-81,-19,-119,-126,-119v-188,0,-339,185,-339,370","w":1106},"\u0153":{"d":"283,-87v-43,51,-102,100,-167,100v-58,0,-94,-86,-94,-154v0,-91,36,-169,109,-232v50,-43,95,-65,134,-65v43,0,73,35,88,105v42,-70,97,-105,166,-105v51,0,92,28,90,76v-2,53,-47,86,-93,108v-60,29,-115,49,-166,59v-16,88,-5,169,78,171v35,0,78,-19,127,-56r10,13v-69,53,-130,79,-181,79v-48,0,-82,-33,-101,-99xm552,-359v1,-32,-23,-58,-55,-57v-39,0,-72,21,-98,63v-18,30,-33,77,-46,140v63,-15,112,-35,147,-61v35,-26,52,-54,52,-85xm102,-264v-25,88,-22,236,67,236v29,0,52,-16,71,-49v35,-60,53,-127,53,-200v0,-77,-42,-158,-112,-110v-41,28,-63,67,-79,123","w":615},"\u0178":{"d":"619,-773v0,23,-21,44,-44,44v-25,0,-45,-20,-45,-45v0,-24,21,-44,45,-44v24,0,44,21,44,45xm369,-774v0,24,-20,45,-44,45v-25,0,-45,-20,-45,-45v0,-24,21,-44,45,-44v23,0,44,21,44,44xm140,0r4,-20v83,0,107,-17,123,-96r32,-157r-135,-296v-26,-49,-30,-74,-86,-79r4,-19r223,0r-4,19v-64,5,-68,34,-46,81r121,262r208,-239v25,-29,38,-51,38,-65v0,-24,-21,-37,-64,-39r4,-19r183,0r-4,18v-46,18,-58,33,-93,73r-263,303r-32,157v-17,64,0,94,69,96r27,0r-4,20r-305,0","w":670},"\u02c6":{"d":"161,-475r177,-234r58,0r1,234r-25,0r-34,-151r-153,151r-24,0","w":500},"\u02dc":{"d":"483,-644v-1,59,-29,103,-85,103v-25,0,-57,-12,-98,-37v-28,-17,-50,-26,-67,-26v-30,0,-46,21,-49,62r-14,0v3,-58,32,-102,89,-103v21,0,53,13,94,39v26,17,47,25,64,25v34,0,53,-27,52,-63r14,0","w":500},"\u2013":{"d":"4,-244r0,-48r549,0r0,48r-549,0","w":536},"\u2014":{"d":"4,-244r0,-48r1085,0r0,48r-1085,0","w":1073},"\u2018":{"d":"266,-452v0,26,-18,49,-44,49v-35,0,-57,-37,-56,-77v4,-98,78,-165,157,-204r9,18v-36,23,-61,44,-76,62v-15,18,-22,38,-22,59v0,28,32,66,32,93","w":313},"\u2019":{"d":"216,-684v36,0,57,37,56,77v-4,98,-77,166,-156,204r-10,-18v35,-23,61,-45,76,-63v15,-18,22,-37,22,-58v0,-30,-31,-64,-31,-93v0,-25,19,-50,43,-49","w":279},"\u201a":{"d":"115,44v0,-28,-31,-64,-31,-93v0,-25,19,-50,43,-49v36,0,57,37,56,77v-4,98,-77,166,-156,204r-10,-18v35,-23,60,-43,75,-61v15,-18,23,-39,23,-60","w":313},"\u201c":{"d":"477,-452v0,25,-19,50,-44,49v-35,0,-57,-37,-56,-77v4,-98,78,-165,157,-204r9,18v-35,23,-60,44,-75,62v-15,18,-23,38,-23,59v0,29,32,65,32,93xm256,-452v0,26,-18,49,-44,49v-35,0,-57,-37,-56,-77v4,-98,78,-165,157,-204r9,18v-36,23,-61,44,-76,62v-15,18,-22,38,-22,59v0,28,32,66,32,93","w":536},"\u201d":{"d":"467,-684v36,0,57,37,56,77v-4,98,-77,165,-156,204r-10,-18v36,-23,61,-45,76,-63v15,-18,22,-37,22,-58v0,-28,-31,-65,-31,-93v0,-25,19,-50,43,-49xm246,-684v36,0,57,37,56,77v-4,98,-77,166,-156,204r-10,-18v35,-23,61,-45,76,-63v15,-18,22,-37,22,-58v0,-30,-31,-64,-31,-93v0,-25,19,-50,43,-49","w":536},"\u201e":{"d":"337,-98v36,0,57,37,56,77v-4,98,-78,166,-157,204r-9,-18v35,-23,60,-45,75,-63v15,-18,23,-37,23,-58v0,-30,-31,-64,-31,-93v0,-25,19,-50,43,-49xm104,44v0,-28,-31,-64,-31,-93v0,-25,19,-50,43,-49v36,0,57,37,56,77v-4,98,-77,166,-156,204r-10,-18v35,-23,61,-43,76,-61v15,-18,22,-39,22,-60","w":536},"\u2022":{"d":"359,-200v-74,0,-139,-64,-139,-138v0,-76,65,-139,141,-139v72,0,136,66,136,138v0,75,-64,139,-138,139","w":667},"\u2026":{"d":"854,13v-26,0,-42,-20,-42,-48v0,-31,22,-63,51,-63v26,0,42,22,42,49v0,32,-21,62,-51,62xm496,13v-26,0,-42,-20,-42,-48v0,-31,22,-63,51,-63v26,0,42,22,42,49v0,32,-21,62,-51,62xm138,13v-26,0,-41,-20,-41,-48v0,-32,21,-63,51,-63v25,0,41,22,41,49v0,32,-21,62,-51,62","w":1073},"\u2039":{"d":"213,-37r-114,-197r206,-199r22,0r-154,199r65,197r-25,0","w":358},"\u203a":{"d":"38,-37r154,-199r-64,-197r24,0r114,197r-206,199r-22,0","w":358},"\u20ac":{"d":"650,-8v-49,4,-162,26,-204,25v-140,-3,-237,-57,-288,-151v-27,-49,-40,-99,-39,-159r-63,0r16,-26r49,0r3,-26r-58,0r16,-26r48,0v45,-183,230,-315,457,-313v91,0,169,16,235,49r-39,160r-20,0v19,-122,-63,-185,-183,-183v-114,2,-215,59,-274,127v-39,44,-66,97,-81,160r412,0r-16,26r-402,0r-3,26r389,0r-16,26r-375,0v-10,161,77,285,236,285v129,0,221,-73,279,-162r21,0r-54,168v-17,0,-30,-7,-46,-6","w":833},"\u2122":{"d":"462,-582v0,-48,-2,-66,-44,-66r-88,0r-60,294v-13,40,10,55,54,52r-3,15r-174,0r3,-15v47,1,58,-10,67,-52r60,-294r-71,0v-58,1,-70,21,-91,66r-14,0r21,-101r13,0v9,11,23,16,41,16r243,0v39,-1,46,1,64,-16r15,0r-21,101r-15,0xm579,-595v13,-47,-4,-59,-52,-57r3,-15r118,0r58,318r212,-318r105,0r-3,15v-46,-1,-54,10,-63,52r-54,268v-2,23,23,32,54,30r-3,15r-166,0r3,-15v45,0,54,-12,62,-52r53,-262r-218,329r-24,0r-59,-332r-71,253v-11,38,1,62,43,64r-3,15r-128,0r3,-15v56,-12,55,-30,73,-93","w":966}}});
