/*!
 * The following copyright notice may not be removed under any circumstances.
 * 
 * Copyright:
 * Typeface © FontSite Inc., 1996-2008. All Rights Reserved. www.fontsite.com
 * 
 * Trademark:
 * Bergamo is a trademark of FontSite Inc.
 * 
 * Designer:
 * FontSite.com
 * 
 * Vendor URL:
 * http://www.fontsite.com
 * 
 * License information:
 * http://www.fontsite.com/license.html
 */
Cufon.registerFont({"w":500,"face":{"font-family":"Bergamo Std","font-weight":700,"font-style":"italic","font-stretch":"normal","units-per-em":"1000","panose-1":"2 4 7 7 6 3 6 9 8 4","ascent":"722","descent":"-278","x-height":"11","bbox":"-221.022 -906 1255 258","underline-thickness":"50","underline-position":"-50","slope":"-11.5","unicode-range":"U+0020-U+2122"},"glyphs":{" ":{"w":250},"!":{"d":"237,-683v42,0,101,-11,100,32v0,9,-2,20,-7,34r-148,430r-37,0r40,-440v7,-47,4,-56,52,-56xm133,11v-39,0,-67,-30,-67,-70v0,-43,36,-83,78,-83v39,0,65,28,65,68v0,45,-33,85,-76,85","w":347},"\"":{"d":"326,-678v31,-1,57,23,55,54v-4,63,-28,151,-39,214r-32,0v-12,-67,-39,-138,-39,-210v0,-39,18,-58,55,-58xm176,-678v31,-1,57,23,55,54v-4,63,-28,151,-39,214r-32,0v-12,-67,-39,-138,-39,-210v0,-39,18,-58,55,-58","w":343},"#":{"d":"58,0r61,-219r-94,0r16,-55r94,0r37,-132r-94,0r15,-55r94,0r58,-206r58,0r-58,206r133,0r58,-206r59,0r-58,206r89,0r-15,55r-90,0r-36,132r89,0r-16,55r-89,0r-62,219r-58,0r61,-219r-133,0r-61,219r-58,0xm193,-274r133,0r37,-132r-133,0"},"$":{"d":"180,15v-77,-11,-143,-45,-146,-120v-1,-36,20,-60,54,-60v38,0,59,35,54,77v-5,38,9,57,45,66r50,-252v-57,-61,-114,-107,-115,-210v1,-72,36,-129,84,-159v27,-17,63,-27,110,-29r15,-77r37,0r-15,78v72,6,133,52,134,124v1,35,-22,67,-54,67v-30,0,-51,-25,-50,-55v-1,-10,5,-26,5,-40v0,-27,-14,-46,-43,-58r-48,241v51,48,86,89,106,122v20,33,30,67,30,102v1,110,-101,188,-217,185r-18,92r-36,0xm309,-638v-48,3,-94,56,-93,108v0,35,17,71,51,107xm224,-21v74,-6,122,-85,86,-159v-8,-17,-22,-37,-42,-62"},"%":{"d":"313,-550v0,94,-69,223,-151,224v-57,0,-88,-58,-88,-121v0,-97,72,-231,152,-228v59,2,87,59,87,125xm117,0r384,-667r53,0r-384,667r-53,0xm166,-352v15,0,31,-25,45,-76v22,-78,32,-138,32,-181v0,-27,-7,-40,-21,-40v-17,0,-31,20,-42,59v-11,38,-35,153,-36,194v0,29,7,44,22,44xm444,7v-57,0,-88,-57,-88,-120v0,-97,68,-228,152,-228v59,0,87,59,87,125v0,93,-69,223,-151,223xm426,-63v0,29,7,44,22,44v16,0,32,-25,46,-76v22,-78,32,-138,32,-180v0,-27,-7,-40,-22,-40v-17,0,-30,20,-42,59v-11,37,-35,152,-36,193","w":623},"&":{"d":"796,-415v-2,76,-79,123,-157,131v66,89,-8,193,-67,234v-62,43,-139,67,-235,67v-112,0,-194,-29,-246,-86v-34,-37,-52,-78,-52,-125v2,-111,94,-175,201,-192v-71,-14,-113,-49,-113,-119v0,-49,28,-90,81,-127v85,-61,271,-75,350,-9v25,21,37,43,37,66v1,30,-28,59,-58,59v-35,0,-56,-24,-64,-73v-6,-33,-30,-50,-73,-50v-81,0,-131,72,-131,158v0,60,32,77,87,68v16,-3,30,13,29,30v0,17,-15,32,-33,31r-49,-4v-74,0,-112,58,-112,138v0,111,78,174,193,174v104,0,235,-66,236,-156v1,-60,-48,-99,-110,-99v-27,0,-58,9,-60,30v0,6,4,12,12,15v23,9,35,21,35,38v0,20,-20,37,-41,37v-33,0,-63,-33,-62,-66v1,-78,91,-127,179,-127v34,0,91,12,130,16v18,1,33,-18,17,-31v-15,-12,-22,-25,-22,-38v0,-26,19,-46,45,-46v30,0,54,25,53,56","w":782},"'":{"d":"176,-678v31,-1,57,23,55,54v-4,63,-28,151,-39,214r-32,0v-12,-67,-39,-138,-39,-210v0,-39,18,-58,55,-58","w":193},"(":{"d":"224,247v-69,-96,-131,-263,-131,-414v0,-225,109,-410,328,-554r28,27v-129,106,-190,243,-228,435v-36,180,-34,346,36,489","w":384},")":{"d":"168,-721v69,98,132,261,132,414v0,223,-109,407,-328,554r-28,-28v130,-109,190,-242,228,-435v36,-182,34,-341,-37,-489","w":384},"*":{"d":"129,-271r-31,-28r100,-141r-126,-112r20,-38r165,49r69,-155r39,8r3,170r172,19r4,42r-161,54r34,168r-38,15r-104,-137"},"+":{"d":"242,-121r0,-170r-184,0r0,-60r184,0r0,-170r60,0r0,170r183,0r0,60r-183,0r0,170r-60,0"},",":{"d":"105,42v3,-40,-45,-86,-45,-120v0,-37,32,-65,69,-65v49,0,81,49,81,102v0,103,-103,204,-197,219r-16,-31v54,-11,104,-49,108,-105","w":347},"-":{"d":"37,-173r23,-113r391,0r-23,113r-391,0","w":472},".":{"d":"138,11v-39,0,-67,-30,-67,-70v0,-43,36,-83,78,-83v39,0,65,28,65,68v0,45,-33,85,-76,85","w":347},"\/":{"d":"-4,258r-94,0r441,-985r93,0","w":371},"0":{"d":"338,-682v111,0,160,117,160,244v0,153,-70,309,-152,387v-46,43,-90,66,-137,66v-107,-2,-166,-116,-163,-236v5,-172,80,-341,178,-417v37,-29,75,-44,114,-44xm378,-559v0,-41,-12,-84,-46,-84v-36,0,-66,42,-91,127v-24,80,-74,312,-74,400v0,61,16,92,47,92v19,0,36,-12,51,-38v42,-75,73,-217,93,-330v13,-74,20,-130,20,-167"},"1":{"d":"75,0r7,-36v85,-4,92,-37,109,-121r76,-374v-45,30,-100,60,-166,90r10,-48v123,-57,209,-122,256,-193r59,0r-110,538v-18,66,-4,112,68,108r-8,36r-301,0"},"2":{"d":"307,-120v50,-1,62,-12,72,-54r38,0r-36,174r-376,0r0,-37v68,-62,135,-135,202,-218v91,-112,137,-205,137,-278v0,-53,-24,-79,-73,-79v-62,0,-106,55,-124,109r-36,0v15,-74,50,-120,105,-152v32,-18,65,-27,101,-27v88,-2,165,65,165,151v0,59,-37,125,-112,198v-45,45,-121,116,-230,213r167,0"},"3":{"d":"300,-428v83,-3,128,54,128,128v0,66,-28,130,-83,193v-73,81,-154,122,-244,122v-54,0,-81,-17,-81,-51v0,-33,18,-70,48,-70v27,-6,92,62,120,62v27,0,51,-22,72,-68v21,-46,32,-98,32,-157v0,-48,-17,-87,-59,-89v-10,-1,-44,14,-63,25r10,-48r69,-55v59,-47,89,-89,89,-125v1,-30,-24,-56,-54,-55v-24,0,-58,19,-102,57r-26,-25v45,-54,98,-98,182,-98v67,0,125,38,125,100v0,41,-24,77,-73,108v-15,9,-45,25,-90,46"},"4":{"d":"34,-171r19,-102r357,-409r48,0r-84,417r110,0r-20,94r-110,0r-37,186r-122,0r38,-186r-199,0xm95,-265r157,0r49,-239"},"5":{"d":"93,15v-50,-2,-77,-11,-78,-56v-1,-31,17,-64,45,-64v18,0,44,13,77,39v18,15,35,22,50,22v58,2,115,-139,115,-201v0,-50,-26,-87,-73,-87v-19,0,-41,9,-65,28r-23,-23r91,-326v29,-8,104,-5,147,-5v58,0,75,3,90,-33r37,0r-29,146v-82,11,-161,-3,-238,7r-28,104v107,-39,202,28,202,136v0,149,-159,318,-320,313"},"6":{"d":"202,15v-103,-3,-154,-83,-154,-193v0,-115,46,-222,138,-320v92,-98,205,-159,336,-184r-7,38v-140,59,-218,140,-276,283v30,-15,57,-23,82,-23v79,-1,129,63,129,144v0,125,-124,258,-248,255xm321,-282v1,-28,-17,-49,-43,-49v-15,0,-36,9,-63,27v-31,77,-47,146,-47,208v0,81,51,92,83,39v21,-34,70,-174,70,-225"},"7":{"d":"223,-550v-79,2,-82,23,-101,95r-37,0r53,-212r380,0r1,36r-284,646r-99,0r288,-565r-201,0"},"8":{"d":"210,15v-94,0,-170,-55,-170,-144v0,-49,20,-93,61,-130v16,-15,49,-40,99,-74v-32,-40,-74,-100,-73,-160v3,-110,96,-189,213,-189v86,0,156,48,156,129v0,74,-54,133,-163,177v69,71,103,134,103,187v0,119,-105,204,-226,204xm317,-643v-79,-1,-120,111,-68,174v1,3,37,44,59,68v49,-44,80,-101,80,-158v0,-49,-25,-84,-71,-84xm224,-304v-40,38,-77,105,-77,177v-1,58,22,103,74,104v86,1,123,-119,76,-193v-15,-24,-38,-54,-73,-88"},"9":{"d":"345,-682v104,3,155,83,153,196v-4,167,-99,297,-209,382v-87,68,-177,108,-269,119r8,-38v129,-39,222,-153,276,-282v-30,15,-57,23,-81,23v-77,1,-127,-66,-127,-146v0,-123,127,-257,249,-254xm223,-378v1,39,38,57,75,36v14,-8,25,-14,33,-21v29,-76,44,-144,48,-215v1,-31,-15,-63,-42,-64v-45,0,-87,119,-101,182v-9,36,-13,64,-13,82"},":":{"d":"278,-386v0,46,-33,85,-77,85v-39,0,-66,-30,-66,-70v0,-43,36,-83,78,-83v39,0,65,28,65,68xm138,11v-39,0,-67,-30,-67,-70v0,-43,36,-83,78,-83v39,0,65,28,65,68v0,45,-33,85,-76,85","w":347},";":{"d":"277,-385v0,46,-33,85,-77,85v-39,0,-66,-30,-66,-70v0,-43,36,-83,78,-83v39,0,65,28,65,68xm121,42v3,-40,-45,-86,-45,-120v0,-37,32,-65,69,-65v49,0,81,49,81,102v0,103,-103,204,-197,219r-16,-31v54,-11,104,-49,108,-105","w":347},"<":{"d":"64,-356r0,-8r420,-264r0,56r-267,170r267,181r0,150"},"=":{"d":"58,-358r0,-60r427,0r0,60r-427,0xm58,-224r0,-60r427,0r0,60r-427,0"},">":{"d":"64,-71r0,-56r267,-171r-267,-180r0,-150r420,285r0,8"},"?":{"d":"254,-684v111,0,173,65,173,177v0,114,-61,193,-161,227v-46,17,-71,45,-76,84r-35,0v9,-176,33,-205,164,-262v39,-16,59,-36,59,-60v0,-34,-34,-53,-72,-53v-33,0,-102,27,-126,27v-30,0,-54,-24,-53,-54v1,-57,62,-86,127,-86xm141,15v-39,0,-67,-30,-67,-70v0,-43,36,-83,78,-83v39,0,65,28,65,68v0,45,-33,85,-76,85","w":460},"@":{"d":"413,122v-187,4,-347,-162,-347,-350v0,-187,159,-351,345,-351v166,0,308,130,308,292v0,97,-44,168,-133,213v-40,21,-81,31,-123,31v-41,0,-57,-12,-58,-52v0,-17,2,-36,7,-55v-42,43,-72,71,-89,85v-17,14,-31,21,-41,21v-37,0,-59,-39,-59,-84v0,-62,24,-122,74,-176v76,-82,142,-114,259,-106r-56,274v-6,28,-12,49,16,49v42,0,87,-38,110,-66v32,-39,49,-82,49,-131v0,-139,-123,-254,-264,-254v-164,0,-301,144,-301,309v0,168,139,310,306,310v71,0,137,-23,198,-69r54,0v-59,68,-150,108,-255,110xm454,-358v-90,-10,-151,89,-151,178v0,40,28,77,59,49r57,-53","w":733},"A":{"d":"115,-89v1,37,35,50,78,47r-9,42r-255,0r9,-42v35,1,62,-12,92,-38v15,-13,36,-39,65,-77r398,-526r103,0r7,560v0,73,22,81,95,81r-8,42r-337,0r9,-42v67,5,110,-15,109,-76r-2,-144r-238,0r-100,133v-11,14,-16,27,-16,40xm279,-324r189,0r-3,-244","w":774},"B":{"d":"505,-368v82,22,147,72,147,163v0,74,-50,134,-103,165v-43,27,-99,40,-166,40r-379,0r9,-42v73,-3,89,-35,104,-110r77,-380v18,-66,-15,-98,-91,-92r9,-43r338,0v85,-1,141,14,184,53v27,25,41,55,41,90v0,92,-80,137,-170,156xm541,-528v0,-72,-57,-96,-144,-94r-50,0r-45,225v71,1,158,-3,188,-28v25,-21,51,-60,51,-103xm510,-226v0,-78,-69,-127,-152,-125r-65,0r-43,207v-4,20,-6,34,-6,43v1,45,30,57,80,57v71,0,121,-22,150,-65v24,-36,36,-75,36,-117","w":704},"C":{"d":"380,15v-168,0,-313,-133,-310,-299v2,-107,52,-210,111,-268v77,-76,207,-130,355,-130v86,0,163,14,230,42r-41,170r-43,0v7,-101,-74,-167,-170,-166v-98,1,-180,56,-223,121v-45,68,-69,153,-69,255v0,131,63,226,185,226v112,0,190,-62,242,-137r43,0r-54,171r-24,0v-10,-9,-22,-14,-37,-14v-33,1,-147,29,-195,29","w":772},"D":{"d":"-4,0r9,-42v79,-1,96,-31,112,-111r77,-379v13,-58,-3,-93,-70,-92r-22,0r9,-43r360,0v214,-2,360,84,360,291v0,203,-138,336,-318,366v-137,23,-356,7,-517,10xm245,-103v2,52,31,59,91,59v57,0,102,-7,137,-19v127,-43,207,-164,207,-322v0,-88,-38,-157,-92,-195v-50,-36,-144,-45,-241,-42r-97,477v-3,17,-5,31,-5,42","w":860},"E":{"d":"324,-45v137,0,219,-40,287,-120r48,0r-59,165r-596,0r9,-42v73,-3,89,-32,104,-109r77,-381v20,-69,-13,-95,-89,-92r8,-43r593,0r-32,161r-51,0v11,-93,-40,-116,-141,-116r-134,0r-54,264r142,0v82,-2,94,-13,118,-75r43,0r-44,216r-43,0v20,-59,-1,-97,-74,-96r-151,0r-37,181v-15,58,13,87,76,87","w":708},"F":{"d":"450,-362v66,-1,95,-18,109,-70r43,0r-43,209r-43,0v18,-53,-3,-94,-67,-94r-163,0r-37,183v-15,59,2,90,63,92r36,0r-8,42r-347,0r9,-42v82,-1,99,-28,115,-109r77,-381v15,-58,-2,-92,-70,-92r-23,0r9,-43r580,0r-33,162r-41,0v11,-77,-28,-117,-117,-117r-151,0r-53,260r155,0","w":650},"G":{"d":"744,-146v-7,30,-26,84,15,87v5,0,11,-2,19,-5r-8,37v-64,19,-228,42,-308,42v-173,0,-297,-59,-357,-175v-66,-127,-9,-293,59,-370v87,-100,209,-152,370,-152v71,0,158,13,261,40r4,165r-47,0v-40,-100,-114,-160,-229,-160v-194,0,-297,173,-297,367v1,139,82,239,229,239v100,0,158,-54,157,-153v0,-28,-21,-44,-63,-49r9,-40r285,0r-8,40v-62,6,-77,29,-91,87","w":862},"H":{"d":"-8,0r9,-42v82,1,100,-30,116,-111r77,-378v19,-68,-13,-97,-88,-93r9,-43r347,0r-8,43v-74,-2,-110,21,-123,85r-34,166r328,0v12,-65,32,-125,37,-195v3,-42,-35,-59,-89,-56r9,-43r334,0r-8,43v-69,1,-102,23,-114,85r-82,405v-15,59,2,90,63,92r27,0r-9,42r-347,0r9,-42v43,2,79,-3,96,-28v34,-48,44,-169,62,-241r-328,0r-33,156v-17,68,-12,111,60,113r23,0r-9,42r-334,0","w":858},"I":{"d":"248,-134v-17,58,8,92,63,92r35,0r-8,42r-348,0r9,-42v85,1,102,-30,118,-109r77,-380v13,-58,-3,-94,-70,-93r-20,0r9,-43r338,0r-8,43v-72,-1,-99,24,-112,85","w":395},"J":{"d":"-106,111v47,0,78,69,124,70v20,0,35,-17,46,-51v8,-23,23,-121,34,-179r81,-482v15,-65,-17,-99,-91,-93r9,-43r344,0r-9,43v-72,-1,-107,20,-117,85r-77,460v-14,82,-35,145,-62,189v-55,91,-140,137,-256,137v-31,0,-56,-4,-77,-12v-21,-8,-31,-18,-31,-30v0,-17,46,-94,82,-94","w":380},"K":{"d":"0,0r9,-42v40,1,68,-11,86,-37v7,-11,14,-35,22,-74r77,-378v20,-69,-14,-97,-92,-93r9,-43r352,0r-9,43v-74,-2,-110,21,-123,85r-37,184r287,-187v27,-17,41,-33,41,-47v0,-22,-17,-34,-51,-35r9,-43r285,0r-9,43v-117,22,-126,35,-233,106r-183,121r189,261v46,60,64,87,147,94r-9,42r-202,0r-236,-324r-48,31r-32,159v-15,57,2,92,63,92r25,0r-8,42r-329,0","w":791},"L":{"d":"-4,0r9,-42v79,-1,96,-31,112,-111r77,-378v13,-57,-3,-95,-70,-93r-20,0r8,-43r354,0r-8,43v-77,-1,-114,17,-127,85r-79,389v-5,28,-8,45,-8,52v0,35,26,52,77,52v48,0,107,2,141,-9v54,-17,113,-59,145,-100r43,0r-49,155r-605,0","w":650},"M":{"d":"151,-169v-22,71,9,129,80,127r-8,42r-237,0r9,-42v78,-16,90,-52,113,-137r97,-361v18,-59,-12,-81,-88,-85r9,-42r254,0r81,492r321,-492r233,0r-8,42v-79,5,-101,24,-115,93r-78,385v-24,78,2,104,91,105r-9,42r-334,0r9,-42v77,-4,93,-33,108,-106r83,-407r-360,555r-46,0r-93,-574","w":958},"N":{"d":"165,-164v-21,73,22,118,88,122r-9,42r-233,0r8,-42v57,-1,87,-54,98,-110r85,-421v-17,-31,-47,-52,-91,-52r9,-42r177,0r359,496r69,-338v3,-13,4,-26,4,-39v-1,-55,-33,-73,-89,-77r9,-42r234,0r-9,42v-55,9,-91,50,-106,125r-102,506r-46,0r-382,-531","w":829},"O":{"d":"852,-357v0,212,-191,372,-409,372v-128,0,-226,-42,-294,-126v-46,-56,-70,-123,-70,-200v0,-94,33,-176,99,-245v80,-84,186,-126,318,-126v145,0,249,53,312,158v29,49,44,104,44,167xm707,-413v0,-126,-80,-224,-202,-223v-103,2,-173,59,-214,132v-43,75,-64,157,-64,245v0,133,74,228,203,227v97,0,171,-50,222,-150v37,-73,55,-150,55,-231","w":884},"P":{"d":"538,-496v-2,-90,-38,-128,-136,-126r-54,0r-99,488v-15,59,2,91,63,92r32,0r-9,42r-340,0r9,-42v81,-1,97,-29,113,-109r78,-381v13,-56,-4,-94,-71,-92r-22,0r9,-43r333,0v141,-2,243,60,245,189v3,164,-171,281,-347,231r8,-40v125,21,190,-89,188,-209","w":685},"Q":{"d":"555,3v31,32,146,107,200,107v27,0,51,-9,73,-27r26,37v-53,46,-111,69,-173,69v-67,0,-159,-38,-278,-115v-45,-29,-81,-57,-107,-82v-121,-42,-218,-149,-218,-300v0,-94,33,-177,100,-249v79,-84,185,-126,318,-126v203,0,357,132,357,330v0,146,-101,266,-200,318v-27,14,-61,26,-98,38xm707,-413v0,-126,-81,-225,-202,-224v-102,2,-174,59,-215,132v-43,75,-64,157,-64,245v0,134,74,228,203,228v98,0,173,-50,223,-150v37,-74,55,-152,55,-231","w":887},"R":{"d":"248,-134v-17,57,8,92,63,92r33,0r-9,42r-335,0r9,-42v76,-2,92,-34,108,-111r77,-379v15,-62,-7,-94,-77,-92r8,-43r249,0v97,1,146,3,203,35v57,32,85,78,85,135v0,99,-86,160,-173,190v31,102,64,174,101,214v40,43,79,63,136,61r-23,41v-93,3,-165,-18,-216,-61v-51,-43,-93,-120,-126,-231v-46,4,-31,4,-82,0xm509,-501v0,-97,-56,-126,-162,-120r-59,293v124,12,221,-60,221,-173","w":739},"S":{"d":"509,-181v1,115,-126,196,-250,196v-89,0,-169,-19,-238,-57r43,-170r42,0v1,107,55,178,158,180v66,1,134,-41,134,-101v0,-19,-8,-39,-25,-58v-12,-14,-46,-46,-101,-95v-53,-47,-88,-85,-107,-112v-86,-126,38,-284,174,-284v59,0,150,53,187,6r33,0r-29,193r-43,0v-7,-79,-64,-151,-144,-153v-75,-2,-139,79,-84,141v15,17,45,46,92,87v62,53,103,96,125,127v22,31,33,65,33,100","w":559},"T":{"d":"686,-667v48,-1,63,-6,77,-39r37,0r-39,191r-43,0v-9,-69,-32,-107,-116,-107r-91,0r-99,488v-15,57,2,92,63,92r28,0r-9,42r-350,0r9,-42v88,2,110,-25,127,-109r96,-471r-81,0v-102,-2,-140,42,-178,107r-43,0r39,-191r31,0v10,43,18,39,74,39r468,0","w":714},"U":{"d":"241,-163v1,79,85,124,173,124v71,0,127,-22,170,-66v38,-39,65,-101,80,-188r32,-193v5,-31,7,-49,7,-54v0,-45,-33,-73,-100,-84r8,-43r248,0r-9,43v-72,11,-93,56,-107,134v-21,110,-37,256,-75,340v-31,68,-93,126,-164,150v-31,10,-69,15,-113,15v-95,0,-168,-22,-219,-67v-41,-36,-62,-81,-62,-135v0,-107,43,-239,65,-344v13,-63,-9,-97,-81,-93r9,-43r328,0r-8,43v-71,0,-99,24,-111,85r-62,302v-6,34,-9,59,-9,74","w":803},"V":{"d":"684,-586v-1,-28,-32,-41,-65,-39r9,-42r223,0r-8,42v-25,5,-45,13,-59,23v-14,10,-39,36,-76,79r-463,538r-67,0r19,-566v0,-47,-24,-72,-71,-74r9,-42r299,0r-8,42v-66,2,-94,16,-96,76r-15,413r341,-397v19,-21,28,-39,28,-53","w":740},"W":{"d":"636,-538v11,-52,-19,-85,-66,-87r8,-42r295,0r-9,42v-31,2,-63,7,-75,23v-9,12,-16,33,-18,62r-25,388r290,-362v44,-51,43,-104,-39,-111r9,-42r249,0r-8,42v-27,3,-52,13,-74,30v-22,17,-55,53,-100,108r-406,502r-66,0r29,-471r-379,471r-68,0r36,-566v-1,-56,-25,-67,-80,-74r9,-42r310,0r-9,42v-66,-1,-95,16,-99,76r-24,396","w":1153},"X":{"d":"639,-590v-1,-27,-37,-40,-67,-34r9,-43r271,0r-9,43v-36,-1,-56,6,-95,28v-33,18,-65,44,-100,77r-148,139r134,223v32,53,54,85,65,95v19,15,39,21,68,20r-9,42r-301,0r9,-42v58,-2,61,-44,35,-86r-99,-158r-158,145v-47,38,-45,102,37,99r-9,42r-279,0r8,-42v30,0,55,-7,81,-22v25,-14,58,-41,101,-81r194,-181r-126,-208v-22,-36,-42,-60,-59,-72v-17,-12,-43,-18,-76,-18r9,-43r341,0r-9,43v-38,-2,-72,7,-73,39v0,8,5,20,15,37r78,129r143,-135v13,-13,19,-25,19,-36","w":816},"Y":{"d":"152,0r8,-42v88,2,104,-28,121,-109r25,-124r-132,-285v-21,-46,-31,-62,-89,-65r9,-42r275,0r-8,42v-55,4,-61,19,-42,60r109,236r185,-209v43,-43,25,-78,-43,-87r9,-42r215,0r-9,42v-58,25,-60,30,-130,109r-214,241r-28,141v-15,59,2,91,63,92r42,0r-9,42r-357,0","w":715},"Z":{"d":"0,0r0,-46r554,-576v-81,3,-180,-11,-241,12v-55,20,-101,67,-128,124r-42,0r38,-181r564,0r0,39r-562,582r196,0v69,-1,92,-3,135,-27v52,-29,94,-71,126,-124r45,0r-55,197r-630,0","w":715},"[":{"d":"176,149v-2,55,55,51,113,51r-8,40r-244,0r195,-957r244,0r-9,41r-29,0v-78,-4,-102,22,-114,82r-139,684v-6,30,-9,50,-9,59","w":384},"\\":{"d":"164,258r-126,-985r93,0r126,985r-93,0","w":371},"]":{"d":"217,-625v2,-55,-55,-51,-113,-51r8,-41r244,0r-195,957r-244,0r8,-41r29,0v78,5,103,-23,115,-82r139,-683v6,-29,9,-49,9,-59","w":384},"^":{"d":"-5,-280r285,-420r8,0r265,420r-57,0r-170,-267r-181,267r-150,0"},"_":{"d":"0,91r500,0r0,66r-500,0r0,-66"},"`":{"d":"281,-512r-119,-177r126,0r72,177r-79,0"},"a":{"d":"452,-91v-35,41,-97,101,-153,101v-53,0,-49,-75,-36,-131v-49,51,-85,87,-109,105v-38,29,-51,40,-86,16v-27,-19,-41,-49,-42,-94v-4,-147,152,-316,276,-343v60,-13,84,-13,142,-11r-70,344v-3,15,-5,25,-5,31v0,7,3,10,9,10v20,-7,58,-44,74,-63r0,35xm126,-160v-1,36,13,73,43,73v32,0,73,-48,103,-78r45,-218v-61,-6,-113,29,-140,67v-34,46,-51,98,-51,156","w":490},"b":{"d":"161,11v-64,0,-117,-45,-116,-108v0,-9,3,-28,9,-57r92,-450v3,-15,5,-34,-12,-33v-5,0,-15,3,-28,9r-12,-23r145,-57v16,-6,25,-9,28,-9v16,1,11,26,8,41r-74,362r39,-41v62,-63,103,-95,124,-95v18,0,34,15,48,46v79,190,-74,415,-251,415xm153,-64v0,31,12,47,37,47v28,0,54,-29,80,-87v26,-58,39,-118,39,-181v0,-61,-15,-72,-47,-45v-14,11,-52,51,-72,71r-29,144v-5,27,-8,44,-8,51","w":468},"c":{"d":"153,11v-76,1,-123,-49,-122,-125v1,-81,38,-166,77,-220v54,-77,117,-115,190,-115v38,-1,68,21,68,57v0,33,-22,57,-55,56v-21,0,-39,-10,-57,-29v-40,-42,-65,-13,-85,50v-13,45,-20,95,-20,151v0,74,23,111,70,111v39,0,76,-30,95,-58r20,16v-32,55,-102,105,-181,106","w":368},"d":{"d":"363,-600v5,-20,3,-30,-14,-32v-8,-1,-24,7,-35,10r-11,-23r165,-68v15,-7,28,-6,28,12v0,7,-1,16,-4,29r-116,568v-1,10,-8,33,4,33v11,0,28,-16,53,-49r19,16v-21,38,-106,115,-150,115v-31,0,-47,-20,-47,-61v0,-21,4,-49,13,-86v-69,97,-121,146,-157,146v-58,0,-78,-61,-78,-129v0,-110,83,-235,155,-291v54,-43,91,-55,139,-12xm151,-147v0,77,31,72,70,29v19,-21,40,-46,59,-77r24,-117v-13,-57,-32,-85,-59,-85v-28,0,-51,32,-69,96v-17,57,-25,109,-25,154","w":472},"e":{"d":"154,12v-75,2,-120,-63,-120,-142v0,-107,81,-244,170,-291v34,-19,67,-28,100,-28v51,-1,87,30,87,79v0,48,-32,88,-95,119v-41,21,-86,36,-136,47v-5,22,-7,42,-7,60v-1,54,32,91,85,91v30,0,70,-17,119,-52r14,20v-47,42,-144,95,-217,97xm293,-369v0,-24,-11,-46,-33,-46v-35,0,-67,62,-95,185v70,-17,127,-59,128,-139","w":408},"f":{"d":"-221,181v-1,-28,33,-54,61,-54v25,0,47,14,64,43v32,57,82,50,106,-10v24,-61,20,-74,40,-191r60,-358r-80,0r4,-25v22,2,71,-14,84,-24v19,-148,117,-284,258,-284v53,0,99,17,101,62v1,30,-27,56,-58,55v-23,0,-49,-16,-79,-48v-28,-30,-50,-41,-66,-1v-14,36,-31,157,-42,216r79,0r-11,49r-76,0r-56,337v-22,157,-126,299,-276,299v-55,1,-111,-20,-113,-66","w":274},"g":{"d":"54,-218v0,-116,141,-231,261,-231v44,0,92,4,144,12r0,63r-62,-9v36,63,37,125,-1,185v-38,60,-90,90,-170,120v-47,18,-63,24,-30,52v29,23,150,98,164,112v51,51,31,103,-42,134v-79,33,-257,39,-343,8v-94,-34,-69,-93,7,-140v38,-23,78,-43,120,-58v-32,-45,15,-92,61,-100v-59,-15,-109,-77,-109,-148xm170,-205v-1,48,15,98,55,98v17,0,32,-11,44,-34v21,-38,40,-127,39,-187v0,-44,-13,-87,-50,-87v-30,0,-49,40,-60,70v-19,51,-28,97,-28,140xm25,145v-1,88,146,86,223,66v37,-10,50,-26,27,-47v-7,-6,-37,-23,-88,-53v-29,-17,-53,-37,-72,-59v-60,23,-90,54,-90,93","w":469},"h":{"d":"347,-313v6,-27,6,-46,-15,-49v-25,-4,-84,72,-107,104r-40,51r-37,185v-4,20,-9,28,-31,28v-30,0,-84,11,-84,-20v0,-4,1,-13,4,-27r117,-577v0,-30,-35,-10,-51,-4r-11,-24r168,-66v25,-10,28,2,22,31r-86,419r32,-40r18,-24v63,-83,121,-124,173,-124v35,0,59,30,56,67v-9,97,-67,215,-67,310v0,8,3,12,9,12v11,0,35,-24,72,-72r21,14v-11,18,-28,40,-53,65v-42,44,-80,66,-115,66v-30,1,-57,-29,-54,-60v7,-73,42,-189,59,-265","w":535},"i":{"d":"312,-626v0,48,-32,96,-77,96v-34,0,-55,-25,-55,-60v0,-48,32,-96,76,-96v34,0,56,25,56,60xm118,11v-34,2,-59,-29,-58,-64v3,-60,62,-218,62,-297v0,-7,-4,-11,-11,-11v-10,0,-29,19,-57,58r-20,-17v65,-86,119,-129,162,-129v29,0,47,29,46,61v0,17,-4,41,-11,72r-52,219v-3,13,-5,22,-5,27v0,11,4,16,13,16v27,0,56,-34,75,-57r19,18v-34,44,-102,101,-163,104","w":301},"j":{"d":"299,-626v0,47,-34,97,-77,96v-34,0,-55,-25,-55,-60v0,-48,32,-96,76,-96v34,0,56,25,56,60xm-176,181v-2,-47,60,-72,98,-45v17,7,35,59,59,60v13,0,23,-14,33,-41v10,-27,20,-78,35,-150r72,-358v0,-5,-2,-8,-6,-8v-10,0,-30,21,-60,62r-19,-18v63,-88,118,-132,164,-132v46,0,46,48,35,100r-60,294v-25,127,-71,221,-149,275v-56,39,-198,45,-202,-39","w":301},"k":{"d":"419,-449v44,-1,79,49,79,95v0,35,-16,65,-48,89v-32,24,-77,40,-135,49r36,47v21,34,51,73,83,86r55,-54r16,17r-124,132v-49,-9,-92,-48,-130,-119v-19,-36,-41,-70,-64,-102r-38,182v-8,27,-6,33,-36,33v-28,0,-79,9,-80,-17r121,-604v0,-34,-31,-15,-53,-9r-9,-23r163,-65v18,-9,29,-5,30,13v0,5,-2,18,-7,41r-77,378v51,-53,81,-84,90,-92v54,-51,97,-77,128,-77xm366,-284v21,-29,16,-78,-21,-80v-15,0,-37,13,-65,39v-40,38,-69,70,-89,93v78,9,143,-8,175,-52","w":528},"l":{"d":"261,-90v-37,45,-100,97,-164,101v-59,4,-57,-63,-46,-119r99,-484v5,-24,6,-38,-15,-40v-12,0,-25,6,-34,11r-11,-24r168,-68v15,-7,27,-7,27,12v0,7,-1,16,-4,29r-121,597v0,9,6,20,15,20v15,0,38,-18,70,-53","w":261},"m":{"d":"615,12v-32,0,-49,-25,-46,-59v7,-95,52,-192,52,-289v0,-17,-7,-26,-22,-26v-17,0,-41,20,-70,60r-71,95r-37,184v-7,26,-3,29,-31,29v-31,0,-84,11,-83,-22v0,-8,1,-16,3,-24r51,-253v5,-21,7,-37,7,-46v0,-16,-6,-24,-19,-24v-13,0,-31,12,-53,36v-22,24,-52,64,-91,120r-37,182v-6,25,-6,31,-34,31v-29,0,-81,10,-81,-19v0,-2,1,-11,4,-27r57,-282v2,-7,8,-30,-5,-30v-4,0,-10,3,-17,10v-7,7,-20,24,-41,50r-20,-16v68,-94,124,-141,169,-141v38,0,48,38,39,78r-22,105v22,-32,50,-67,84,-104v49,-53,95,-79,137,-79v32,0,55,29,54,62v-1,20,-16,92,-22,121v85,-123,159,-184,222,-184v53,0,58,57,47,112r-41,202v-7,33,-10,53,-10,58v0,9,3,13,9,13v12,0,35,-24,69,-71r21,15v-24,39,-53,70,-85,95v-32,25,-61,38,-87,38","w":808},"n":{"d":"351,12v-28,0,-50,-30,-49,-60v0,-12,3,-30,9,-55r50,-214v6,-22,7,-42,-13,-42v-13,0,-34,17,-61,50r-81,102r-35,172v-8,30,-6,41,-37,41r-57,0v-34,2,-23,-25,-19,-46r62,-310v0,-6,-2,-9,-7,-9v-12,0,-34,23,-65,69r-21,-14v25,-39,53,-73,87,-102v34,-29,62,-43,83,-43v46,0,44,68,35,112r-15,75v89,-125,162,-187,220,-187v54,0,58,59,45,114r-63,265v0,6,3,9,8,9v20,-8,57,-49,72,-71r21,16v-22,34,-50,64,-84,90v-34,26,-62,38,-85,38","w":547},"o":{"d":"154,11v-77,-1,-118,-72,-118,-157v0,-142,149,-308,290,-303v76,3,115,73,115,158v0,118,-87,232,-186,276v-37,16,-70,26,-101,26xm218,-34v25,0,47,-25,68,-75v32,-75,46,-177,15,-255v-11,-27,-25,-40,-41,-41v-23,-1,-46,23,-68,73v-33,75,-46,182,-16,259v10,26,25,39,42,39","w":478},"p":{"d":"138,124v-17,65,9,100,86,95r-6,25r-313,0r5,-25v87,-2,101,-31,118,-116r84,-411v2,-18,3,-28,3,-31v0,-15,-5,-22,-15,-22v-16,0,-42,26,-79,77r-22,-16v74,-99,136,-149,186,-149v31,0,47,24,47,73v0,24,-5,59,-14,106v85,-119,144,-179,177,-179v20,0,38,17,55,50v39,79,30,183,-10,259v-39,74,-115,150,-221,152v-14,0,-33,-4,-56,-12xm236,-24v66,3,118,-156,118,-237v0,-54,-11,-81,-34,-81v-18,0,-56,46,-115,137r-25,124v12,34,20,55,56,57","w":514},"q":{"d":"323,163v3,53,35,51,97,56r-5,25r-318,0r5,-25v34,-1,65,-6,80,-23v14,-16,27,-45,36,-89r44,-215v-83,79,-140,119,-171,119v-40,-1,-66,-63,-64,-111v2,-83,51,-173,95,-225v79,-93,175,-124,324,-124r-115,562v-5,27,-8,44,-8,50xm125,-166v-1,39,14,81,46,81v21,0,55,-23,100,-70r48,-233v-78,6,-104,17,-141,64v-35,45,-53,98,-53,158","w":472},"r":{"d":"139,11v-30,0,-81,13,-80,-20v0,-5,1,-15,4,-30r53,-308v-1,-17,-14,-10,-22,-1v-6,6,-21,25,-47,56r-19,-16r25,-32v58,-73,102,-110,132,-110v15,0,23,14,23,41v0,51,-29,182,-43,258v1,15,12,11,16,-1v3,-7,10,-31,21,-74v21,-78,44,-134,66,-170v22,-36,47,-54,74,-54v25,0,39,21,39,48v0,47,-24,107,-76,90v-29,0,-54,30,-75,89v-23,63,-41,133,-58,208v-5,21,-8,26,-33,26","w":357},"s":{"d":"109,11v-55,0,-103,-23,-104,-71v-1,-30,28,-59,58,-58v19,0,40,11,61,32v31,31,58,47,82,47v17,1,33,-15,32,-32v6,-32,-124,-145,-127,-160v-77,-105,35,-218,148,-218v47,0,85,27,85,71v0,48,-53,75,-90,48v-18,-13,-25,-71,-59,-71v-16,0,-28,15,-28,31v0,23,22,57,66,103v29,31,48,54,57,69v9,15,14,34,14,55v0,99,-88,154,-195,154","w":369},"t":{"d":"101,11v-35,2,-59,-28,-58,-65v0,-5,3,-26,10,-61r55,-273r-52,0r5,-27v66,-19,130,-75,193,-166r29,0v-19,41,-35,87,-50,140r86,0r-11,53r-85,0r-57,279v-4,21,-6,32,-6,35v0,10,11,23,21,22v15,0,43,-21,84,-63r18,19v-44,49,-108,103,-182,107","w":309},"u":{"d":"331,11v-21,0,-38,-22,-36,-44v5,-49,24,-130,34,-182v-26,41,-63,88,-111,141v-51,57,-91,85,-119,85v-25,0,-38,-17,-38,-51v0,-13,3,-34,9,-62r50,-252v0,-9,-3,-13,-8,-13v-7,0,-26,21,-57,63r-20,-15v33,-46,63,-79,88,-99v25,-20,50,-31,74,-31v26,0,48,24,45,52v-9,85,-51,188,-51,275v0,11,4,17,11,17v6,0,18,-11,37,-31v36,-40,85,-105,104,-159v10,-28,18,-68,28,-118v5,-27,4,-30,33,-30v30,0,81,-13,80,21v0,4,-1,11,-2,20r-63,311v0,6,2,9,7,9v18,-8,52,-42,69,-62r18,17v-29,35,-62,67,-99,95v-37,28,-65,43,-83,43","w":538},"v":{"d":"391,-449v44,0,69,34,68,80v0,73,-55,161,-164,263v-84,78,-144,117,-179,117v-56,-1,-49,-69,-39,-128r37,-221v1,-9,6,-29,-4,-29v-9,0,-28,20,-57,61r-20,-15v61,-85,113,-128,155,-128v45,0,53,37,45,87r-39,230v-5,29,-8,47,-8,54v0,11,4,16,13,16v11,0,32,-18,64,-55v38,-43,92,-127,92,-191v0,-22,-6,-24,-23,-31v-16,-5,-24,-16,-24,-31v-2,-40,42,-79,83,-79","w":462},"w":{"d":"369,11v-38,0,-54,-32,-54,-73v0,-12,10,-84,17,-124v-17,28,-46,66,-88,113v-51,57,-95,85,-130,85v-31,0,-47,-17,-47,-52v0,-7,3,-28,8,-62r42,-253v0,-7,-3,-10,-8,-10v-7,0,-25,23,-56,68r-21,-15v10,-15,26,-38,49,-67v38,-47,74,-70,107,-70v48,0,52,45,43,98r-38,226v-1,14,-10,41,9,41v11,0,31,-18,62,-53v31,-35,57,-72,78,-109r26,-153v8,-35,1,-44,34,-44v30,0,89,-11,84,19r-56,341v0,14,6,21,17,21v28,0,64,-31,107,-92v43,-61,64,-111,64,-150v0,-17,-7,-28,-20,-35v-18,-10,-28,-11,-29,-31v-3,-38,47,-80,85,-80v39,0,68,37,68,78v0,74,-60,166,-179,276v-77,71,-135,107,-174,107","w":719},"x":{"d":"59,11v-28,0,-41,-23,-41,-53v0,-34,10,-69,31,-104r22,0v7,26,21,39,43,39v37,0,73,-27,108,-81v-14,-25,-48,-109,-59,-135v-26,-59,-49,-51,-78,4r-22,-9v21,-43,41,-73,60,-92v49,-48,103,-35,135,32v2,4,15,37,40,98v68,-106,121,-159,159,-159v29,0,52,37,52,69v0,21,-5,43,-15,64r-25,0v-9,-19,-23,-28,-44,-28v-41,0,-79,27,-114,81v17,45,36,93,60,141v27,56,53,34,78,-24r24,13v-21,51,-42,88,-60,110v-29,36,-76,44,-109,13v-23,-22,-56,-122,-71,-150r-34,48v-58,82,-105,123,-140,123","w":536},"y":{"d":"404,-449v35,0,64,27,63,62v0,17,-5,36,-15,57v-21,46,-143,241,-162,281v-16,33,-44,91,-81,175v-17,37,-25,60,-25,67v-2,23,26,28,54,26r-5,25r-275,0r5,-25v76,1,86,-22,116,-82v44,-87,66,-139,66,-250v0,-73,-5,-133,-15,-181v-20,-93,-48,-90,-92,-24r-22,-14v21,-35,44,-64,70,-85v59,-45,109,-49,137,33v29,84,36,235,25,365v32,-63,58,-123,78,-179v20,-56,30,-95,30,-120v0,-22,-25,-37,-25,-65v0,-36,37,-66,73,-66","w":492},"z":{"d":"62,-35v0,25,-3,47,-27,46v-18,0,-27,-10,-27,-31v0,-53,31,-98,92,-137v41,-26,154,-84,221,-116v73,-36,117,-70,132,-103v-72,38,-133,57,-183,57v-30,0,-58,-8,-85,-25v-46,-29,-67,-27,-106,9r-20,-17v51,-65,101,-97,152,-97v25,0,54,9,85,28v42,24,75,36,99,36v27,0,41,-10,46,-30v6,-22,6,-34,27,-34v17,0,26,10,26,30v0,39,-24,78,-70,117v-46,39,-120,82,-223,129v-53,25,-88,42,-105,53v-17,11,-31,25,-40,41v74,-29,132,-43,175,-43v36,0,123,42,155,42v22,0,47,-21,56,-38r21,15v-25,54,-99,114,-161,114v-31,0,-67,-13,-110,-39v-40,-24,-72,-36,-96,-36v-23,0,-34,10,-34,29","w":505},"{":{"d":"186,118v0,61,28,86,95,85r-8,37v-113,2,-199,-8,-199,-111v0,-84,53,-244,53,-308v0,-48,-21,-56,-68,-63r6,-31v59,3,92,-35,103,-89v18,-91,34,-219,72,-285v21,-36,60,-62,113,-67v18,-2,74,-3,115,-3r-8,37v-109,10,-121,42,-146,145v-19,77,-25,184,-68,233v-17,19,-44,34,-80,43r-1,4v70,14,77,77,61,152v-15,72,-40,141,-40,221","w":384},"|":{"d":"230,167r0,-834r87,0r0,834r-87,0"},"}":{"d":"212,-607v-4,-56,-34,-68,-100,-73r8,-37v51,1,134,2,158,15v25,13,47,46,44,83v-6,76,-28,170,-46,242v-15,63,-6,104,66,104r-7,31v-39,5,-64,18,-79,38v-23,31,-51,187,-66,261v-18,86,-40,131,-106,163v-48,23,-74,16,-159,20r7,-37v96,0,127,-56,148,-147v20,-87,29,-208,74,-265v19,-23,46,-39,81,-46r1,-4v-68,-17,-80,-61,-66,-130r30,-146v8,-41,12,-65,12,-72","w":384},"~":{"d":"423,-614v-25,2,-139,-43,-166,-41v-41,3,-53,25,-80,49r-20,-12v40,-72,85,-108,134,-108v27,0,130,40,162,40v31,0,59,-16,84,-48r20,13v-28,53,-69,102,-134,107","w":667},"\u00a0":{"w":250},"\u00a1":{"d":"289,-415v0,43,-36,83,-78,83v-38,0,-65,-29,-65,-68v0,-45,33,-85,76,-85v39,0,67,30,67,70xm119,209v-42,0,-102,12,-101,-32v0,-7,3,-18,8,-34r148,-430r36,0r-40,439v-7,46,-4,57,-51,57","w":347},"\u00a2":{"d":"211,12v-75,1,-123,-49,-122,-125v1,-97,55,-203,108,-259v43,-47,94,-73,151,-77r56,-189r31,0r-57,191v31,7,46,26,46,55v0,41,-37,67,-78,52r-85,285v49,10,88,-27,111,-56r20,16v-25,46,-91,96,-150,104r-61,207r-31,0xm321,-357v-13,-9,-18,-27,-41,-27v-22,0,-40,23,-53,69v-20,65,-37,199,8,246"},"\u00a3":{"d":"498,-134v0,81,-71,150,-152,150v-100,0,-155,-62,-227,-100v-27,37,-50,64,-67,78v-17,14,-35,21,-53,21v-25,0,-38,-13,-38,-39v0,-65,70,-106,135,-119v11,-32,25,-74,40,-126r-115,0r6,-38r119,0v27,-108,50,-179,67,-215v37,-77,140,-160,242,-162v52,-1,102,28,102,75v1,31,-20,55,-50,54v-42,-2,-55,-26,-73,-62v-19,-38,-47,-32,-66,5v-11,20,-25,56,-41,109v-17,59,-44,124,-79,196r144,0r-5,38r-158,0r-7,14v-29,57,-26,58,-60,109v75,8,97,28,161,71v37,25,61,38,73,38v12,0,22,-13,22,-25v5,-10,-39,-64,-39,-92v0,-31,26,-54,58,-53v39,0,61,31,61,73"},"\u00a4":{"d":"77,-106r-29,-30r67,-66v-63,-72,-63,-189,0,-260r-67,-67r29,-29r67,66v72,-61,190,-61,260,0r67,-66r29,29r-67,67v63,70,62,189,0,260r67,66r-29,30r-67,-67v-71,61,-191,61,-260,0xm150,-332v0,65,57,123,122,123v68,0,126,-55,126,-122v0,-68,-56,-125,-124,-125v-67,0,-124,57,-124,124"},"\u00a5":{"d":"55,0r7,-35v76,0,94,-35,108,-109r26,-131r-15,-77r-143,0r8,-38r127,0r-16,-79r-95,0r8,-38r79,0v-9,-68,-39,-124,-93,-124r8,-36r249,0r-8,36v-41,10,-41,23,-33,66r11,58r132,0v11,-19,38,-60,37,-77v0,-23,-17,-38,-51,-47r8,-36r191,0r-7,36v-59,36,-92,64,-123,124r85,0r-8,38r-101,0r-48,79r133,0r-8,38r-148,0r-47,77r-30,148v-15,55,2,93,63,92r28,0r-7,35r-327,0xm317,-337r76,-132r-102,0"},"\u00a6":{"d":"230,-318r0,-349r87,0r0,349r-87,0xm230,-153r87,0r0,320r-87,0r0,-320"},"\u00a7":{"d":"429,-647v-65,-53,-125,33,-125,112v0,31,7,67,22,108v5,13,26,62,63,145v25,55,38,104,38,145v0,91,-40,178,-120,260v-81,84,-164,126,-249,126v-77,0,-116,-21,-116,-63v0,-30,23,-51,52,-53v15,-1,35,7,59,23v29,19,53,28,74,28v62,-1,95,-54,93,-121v-3,-98,-20,-107,-64,-208v-80,-184,-74,-294,44,-440v74,-92,159,-137,252,-137v56,-1,112,20,115,66v1,27,-26,54,-54,53v-23,0,-50,-16,-84,-44xm279,73v48,-62,75,-92,78,-181v0,-27,-5,-54,-13,-80v-8,-26,-29,-71,-58,-140v-38,-89,-54,-138,-44,-222v-66,89,-89,176,-53,284v5,15,18,47,38,97v26,65,42,109,47,129v7,26,11,78,5,113"},"\u00a8":{"d":"495,-601v0,34,-28,63,-62,63v-34,0,-63,-29,-63,-63v0,-33,30,-62,63,-62v32,0,62,30,62,62xm285,-601v0,34,-28,63,-62,63v-34,0,-63,-29,-63,-63v0,-33,30,-62,63,-62v32,0,62,30,62,62"},"\u00a9":{"d":"417,17v-184,0,-347,-165,-347,-350v0,-188,164,-351,353,-351v191,0,352,162,352,353v0,190,-166,348,-358,348xm423,-638v-163,0,-302,141,-302,305v0,159,139,304,297,304v165,0,306,-138,306,-302v0,-165,-138,-307,-301,-307xm429,-159v-105,0,-203,-73,-203,-173v0,-103,106,-176,215,-176v31,0,74,12,106,22v3,0,6,-2,9,-6r19,0r5,99r-28,0v-17,-55,-53,-82,-107,-82v-77,-1,-130,58,-130,137v0,79,59,147,136,147v52,0,90,-25,113,-76r28,0v-4,34,-15,68,-33,103v-41,-14,-82,5,-130,5","w":798},"\u00aa":{"d":"357,-465v-23,26,-61,60,-98,63v-30,2,-34,-36,-27,-72v-49,49,-81,73,-95,73v-27,0,-50,-36,-49,-66v3,-113,125,-233,250,-212v5,0,9,0,13,-1r-43,207v-1,6,-5,18,1,21v7,0,23,-14,47,-42xm156,-507v0,20,7,40,24,41v9,0,28,-15,59,-44r25,-125v-64,-3,-109,63,-108,128xm41,-310r9,-44r275,0r-9,44r-275,0","w":320},"\u00ab":{"d":"133,-45r-104,-194r198,-195r35,0r-113,195r15,194r-31,0xm332,-58r-80,-182r166,-184r35,0r-84,184r-6,182r-31,0","w":460},"\u00ac":{"d":"55,-205r0,-61r437,0r0,266r-143,0r0,-205r-294,0"},"\u00ad":{"d":"37,-173r23,-113r391,0r-23,113r-391,0","w":472},"\u00ae":{"d":"417,17v-184,0,-347,-165,-347,-350v0,-188,164,-351,353,-351v191,0,352,162,352,353v0,190,-166,348,-358,348xm423,-638v-163,0,-302,141,-302,305v0,159,139,304,297,304v165,0,306,-138,306,-302v0,-165,-138,-307,-301,-307xm358,-236v-3,43,19,42,60,42r0,27r-200,0r0,-27v40,0,57,-1,57,-42r0,-195v1,-41,-15,-42,-56,-42r0,-27v70,-6,125,-9,166,-9v69,0,118,9,145,29v25,18,37,42,37,70v-1,46,-37,78,-78,88v16,11,81,102,107,118v14,9,31,15,51,16r0,26v-71,3,-123,-3,-155,-34v-15,-14,-71,-91,-95,-110r-39,0r0,70xm358,-333v38,-1,63,-4,76,-9v29,-11,44,-32,44,-65v0,-55,-51,-81,-120,-72r0,146","w":798},"\u00af":{"d":"151,-561r17,-82r338,0r-17,82r-338,0"},"\u00b0":{"d":"335,-570v0,59,-52,111,-111,111v-60,0,-112,-51,-112,-112v0,-60,51,-110,112,-110v60,0,111,51,111,111xm157,-571v0,35,31,66,67,66v35,0,66,-31,66,-65v0,-36,-31,-67,-67,-67v-35,0,-66,31,-66,66","w":304},"\u00b1":{"d":"214,-121r0,-170r-184,0r0,-60r184,0r0,-170r60,0r0,170r183,0r0,60r-183,0r0,170r-60,0xm30,-11r0,-60r427,0r0,60r-427,0"},"\u00b2":{"d":"241,-469v29,-1,34,-7,40,-32r30,0r-23,109r-237,0r0,-26v43,-39,85,-82,124,-129v55,-65,82,-119,82,-162v0,-29,-14,-44,-42,-44v-38,1,-62,32,-74,64r-28,0v14,-70,57,-108,130,-112v55,-3,106,40,105,93v0,36,-24,75,-69,118v-36,35,-80,76,-133,121r95,0","w":334},"\u00b3":{"d":"317,-571v0,89,-113,188,-204,188v-35,0,-53,-11,-53,-33v-1,-22,13,-45,33,-45v16,-4,59,38,74,36v36,-3,61,-78,59,-126v-2,-60,-33,-63,-76,-35r7,-36v32,-24,96,-69,96,-104v0,-17,-14,-30,-31,-30v-13,0,-34,12,-62,35r-20,-18v36,-39,56,-60,117,-62v42,-1,80,23,80,62v0,49,-41,65,-89,88v46,8,69,35,69,80","w":334},"\u00b4":{"d":"267,-514r71,-175r125,0r-117,175r-79,0"},"\u00b5":{"d":"163,15v-62,-1,-79,-29,-91,-85v-19,73,-7,112,-5,188v1,42,-27,77,-67,77v-27,0,-50,-16,-50,-41v0,-12,8,-38,23,-78v68,-166,100,-339,138,-526r116,0r-58,280v-6,27,-9,51,-9,73v-1,32,19,55,49,55v30,0,65,-20,105,-61r71,-347r115,0r-66,322v-8,40,-19,79,25,81v6,0,16,-2,29,-6r-4,18r-130,47v-35,1,-39,-38,-41,-74v-37,31,-66,52,-85,62v-19,10,-40,15,-65,15","w":538},"\u00b6":{"d":"379,152v2,37,26,44,68,46r-9,42r-365,0r9,-42v85,-8,86,-30,103,-115r72,-355v-115,11,-183,-55,-182,-166v1,-106,59,-201,130,-242v37,-21,82,-33,136,-33r291,0r-9,42v-85,8,-86,30,-103,115r-130,639v-7,35,-11,58,-11,69xm235,187r63,0r173,-847r-64,0","w":536},"\u00b7":{"d":"284,-356v0,44,-38,83,-82,83v-46,0,-83,-39,-83,-84v0,-43,39,-81,83,-81v44,0,82,38,82,82","w":347},"\u00b8":{"d":"157,90r37,-83r30,0r-11,22v74,15,86,87,47,143v-34,49,-97,74,-179,75r6,-28v54,-1,109,-33,110,-83v0,-25,-13,-41,-40,-46"},"\u00b9":{"d":"94,-392r6,-28v50,0,55,-20,65,-68r44,-215v-30,19,-64,36,-101,52r7,-35v77,-35,130,-74,158,-116r41,0r-65,322v-11,40,-1,62,43,60r-6,28r-192,0","w":334},"\u00ba":{"d":"353,-583v0,93,-94,184,-179,182v-49,0,-76,-44,-76,-97v0,-87,94,-185,181,-182v47,2,74,45,74,97xm181,-514v-1,34,9,80,34,80v13,0,25,-14,37,-43v17,-43,27,-101,8,-145v-18,-43,-43,-26,-61,18v-12,29,-18,59,-18,90xm41,-310r9,-44r275,0r-9,44r-275,0","w":320},"\u00bb":{"d":"193,-46r114,-194r-12,-193r31,0r104,193r-197,194r-40,0xm5,-57r83,-183r9,-183r29,0r79,183r-161,183r-39,0","w":460},"\u00bc":{"d":"94,-266r6,-28v50,0,55,-20,65,-68r44,-215v-30,19,-64,36,-101,52r7,-35v77,-35,130,-74,158,-116r41,0r-65,322v-11,40,-1,62,43,60r-6,28r-192,0xm213,0r384,-667r65,0r-384,667r-65,0xm480,-101r12,-64r219,-244r35,0r-50,246r68,0r-13,62r-68,0r-22,110r-81,0r22,-110r-122,0xm528,-163r87,0r25,-127","w":800},"\u00bd":{"d":"94,-266r6,-28v50,0,55,-20,65,-68r44,-215v-30,19,-64,36,-101,52r7,-35v77,-35,130,-74,158,-116r41,0r-65,322v-11,40,-1,62,43,60r-6,28r-192,0xm200,0r384,-667r64,0r-383,667r-65,0xm653,-77v29,-1,34,-7,40,-32r30,0r-23,109r-237,0r0,-26v43,-39,85,-82,124,-129v55,-65,82,-119,82,-162v0,-29,-14,-44,-42,-44v-38,1,-62,32,-74,64r-28,0v14,-70,57,-108,130,-112v55,-3,106,40,105,93v0,36,-23,75,-69,118r-133,121r95,0","w":800},"\u00be":{"d":"317,-446v0,89,-113,188,-204,188v-35,0,-53,-11,-53,-33v-1,-22,13,-45,33,-45v16,-4,59,38,74,36v36,-3,61,-78,59,-126v-2,-60,-33,-63,-76,-35r7,-36v32,-24,96,-69,96,-104v0,-17,-14,-30,-31,-30v-13,0,-34,12,-62,35r-20,-18v36,-39,56,-60,117,-62v42,-1,80,23,80,62v0,49,-41,65,-89,88v46,8,69,35,69,80xm210,0r384,-667r64,0r-383,667r-65,0xm480,-101r12,-64r219,-244r35,0r-50,246r68,0r-13,62r-68,0r-22,110r-81,0r22,-110r-122,0xm528,-163r87,0r26,-127","w":800},"\u00bf":{"d":"383,-415v0,43,-36,83,-78,83v-38,0,-65,-29,-65,-68v0,-46,33,-85,77,-85v39,0,66,30,66,70xm204,209v-111,0,-173,-65,-173,-177v0,-116,62,-191,161,-227v43,-16,69,-36,75,-83r35,0v-9,176,-32,205,-163,262v-39,16,-59,36,-59,60v0,34,34,53,72,53v32,0,102,-28,126,-28v30,0,54,24,53,54v-1,57,-62,86,-127,86","w":460},"\u00c0":{"d":"489,-739r-204,-161r187,0r105,161r-88,0xm115,-89v1,37,35,50,78,47r-9,42r-255,0r9,-42v35,1,62,-12,92,-38v15,-13,36,-39,65,-77r398,-526r103,0r7,560v0,73,22,81,95,81r-8,42r-337,0r9,-42v67,5,110,-15,109,-76r-2,-144r-238,0r-100,133v-11,14,-16,27,-16,40xm279,-324r189,0r-3,-244","w":774},"\u00c1":{"d":"482,-738r106,-162r189,0r-206,162r-89,0xm115,-89v1,37,35,50,78,47r-9,42r-255,0r9,-42v35,1,62,-12,92,-38v15,-13,36,-39,65,-77r398,-526r103,0r7,560v0,73,22,81,95,81r-8,42r-337,0r9,-42v67,5,110,-15,109,-76r-2,-144r-238,0r-100,133v-11,14,-16,27,-16,40xm279,-324r189,0r-3,-244","w":774},"\u00c2":{"d":"335,-747r179,-159r161,0r60,159r-72,0r-80,-81r-158,81r-90,0xm115,-89v1,37,35,50,78,47r-9,42r-255,0r9,-42v35,1,62,-12,92,-38v15,-13,36,-39,65,-77r398,-526r103,0r7,560v0,73,22,81,95,81r-8,42r-337,0r9,-42v67,5,110,-15,109,-76r-2,-144r-238,0r-100,133v-11,14,-16,27,-16,40xm279,-324r189,0r-3,-244","w":774},"\u00c3":{"d":"444,-792v-29,2,-48,26,-51,54r-81,0v1,-71,21,-101,60,-132v23,-18,48,-26,74,-26v34,0,184,54,210,54v26,0,42,-17,49,-51r81,0v4,82,-60,159,-139,157v-24,6,-183,-58,-203,-56xm115,-89v1,37,35,50,78,47r-9,42r-255,0r9,-42v35,1,62,-12,92,-38v15,-13,36,-39,65,-77r398,-526r103,0r7,560v0,73,22,81,95,81r-8,42r-337,0r9,-42v67,5,110,-15,109,-76r-2,-144r-238,0r-100,133v-11,14,-16,27,-16,40xm279,-324r189,0r-3,-244","w":774},"\u00c4":{"d":"761,-805v0,36,-32,68,-67,68v-37,0,-68,-31,-68,-68v0,-36,32,-67,67,-67v36,0,68,31,68,67xm466,-805v0,36,-31,68,-67,68v-38,0,-68,-30,-68,-68v0,-36,32,-67,68,-67v36,0,67,31,67,67xm115,-89v1,37,35,50,78,47r-9,42r-255,0r9,-42v35,1,62,-12,92,-38v15,-13,36,-39,65,-77r398,-526r103,0r7,560v0,73,22,81,95,81r-8,42r-337,0r9,-42v67,5,110,-15,109,-76r-2,-144r-238,0r-100,133v-11,14,-16,27,-16,40xm279,-324r189,0r-3,-244","w":774},"\u00c5":{"d":"115,-89v1,37,35,50,78,47r-9,42r-255,0r9,-42v35,1,62,-12,92,-38v13,-11,35,-37,65,-77r379,-502v-38,-23,-57,-57,-57,-101v0,-69,59,-129,128,-129v69,0,129,59,127,128v-1,55,-35,97,-76,116r7,522v0,73,22,81,95,81r-8,42r-337,0r9,-42v67,5,110,-15,109,-76r-2,-144r-238,0r-100,133v-11,14,-16,27,-16,40xm475,-763v0,39,32,71,70,71v38,0,70,-32,70,-70v0,-38,-32,-70,-70,-70v-37,0,-70,32,-70,69xm279,-324r189,0r-3,-244","w":774},"\u00c6":{"d":"117,-83v1,31,31,44,68,41r-8,42r-247,0r8,-42v79,-13,118,-59,168,-122r328,-411v7,-9,11,-18,11,-27v0,-23,-11,-22,-46,-22r-30,0r9,-43r647,0r-33,161r-51,0v14,-86,-41,-116,-137,-116r-140,0r-53,263r141,0v75,-1,100,-17,119,-74r44,0r-44,214r-44,0v22,-62,-1,-95,-78,-95r-147,0r-37,180v-14,54,6,88,68,88v132,0,207,-29,294,-118r49,0r-58,164r-596,0r9,-42v69,-4,88,-33,103,-109r21,-106r-217,0r-92,114v-19,25,-29,45,-29,60xm274,-302r190,0r66,-322","w":1025},"\u00c7":{"d":"219,-262v0,131,67,228,187,228v107,0,188,-62,241,-137r43,0r-54,171r-24,0v-10,-9,-22,-14,-37,-14v-30,0,-143,33,-187,29r-7,28v45,4,80,32,80,78v0,38,-19,68,-59,91v-44,26,-109,38,-182,34r9,-37v38,1,69,-5,93,-15v24,-10,35,-24,35,-41v0,-18,-15,-29,-44,-34r31,-106v-148,-11,-276,-140,-274,-297v1,-107,53,-209,111,-268v76,-78,206,-130,355,-130v86,0,163,14,230,42r-41,170r-43,0v7,-95,-68,-169,-169,-166v-99,3,-180,56,-224,121v-46,67,-70,151,-70,253","w":772},"\u00c8":{"d":"423,-739r-204,-161r187,0r105,161r-88,0xm324,-45v137,0,219,-40,287,-120r48,0r-59,165r-596,0r9,-42v73,-3,89,-32,104,-109r77,-381v20,-69,-13,-95,-89,-92r8,-43r593,0r-32,161r-51,0v11,-93,-40,-116,-141,-116r-134,0r-54,264r142,0v82,-2,94,-13,118,-75r43,0r-44,216r-43,0v20,-59,-1,-97,-74,-96r-151,0r-37,181v-15,58,13,87,76,87","w":708},"\u00c9":{"d":"397,-738r106,-162r189,0r-206,162r-89,0xm324,-45v137,0,219,-40,287,-120r48,0r-59,165r-596,0r9,-42v73,-3,89,-32,104,-109r77,-381v20,-69,-13,-95,-89,-92r8,-43r593,0r-32,161r-51,0v11,-93,-40,-116,-141,-116r-134,0r-54,264r142,0v82,-2,94,-13,118,-75r43,0r-44,216r-43,0v20,-59,-1,-97,-74,-96r-151,0r-37,181v-15,58,13,87,76,87","w":708},"\u00ca":{"d":"243,-747r179,-159r161,0r60,159r-72,0r-80,-81r-158,81r-90,0xm324,-45v137,0,219,-40,287,-120r48,0r-59,165r-596,0r9,-42v73,-3,89,-32,104,-109r77,-381v20,-69,-13,-95,-89,-92r8,-43r593,0r-32,161r-51,0v11,-93,-40,-116,-141,-116r-134,0r-54,264r142,0v82,-2,94,-13,118,-75r43,0r-44,216r-43,0v20,-59,-1,-97,-74,-96r-151,0r-37,181v-15,58,13,87,76,87","w":708},"\u00cb":{"d":"669,-805v0,36,-32,68,-67,68v-37,0,-68,-31,-68,-68v0,-36,32,-67,67,-67v36,0,68,31,68,67xm374,-805v0,36,-31,68,-67,68v-38,0,-68,-30,-68,-68v0,-36,32,-67,68,-67v36,0,67,31,67,67xm324,-45v137,0,219,-40,287,-120r48,0r-59,165r-596,0r9,-42v73,-3,89,-32,104,-109r77,-381v20,-69,-13,-95,-89,-92r8,-43r593,0r-32,161r-51,0v11,-93,-40,-116,-141,-116r-134,0r-54,264r142,0v82,-2,94,-13,118,-75r43,0r-44,216r-43,0v20,-59,-1,-97,-74,-96r-151,0r-37,181v-15,58,13,87,76,87","w":708},"\u00cc":{"d":"266,-739r-204,-161r187,0r105,161r-88,0xm248,-134v-17,58,8,92,63,92r35,0r-8,42r-348,0r9,-42v85,1,102,-30,118,-109r77,-380v13,-58,-3,-94,-70,-93r-20,0r9,-43r338,0r-8,43v-72,-1,-99,24,-112,85","w":395},"\u00cd":{"d":"240,-738r106,-162r189,0r-206,162r-89,0xm248,-134v-17,58,8,92,63,92r35,0r-8,42r-348,0r9,-42v85,1,102,-30,118,-109r77,-380v13,-58,-3,-94,-70,-93r-20,0r9,-43r338,0r-8,43v-72,-1,-99,24,-112,85","w":395},"\u00ce":{"d":"106,-747r179,-159r161,0r60,159r-72,0r-80,-81r-158,81r-90,0xm248,-134v-17,58,8,92,63,92r35,0r-8,42r-348,0r9,-42v85,1,102,-30,118,-109r77,-380v13,-58,-3,-94,-70,-93r-20,0r9,-43r338,0r-8,43v-72,-1,-99,24,-112,85","w":395},"\u00cf":{"d":"486,-805v0,36,-32,68,-67,68v-38,0,-68,-30,-68,-68v0,-36,32,-67,67,-67v36,0,68,31,68,67xm264,-805v0,36,-31,68,-67,68v-38,0,-68,-30,-68,-68v0,-36,32,-67,68,-67v36,0,67,31,67,67xm248,-134v-17,58,8,92,63,92r35,0r-8,42r-348,0r9,-42v85,1,102,-30,118,-109r77,-380v13,-58,-3,-94,-70,-93r-20,0r9,-43r338,0r-8,43v-72,-1,-99,24,-112,85","w":395},"\u00d0":{"d":"-4,0r9,-42v79,-1,96,-31,112,-110r32,-160r-87,0r9,-47r88,0r35,-173v13,-58,-3,-93,-70,-92r-22,0r9,-43r360,0v153,2,267,39,323,140v56,102,44,250,-17,345v-54,84,-148,154,-264,172v-137,21,-356,7,-517,10xm245,-103v0,52,31,59,91,59v57,0,102,-7,136,-19v130,-43,208,-164,208,-322v0,-160,-94,-240,-270,-237r-63,0r-53,263r180,0r-10,47r-179,0v-13,69,-40,135,-40,209","w":860},"\u00d1":{"d":"431,-792v-29,2,-48,26,-51,54r-81,0v1,-71,21,-101,60,-132v23,-18,48,-26,74,-26v34,0,184,54,210,54v26,0,42,-17,49,-51r81,0v4,82,-60,159,-139,157v-24,6,-183,-58,-203,-56xm165,-164v-21,73,22,118,88,122r-9,42r-233,0r8,-42v57,-1,87,-54,98,-110r85,-421v-17,-31,-47,-52,-91,-52r9,-42r177,0r359,496r69,-338v3,-13,4,-26,4,-39v-1,-55,-33,-73,-89,-77r9,-42r234,0r-9,42v-55,9,-91,50,-106,125r-102,506r-46,0r-382,-531","w":829},"\u00d2":{"d":"510,-739r-204,-161r187,0r105,161r-88,0xm852,-357v0,212,-191,372,-409,372v-128,0,-226,-42,-294,-126v-46,-56,-70,-123,-70,-200v0,-94,33,-176,99,-245v80,-84,186,-126,318,-126v145,0,249,53,312,158v29,49,44,104,44,167xm707,-413v0,-126,-80,-224,-202,-223v-103,2,-173,59,-214,132v-43,75,-64,157,-64,245v0,133,74,228,203,227v97,0,171,-50,222,-150v37,-73,55,-150,55,-231","w":884},"\u00d3":{"d":"478,-738r106,-162r189,0r-206,162r-89,0xm852,-357v0,212,-191,372,-409,372v-128,0,-226,-42,-294,-126v-46,-56,-70,-123,-70,-200v0,-94,33,-176,99,-245v80,-84,186,-126,318,-126v145,0,249,53,312,158v29,49,44,104,44,167xm707,-413v0,-126,-80,-224,-202,-223v-103,2,-173,59,-214,132v-43,75,-64,157,-64,245v0,133,74,228,203,227v97,0,171,-50,222,-150v37,-73,55,-150,55,-231","w":884},"\u00d4":{"d":"350,-747r179,-159r161,0r60,159r-72,0r-80,-81r-158,81r-90,0xm852,-357v0,212,-191,372,-409,372v-128,0,-226,-42,-294,-126v-46,-56,-70,-123,-70,-200v0,-94,33,-176,99,-245v80,-84,186,-126,318,-126v145,0,249,53,312,158v29,49,44,104,44,167xm707,-413v0,-126,-80,-224,-202,-223v-103,2,-173,59,-214,132v-43,75,-64,157,-64,245v0,133,74,228,203,227v97,0,171,-50,222,-150v37,-73,55,-150,55,-231","w":884},"\u00d5":{"d":"499,-789v-45,-23,-88,0,-93,44r-69,0v1,-82,50,-145,130,-145v54,0,111,54,172,54v29,0,48,-17,57,-51r68,0v0,92,-76,169,-174,137v-14,-5,-46,-16,-91,-39xm852,-357v0,212,-191,372,-409,372v-128,0,-226,-42,-294,-126v-46,-56,-70,-123,-70,-200v0,-94,33,-176,99,-245v80,-84,186,-126,318,-126v145,0,249,53,312,158v29,49,44,104,44,167xm707,-413v0,-126,-80,-224,-202,-223v-103,2,-173,59,-214,132v-43,75,-64,157,-64,245v0,133,74,228,203,227v97,0,171,-50,222,-150v37,-73,55,-150,55,-231","w":884},"\u00d6":{"d":"763,-805v0,36,-32,68,-67,68v-37,0,-68,-31,-68,-68v0,-36,32,-67,67,-67v36,0,68,31,68,67xm468,-805v0,36,-31,68,-67,68v-38,0,-68,-30,-68,-68v0,-36,32,-67,68,-67v36,0,67,31,67,67xm852,-357v0,212,-191,372,-409,372v-128,0,-226,-42,-294,-126v-46,-56,-70,-123,-70,-200v0,-94,33,-176,99,-245v80,-84,186,-126,318,-126v145,0,249,53,312,158v29,49,44,104,44,167xm707,-413v0,-126,-80,-224,-202,-223v-103,2,-173,59,-214,132v-43,75,-64,157,-64,245v0,133,74,228,203,227v97,0,171,-50,222,-150v37,-73,55,-150,55,-231","w":884},"\u00d7":{"d":"127,-135r-42,-42r144,-144r-144,-144r42,-42r144,144r144,-144r42,42r-144,144r144,144r-42,42r-144,-144"},"\u00d8":{"d":"852,-357v0,211,-191,372,-409,372v-82,0,-150,-16,-205,-49r-67,79r-34,-29r64,-75v-81,-65,-122,-148,-122,-248v0,-96,33,-179,99,-249v79,-84,184,-126,317,-126v78,0,144,15,198,46r67,-80r35,29r-65,76v81,64,122,149,122,254xm258,-126r387,-454v-65,-68,-179,-72,-263,-21v-98,60,-155,203,-155,347v0,54,10,97,31,128xm285,-89v37,38,84,57,143,57v99,0,174,-50,224,-150v37,-73,55,-150,55,-230v0,-52,-11,-96,-34,-132","w":884},"\u00d9":{"d":"491,-739r-204,-161r187,0r105,161r-88,0xm241,-163v1,79,85,124,173,124v71,0,127,-22,170,-66v38,-39,65,-101,80,-188r32,-193v5,-31,7,-49,7,-54v0,-45,-33,-73,-100,-84r8,-43r248,0r-9,43v-72,11,-93,56,-107,134v-21,110,-37,256,-75,340v-31,68,-93,126,-164,150v-31,10,-69,15,-113,15v-95,0,-168,-22,-219,-67v-41,-36,-62,-81,-62,-135v0,-107,43,-239,65,-344v13,-63,-9,-97,-81,-93r9,-43r328,0r-8,43v-71,0,-99,24,-111,85r-62,302v-6,34,-9,59,-9,74","w":803},"\u00da":{"d":"465,-738r106,-162r189,0r-206,162r-89,0xm241,-163v1,79,85,124,173,124v71,0,127,-22,170,-66v38,-39,65,-101,80,-188r32,-193v5,-31,7,-49,7,-54v0,-45,-33,-73,-100,-84r8,-43r248,0r-9,43v-72,11,-93,56,-107,134v-21,110,-37,256,-75,340v-31,68,-93,126,-164,150v-31,10,-69,15,-113,15v-95,0,-168,-22,-219,-67v-41,-36,-62,-81,-62,-135v0,-107,43,-239,65,-344v13,-63,-9,-97,-81,-93r9,-43r328,0r-8,43v-71,0,-99,24,-111,85r-62,302v-6,34,-9,59,-9,74","w":803},"\u00db":{"d":"330,-747r179,-159r161,0r60,159r-72,0r-80,-81r-158,81r-90,0xm241,-163v1,79,85,124,173,124v71,0,127,-22,170,-66v38,-39,65,-101,80,-188r32,-193v5,-31,7,-49,7,-54v0,-45,-33,-73,-100,-84r8,-43r248,0r-9,43v-72,11,-93,56,-107,134v-21,110,-37,256,-75,340v-31,68,-93,126,-164,150v-31,10,-69,15,-113,15v-95,0,-168,-22,-219,-67v-41,-36,-62,-81,-62,-135v0,-107,43,-239,65,-344v13,-63,-9,-97,-81,-93r9,-43r328,0r-8,43v-71,0,-99,24,-111,85r-62,302v-6,34,-9,59,-9,74","w":803},"\u00dc":{"d":"757,-805v0,36,-32,68,-67,68v-37,0,-68,-31,-68,-68v0,-36,32,-67,67,-67v36,0,68,31,68,67xm462,-805v0,36,-31,68,-67,68v-38,0,-68,-30,-68,-68v0,-36,32,-67,68,-67v36,0,67,31,67,67xm241,-163v1,79,85,124,173,124v71,0,127,-22,170,-66v38,-39,65,-101,80,-188r32,-193v5,-31,7,-49,7,-54v0,-45,-33,-73,-100,-84r8,-43r248,0r-9,43v-72,11,-93,56,-107,134v-21,110,-37,256,-75,340v-31,68,-93,126,-164,150v-31,10,-69,15,-113,15v-95,0,-168,-22,-219,-67v-41,-36,-62,-81,-62,-135v0,-107,43,-239,65,-344v13,-63,-9,-97,-81,-93r9,-43r328,0r-8,43v-71,0,-99,24,-111,85r-62,302v-6,34,-9,59,-9,74","w":803},"\u00dd":{"d":"420,-738r106,-162r189,0r-206,162r-89,0xm152,0r8,-42v88,2,104,-28,121,-109r25,-124r-132,-285v-21,-46,-31,-62,-89,-65r9,-42r275,0r-8,42v-55,4,-61,19,-42,60r109,236r185,-209v43,-43,25,-78,-43,-87r9,-42r215,0r-9,42v-58,25,-60,30,-130,109r-214,241r-28,141v-15,59,2,91,63,92r42,0r-9,42r-357,0","w":715},"\u00de":{"d":"514,-377v-1,-90,-38,-128,-136,-126r-54,0r-75,369v-15,59,2,91,63,92r32,0r-9,42r-340,0r9,-42v81,-1,97,-29,113,-109r78,-381v13,-55,-4,-95,-71,-92r-22,0r9,-43r336,0r-9,43v-66,-1,-92,20,-105,75r87,0v141,-2,243,60,245,189v2,165,-169,280,-348,232r9,-41v125,21,190,-91,188,-208","w":684},"\u00df":{"d":"-206,183v0,-30,30,-55,62,-54v25,0,44,13,61,37v25,36,39,54,69,34v34,-55,45,-163,58,-241r68,-403v17,-111,64,-194,138,-242v36,-23,75,-35,117,-35v84,-2,151,51,150,132v0,65,-34,114,-103,149v-33,17,-57,26,-72,29v83,19,124,73,124,161v1,143,-108,273,-258,259r4,-26v91,-19,131,-118,130,-238v0,-67,-20,-116,-59,-145r4,-24v73,-12,116,-94,116,-185v0,-44,-20,-82,-60,-83v-31,0,-57,24,-78,73v-11,27,-23,77,-35,152r-62,370v-19,106,-27,159,-68,225v-50,80,-117,119,-197,119v-51,0,-107,-22,-109,-64","w":512},"\u00e0":{"d":"290,-512r-119,-177r126,0r72,177r-79,0xm452,-91v-35,41,-97,101,-153,101v-53,0,-49,-75,-36,-131v-49,51,-85,87,-109,105v-38,29,-51,40,-86,16v-27,-19,-41,-49,-42,-94v-4,-147,152,-316,276,-343v60,-13,84,-13,142,-11r-70,344v-3,15,-5,25,-5,31v0,7,3,10,9,10v20,-7,58,-44,74,-63r0,35xm126,-160v-1,36,13,73,43,73v32,0,73,-48,103,-78r45,-218v-61,-6,-113,29,-140,67v-34,46,-51,98,-51,156","w":490},"\u00e1":{"d":"269,-514r71,-175r125,0r-117,175r-79,0xm452,-91v-35,41,-97,101,-153,101v-53,0,-49,-75,-36,-131v-49,51,-85,87,-109,105v-38,29,-51,40,-86,16v-27,-19,-41,-49,-42,-94v-4,-147,152,-316,276,-343v60,-13,84,-13,142,-11r-70,344v-3,15,-5,25,-5,31v0,7,3,10,9,10v20,-7,58,-44,74,-63r0,35xm126,-160v-1,36,13,73,43,73v32,0,73,-48,103,-78r45,-218v-61,-6,-113,29,-140,67v-34,46,-51,98,-51,156","w":490},"\u00e2":{"d":"154,-513r148,-176r142,0r40,176r-80,0r-40,-83r-133,83r-77,0xm452,-91v-35,41,-97,101,-153,101v-53,0,-49,-75,-36,-131v-49,51,-85,87,-109,105v-38,29,-51,40,-86,16v-27,-19,-41,-49,-42,-94v-4,-147,152,-316,276,-343v60,-13,84,-13,142,-11r-70,344v-3,15,-5,25,-5,31v0,7,3,10,9,10v20,-7,58,-44,74,-63r0,35xm126,-160v-1,36,13,73,43,73v32,0,73,-48,103,-78r45,-218v-61,-6,-113,29,-140,67v-34,46,-51,98,-51,156","w":490},"\u00e3":{"d":"405,-524v-19,5,-133,-48,-157,-48v-22,0,-36,16,-42,47r-71,0v0,-80,38,-151,112,-152v23,-5,135,49,156,49v21,0,35,-16,42,-48r69,0v-5,67,-20,109,-60,136v-16,10,-32,16,-49,16xm452,-91v-35,41,-97,101,-153,101v-53,0,-49,-75,-36,-131v-49,51,-85,87,-109,105v-38,29,-51,40,-86,16v-27,-19,-41,-49,-42,-94v-4,-147,152,-316,276,-343v60,-13,84,-13,142,-11r-70,344v-3,15,-5,25,-5,31v0,7,3,10,9,10v20,-7,58,-44,74,-63r0,35xm126,-160v-1,36,13,73,43,73v32,0,73,-48,103,-78r45,-218v-61,-6,-113,29,-140,67v-34,46,-51,98,-51,156","w":490},"\u00e4":{"d":"491,-601v0,34,-28,63,-62,63v-34,0,-63,-29,-63,-63v0,-33,30,-62,63,-62v32,0,62,30,62,62xm281,-601v0,34,-28,63,-62,63v-34,0,-63,-29,-63,-63v0,-33,30,-62,63,-62v32,0,62,30,62,62xm452,-91v-35,41,-97,101,-153,101v-53,0,-49,-75,-36,-131v-49,51,-85,87,-109,105v-38,29,-51,40,-86,16v-27,-19,-41,-49,-42,-94v-4,-147,152,-316,276,-343v60,-13,84,-13,142,-11r-70,344v-3,15,-5,25,-5,31v0,7,3,10,9,10v20,-7,58,-44,74,-63r0,35xm126,-160v-1,36,13,73,43,73v32,0,73,-48,103,-78r45,-218v-61,-6,-113,29,-140,67v-34,46,-51,98,-51,156","w":490},"\u00e5":{"d":"428,-607v0,57,-49,106,-105,106v-58,0,-106,-49,-106,-107v0,-56,49,-104,106,-104v56,0,105,49,105,105xm255,-607v0,38,30,68,68,68v36,0,67,-32,67,-67v0,-36,-31,-68,-67,-68v-36,0,-68,31,-68,67xm452,-91v-35,41,-97,101,-153,101v-53,0,-49,-75,-36,-131v-49,51,-85,87,-109,105v-38,29,-51,40,-86,16v-27,-19,-41,-49,-42,-94v-4,-147,152,-316,276,-343v60,-13,84,-13,142,-11r-70,344v-3,15,-5,25,-5,31v0,7,3,10,9,10v20,-7,58,-44,74,-63r0,35xm126,-160v-1,36,13,73,43,73v32,0,73,-48,103,-78r45,-218v-61,-6,-113,29,-140,67v-34,46,-51,98,-51,156","w":490},"\u00e6":{"d":"104,11v-50,-1,-77,-54,-77,-110v0,-68,27,-137,84,-207v83,-102,184,-148,332,-143r-6,33v44,-22,82,-33,115,-33v65,0,97,27,97,80v0,57,-40,100,-119,129v-44,16,-84,29,-123,37v-3,16,-5,32,-5,48v0,67,31,101,92,101v31,0,70,-18,119,-54r14,22v-53,46,-139,96,-221,96v-73,0,-129,-56,-123,-136r-43,40v-39,37,-69,62,-88,76v-19,14,-35,21,-48,21xm550,-371v1,-26,-15,-48,-39,-48v-21,0,-39,13,-53,39v-14,26,-29,76,-46,149v77,-13,136,-59,138,-140xm123,-157v0,33,20,73,48,73v42,0,88,-51,115,-85r44,-214v-84,-4,-133,27,-173,98v-23,41,-34,84,-34,128","w":663},"\u00e7":{"d":"139,11v-69,-6,-110,-51,-109,-125v1,-81,38,-166,77,-220v54,-77,118,-115,191,-115v38,-1,68,21,68,57v0,33,-22,57,-55,56v-20,0,-39,-10,-58,-29v-40,-41,-64,-12,-84,50v-14,47,-21,97,-21,151v0,74,23,111,70,111v40,0,75,-30,96,-58r20,16v-29,50,-98,100,-165,106r-9,18v74,15,86,88,46,143v-34,49,-96,74,-178,75r6,-28v54,-1,109,-34,110,-84v0,-25,-13,-40,-40,-45","w":368},"\u00e8":{"d":"254,-512r-119,-177r126,0r72,177r-79,0xm154,12v-75,2,-120,-63,-120,-142v0,-107,81,-244,170,-291v34,-19,67,-28,100,-28v51,-1,87,30,87,79v0,48,-32,88,-95,119v-41,21,-86,36,-136,47v-5,22,-7,42,-7,60v-1,54,32,91,85,91v30,0,70,-17,119,-52r14,20v-47,42,-144,95,-217,97xm293,-369v0,-24,-11,-46,-33,-46v-35,0,-67,62,-95,185v70,-17,127,-59,128,-139","w":408},"\u00e9":{"d":"247,-514r71,-175r125,0r-117,175r-79,0xm154,12v-75,2,-120,-63,-120,-142v0,-107,81,-244,170,-291v34,-19,67,-28,100,-28v51,-1,87,30,87,79v0,48,-32,88,-95,119v-41,21,-86,36,-136,47v-5,22,-7,42,-7,60v-1,54,32,91,85,91v30,0,70,-17,119,-52r14,20v-47,42,-144,95,-217,97xm293,-369v0,-24,-11,-46,-33,-46v-35,0,-67,62,-95,185v70,-17,127,-59,128,-139","w":408},"\u00ea":{"d":"126,-513r148,-176r142,0r40,176r-80,0r-40,-83r-133,83r-77,0xm154,12v-75,2,-120,-63,-120,-142v0,-107,81,-244,170,-291v34,-19,67,-28,100,-28v51,-1,87,30,87,79v0,48,-32,88,-95,119v-41,21,-86,36,-136,47v-5,22,-7,42,-7,60v-1,54,32,91,85,91v30,0,70,-17,119,-52r14,20v-47,42,-144,95,-217,97xm293,-369v0,-24,-11,-46,-33,-46v-35,0,-67,62,-95,185v70,-17,127,-59,128,-139","w":408},"\u00eb":{"d":"449,-601v0,34,-28,63,-62,63v-34,0,-63,-29,-63,-63v0,-33,30,-62,63,-62v32,0,62,30,62,62xm239,-601v0,34,-28,63,-62,63v-34,0,-63,-29,-63,-63v0,-33,30,-62,63,-62v32,0,62,30,62,62xm154,12v-75,2,-120,-63,-120,-142v0,-107,81,-244,170,-291v34,-19,67,-28,100,-28v51,-1,87,30,87,79v0,48,-32,88,-95,119v-41,21,-86,36,-136,47v-5,22,-7,42,-7,60v-1,54,32,91,85,91v30,0,70,-17,119,-52r14,20v-47,42,-144,95,-217,97xm293,-369v0,-24,-11,-46,-33,-46v-35,0,-67,62,-95,185v70,-17,127,-59,128,-139","w":408},"\u00ec":{"d":"161,-512r-119,-177r126,0r72,177r-79,0xm118,11v-34,2,-59,-29,-58,-64v3,-60,62,-218,62,-297v0,-7,-4,-11,-11,-11v-10,0,-29,19,-57,58r-20,-17v65,-86,119,-129,162,-129v29,0,47,29,46,61v0,17,-4,41,-11,72r-52,219v-3,13,-5,22,-5,27v0,11,4,16,13,16v27,0,56,-34,75,-57r19,18v-34,44,-102,101,-163,104","w":301},"\u00ed":{"d":"167,-514r71,-175r125,0r-117,175r-79,0xm118,11v-34,2,-59,-29,-58,-64v3,-60,62,-218,62,-297v0,-7,-4,-11,-11,-11v-10,0,-29,19,-57,58r-20,-17v65,-86,119,-129,162,-129v29,0,47,29,46,61v0,17,-4,41,-11,72r-52,219v-3,13,-5,22,-5,27v0,11,4,16,13,16v27,0,56,-34,75,-57r19,18v-34,44,-102,101,-163,104","w":301},"\u00ee":{"d":"26,-513r148,-176r142,0r40,176r-80,0r-40,-83r-133,83r-77,0xm118,11v-34,2,-59,-29,-58,-64v2,-44,43,-206,58,-271v3,-14,11,-36,-7,-37v-11,0,-30,19,-57,58r-20,-17v65,-86,119,-129,162,-129v29,0,47,29,46,61v0,19,-4,43,-11,72r-52,219v-3,13,-5,22,-5,27v0,11,4,16,13,16v27,0,56,-34,75,-57r19,18v-34,44,-102,101,-163,104","w":301},"\u00ef":{"d":"363,-601v0,34,-28,63,-62,63v-34,0,-63,-29,-63,-63v0,-33,30,-62,63,-62v32,0,62,30,62,62xm186,-601v0,34,-28,63,-62,63v-34,0,-63,-29,-63,-63v0,-33,30,-62,63,-62v33,0,62,29,62,62xm118,11v-34,2,-59,-29,-58,-64v3,-60,62,-218,62,-297v0,-7,-4,-11,-11,-11v-10,0,-29,19,-57,58r-20,-17v65,-86,119,-129,162,-129v29,0,47,29,46,61v0,17,-4,41,-11,72r-52,219v-3,13,-5,22,-5,27v0,11,4,16,13,16v27,0,56,-34,75,-57r19,18v-34,44,-102,101,-163,104","w":301},"\u00f0":{"d":"154,11v-76,0,-120,-72,-118,-155v2,-104,59,-191,125,-242v52,-40,98,-60,137,-60v8,0,15,2,22,5v0,-56,-7,-106,-22,-149r-106,33r-9,-31r102,-32v-13,-24,-29,-47,-48,-69r24,-28v37,26,66,52,87,78r106,-33r9,30r-93,29v55,76,82,160,82,253v0,168,-76,289,-197,345v-37,17,-70,26,-101,26xm218,-34v25,0,47,-25,68,-75v32,-75,46,-177,15,-255v-11,-27,-25,-40,-41,-41v-23,-1,-46,23,-68,73v-33,75,-46,182,-16,259v10,26,25,39,42,39","w":478},"\u00f1":{"d":"426,-524v-19,5,-132,-48,-157,-48v-22,0,-36,16,-42,47r-71,0v0,-80,38,-151,112,-152v23,-5,135,49,156,49v21,0,35,-16,42,-48r69,0v-5,67,-21,109,-61,136v-16,10,-31,16,-48,16xm351,12v-28,0,-50,-30,-49,-60v0,-12,3,-30,9,-55r50,-214v6,-22,7,-42,-13,-42v-13,0,-34,17,-61,50r-81,102r-35,172v-8,30,-6,41,-37,41r-57,0v-34,2,-23,-25,-19,-46r62,-310v0,-6,-2,-9,-7,-9v-12,0,-34,23,-65,69r-21,-14v25,-39,53,-73,87,-102v34,-29,62,-43,83,-43v46,0,44,68,35,112r-15,75v89,-125,162,-187,220,-187v54,0,58,59,45,114r-63,265v0,6,3,9,8,9v20,-8,57,-49,72,-71r21,16v-22,34,-50,64,-84,90v-34,26,-62,38,-85,38","w":547},"\u00f2":{"d":"270,-512r-119,-177r126,0r72,177r-79,0xm154,11v-77,-1,-118,-72,-118,-157v0,-142,149,-308,290,-303v76,3,115,73,115,158v0,118,-87,232,-186,276v-37,16,-70,26,-101,26xm218,-34v25,0,47,-25,68,-75v32,-75,46,-177,15,-255v-11,-27,-25,-40,-41,-41v-23,-1,-46,23,-68,73v-33,75,-46,182,-16,259v10,26,25,39,42,39","w":478},"\u00f3":{"d":"256,-514r71,-175r125,0r-117,175r-79,0xm154,11v-77,-1,-118,-72,-118,-157v0,-142,149,-308,290,-303v76,3,115,73,115,158v0,118,-87,232,-186,276v-37,16,-70,26,-101,26xm218,-34v25,0,47,-25,68,-75v32,-75,46,-177,15,-255v-11,-27,-25,-40,-41,-41v-23,-1,-46,23,-68,73v-33,75,-46,182,-16,259v10,26,25,39,42,39","w":478},"\u00f4":{"d":"134,-513r148,-176r142,0r40,176r-80,0r-40,-83r-133,83r-77,0xm154,11v-77,-1,-118,-72,-118,-157v0,-142,149,-308,290,-303v76,3,115,73,115,158v0,118,-87,232,-186,276v-37,16,-70,26,-101,26xm218,-34v25,0,47,-25,68,-75v32,-75,46,-177,15,-255v-11,-27,-25,-40,-41,-41v-23,-1,-46,23,-68,73v-33,75,-46,182,-16,259v10,26,25,39,42,39","w":478},"\u00f5":{"d":"398,-524v-19,5,-132,-48,-157,-48v-22,0,-36,16,-42,47r-71,0v0,-80,38,-151,112,-152v23,-5,135,49,156,49v21,0,35,-16,42,-48r69,0v-5,67,-21,109,-61,136v-16,10,-31,16,-48,16xm154,11v-77,-1,-118,-72,-118,-157v0,-142,149,-308,290,-303v76,3,115,73,115,158v0,118,-87,232,-186,276v-37,16,-70,26,-101,26xm218,-34v25,0,47,-25,68,-75v32,-75,46,-177,15,-255v-11,-27,-25,-40,-41,-41v-23,-1,-46,23,-68,73v-33,75,-46,182,-16,259v10,26,25,39,42,39","w":478},"\u00f6":{"d":"484,-601v0,34,-28,63,-62,63v-34,0,-63,-29,-63,-63v0,-33,30,-62,63,-62v33,0,62,29,62,62xm274,-601v0,34,-28,63,-62,63v-34,0,-63,-29,-63,-63v0,-33,30,-62,63,-62v33,0,62,29,62,62xm154,11v-77,-1,-118,-72,-118,-157v0,-142,149,-308,290,-303v76,3,115,73,115,158v0,118,-87,232,-186,276v-37,16,-70,26,-101,26xm218,-34v25,0,47,-25,68,-75v32,-75,46,-177,15,-255v-11,-27,-25,-40,-41,-41v-23,-1,-46,23,-68,73v-33,75,-46,182,-16,259v10,26,25,39,42,39","w":478},"\u00f7":{"d":"326,-487v0,28,-26,54,-54,54v-28,0,-55,-26,-55,-54v0,-30,25,-55,55,-55v29,0,54,26,54,55xm58,-291r0,-60r427,0r0,60r-427,0xm272,-100v-28,0,-55,-26,-55,-54v0,-30,25,-55,55,-55v29,0,54,26,54,55v0,28,-26,54,-54,54"},"\u00f8":{"d":"36,-143v0,-146,148,-312,291,-306v23,0,44,7,62,20r48,-59r23,18r-50,62v64,111,28,242,-58,326v-45,45,-122,91,-198,93v-23,0,-44,-7,-63,-20r-45,55r-23,-19r46,-57v-22,-28,-33,-66,-33,-113xm161,-145r150,-187v-25,-106,-82,-89,-119,2v-24,58,-35,116,-31,185xm167,-104v17,69,48,93,89,46v43,-49,63,-127,63,-218v0,-7,-1,-12,-2,-16","w":478},"\u00f9":{"d":"300,-512r-119,-177r126,0r72,177r-79,0xm331,11v-21,0,-38,-22,-36,-44v5,-49,24,-130,34,-182v-26,41,-63,88,-111,141v-51,57,-91,85,-119,85v-25,0,-38,-17,-38,-51v0,-13,3,-34,9,-62r50,-252v0,-9,-3,-13,-8,-13v-7,0,-26,21,-57,63r-20,-15v33,-46,63,-79,88,-99v25,-20,50,-31,74,-31v26,0,48,24,45,52v-9,85,-51,188,-51,275v0,11,4,17,11,17v6,0,18,-11,37,-31v36,-40,85,-105,104,-159v10,-28,18,-68,28,-118v5,-27,4,-30,33,-30v30,0,81,-13,80,21v0,4,-1,11,-2,20r-63,311v0,6,2,9,7,9v18,-8,52,-42,69,-62r18,17v-29,35,-62,67,-99,95v-37,28,-65,43,-83,43","w":538},"\u00fa":{"d":"286,-514r71,-175r125,0r-117,175r-79,0xm331,11v-21,0,-38,-22,-36,-44v5,-49,24,-130,34,-182v-26,41,-63,88,-111,141v-51,57,-91,85,-119,85v-25,0,-38,-17,-38,-51v0,-13,3,-34,9,-62r50,-252v0,-9,-3,-13,-8,-13v-7,0,-26,21,-57,63r-20,-15v33,-46,63,-79,88,-99v25,-20,50,-31,74,-31v26,0,48,24,45,52v-9,85,-51,188,-51,275v0,11,4,17,11,17v6,0,18,-11,37,-31v36,-40,85,-105,104,-159v10,-28,18,-68,28,-118v5,-27,4,-30,33,-30v30,0,81,-13,80,21v0,4,-1,11,-2,20r-63,311v0,6,2,9,7,9v18,-8,52,-42,69,-62r18,17v-29,35,-62,67,-99,95v-37,28,-65,43,-83,43","w":538},"\u00fb":{"d":"164,-513r148,-176r142,0r40,176r-80,0r-40,-83r-133,83r-77,0xm331,11v-21,0,-38,-22,-36,-44v5,-49,24,-130,34,-182v-26,41,-63,88,-111,141v-51,57,-91,85,-119,85v-25,0,-38,-17,-38,-51v0,-13,3,-34,9,-62r50,-252v0,-9,-3,-13,-8,-13v-7,0,-26,21,-57,63r-20,-15v33,-46,63,-79,88,-99v25,-20,50,-31,74,-31v26,0,48,24,45,52v-9,85,-51,188,-51,275v0,11,4,17,11,17v6,0,18,-11,37,-31v36,-40,85,-105,104,-159v10,-28,18,-68,28,-118v5,-27,4,-30,33,-30v30,0,81,-13,80,21v0,4,-1,11,-2,20r-63,311v0,6,2,9,7,9v18,-8,52,-42,69,-62r18,17v-29,35,-62,67,-99,95v-37,28,-65,43,-83,43","w":538},"\u00fc":{"d":"514,-601v0,34,-28,63,-62,63v-34,0,-63,-29,-63,-63v0,-33,30,-62,63,-62v33,0,62,29,62,62xm304,-601v0,34,-28,63,-62,63v-34,0,-63,-29,-63,-63v0,-33,30,-62,63,-62v33,0,62,29,62,62xm331,11v-21,0,-38,-22,-36,-44v5,-49,24,-130,34,-182v-26,41,-63,88,-111,141v-51,57,-91,85,-119,85v-25,0,-38,-17,-38,-51v0,-13,3,-34,9,-62r50,-252v0,-9,-3,-13,-8,-13v-7,0,-26,21,-57,63r-20,-15v33,-46,63,-79,88,-99v25,-20,50,-31,74,-31v26,0,48,24,45,52v-9,85,-51,188,-51,275v0,11,4,17,11,17v6,0,18,-11,37,-31v36,-40,85,-105,104,-159v10,-28,18,-68,28,-118v5,-27,4,-30,33,-30v30,0,81,-13,80,21v0,4,-1,11,-2,20r-63,311v0,6,2,9,7,9v18,-8,52,-42,69,-62r18,17v-29,35,-62,67,-99,95v-37,28,-65,43,-83,43","w":538},"\u00fd":{"d":"263,-514r71,-175r125,0r-117,175r-79,0xm404,-449v35,0,64,27,63,62v0,17,-5,36,-15,57v-21,46,-143,241,-162,281v-16,33,-44,91,-81,175v-17,37,-25,60,-25,67v-2,23,26,28,54,26r-5,25r-275,0r5,-25v76,1,86,-22,116,-82v44,-87,66,-139,66,-250v0,-73,-5,-133,-15,-181v-20,-93,-48,-90,-92,-24r-22,-14v21,-35,44,-64,70,-85v59,-45,109,-49,137,33v29,84,36,235,25,365v32,-63,58,-123,78,-179v20,-56,30,-95,30,-120v0,-22,-25,-37,-25,-65v0,-36,37,-66,73,-66","w":492},"\u00fe":{"d":"138,124v-17,71,9,96,86,95r-6,25r-313,0r5,-25v87,-2,101,-31,118,-116r141,-695v5,-20,6,-40,-15,-40v-12,0,-25,6,-34,11r-11,-24r169,-68v29,-14,27,14,22,41r-82,402v83,-119,142,-179,176,-179v49,0,82,98,81,161v-3,119,-58,210,-136,262v-54,36,-108,51,-176,26xm236,-24v66,3,118,-156,118,-237v0,-54,-11,-81,-34,-81v-19,0,-57,46,-115,137r-25,124v11,34,20,55,56,57","w":514},"\u00ff":{"d":"491,-601v0,34,-28,63,-62,63v-34,0,-63,-29,-63,-63v0,-33,30,-62,63,-62v32,0,62,30,62,62xm281,-601v0,34,-28,63,-62,63v-34,0,-63,-29,-63,-63v0,-33,30,-62,63,-62v32,0,62,30,62,62xm404,-449v35,0,64,27,63,62v0,17,-5,36,-15,57v-21,46,-143,241,-162,281v-16,33,-44,91,-81,175v-17,37,-25,60,-25,67v-2,23,26,28,54,26r-5,25r-275,0r5,-25v76,1,86,-22,116,-82v44,-87,66,-139,66,-250v0,-73,-5,-133,-15,-181v-20,-93,-48,-90,-92,-24r-22,-14v21,-35,44,-64,70,-85v59,-45,109,-49,137,33v29,84,36,235,25,365v32,-63,58,-123,78,-179v20,-56,30,-95,30,-120v0,-22,-25,-37,-25,-65v0,-36,37,-66,73,-66","w":492},"\u0152":{"d":"391,9v-186,0,-315,-120,-315,-306v0,-130,66,-233,148,-294v75,-56,169,-85,286,-85v44,-1,92,10,140,9r461,0r-34,164r-53,0v13,-58,-17,-105,-64,-115v-52,-11,-145,-2,-208,-4r-53,263r134,0v80,-1,103,-15,126,-73r44,0r-44,214r-43,0v4,-19,6,-32,6,-41v-2,-47,-38,-54,-94,-55r-139,0r-34,168v-4,23,-6,39,-6,49v0,33,33,52,70,51r62,0v110,0,188,-40,233,-119r50,0r-60,165r-485,0v-27,0,-89,9,-128,9xm599,-532v12,-62,-37,-98,-95,-97v-94,1,-173,65,-214,131v-45,73,-69,152,-69,238v0,117,71,222,179,222v76,0,108,-45,122,-116","w":1113},"\u0153":{"d":"160,11v-80,0,-121,-66,-121,-152v0,-127,80,-232,175,-279v77,-38,179,-45,209,35v45,-43,95,-64,151,-64v55,-1,95,26,95,78v0,47,-35,88,-104,121v-27,13,-72,28,-135,46v-20,74,8,150,79,148v57,-2,75,-22,122,-51r14,21v-53,42,-142,93,-218,96v-48,2,-91,-29,-106,-64v-67,43,-121,65,-161,65xm567,-368v0,-27,-12,-47,-37,-47v-35,0,-66,61,-95,183v88,-24,132,-69,132,-136xm219,-35v23,0,45,-24,68,-70v37,-74,44,-179,17,-255v-20,-55,-57,-57,-90,-12v-45,61,-71,209,-37,298v11,26,25,39,42,39","w":688},"\u0178":{"d":"705,-805v0,36,-32,68,-67,68v-37,0,-68,-31,-68,-68v0,-36,32,-67,67,-67v36,0,68,31,68,67xm410,-805v0,36,-31,68,-67,68v-38,0,-68,-30,-68,-68v0,-36,32,-67,68,-67v36,0,67,31,67,67xm152,0r8,-42v88,2,104,-28,121,-109r25,-124r-132,-285v-21,-46,-31,-62,-89,-65r9,-42r275,0r-8,42v-55,4,-61,19,-42,60r109,236r185,-209v43,-43,25,-78,-43,-87r9,-42r215,0r-9,42v-58,25,-60,30,-130,109r-214,241r-28,141v-15,59,2,91,63,92r42,0r-9,42r-357,0","w":715},"\u02c6":{"d":"146,-513r148,-176r142,0r40,176r-80,0r-40,-83r-133,83r-77,0"},"\u02dc":{"d":"409,-524v-19,5,-133,-48,-157,-48v-22,0,-36,16,-42,47r-71,0v0,-80,38,-151,112,-152v23,-5,135,49,156,49v21,0,35,-16,42,-48r69,0v-5,67,-20,109,-60,136v-16,10,-32,16,-49,16"},"\u2013":{"d":"-15,-210r20,-97r556,0r-20,97r-556,0","w":531},"\u2014":{"d":"-15,-210r20,-97r1087,0r-20,97r-1087,0","w":1062},"\u2018":{"d":"298,-466v0,37,-32,65,-69,65v-49,0,-82,-49,-81,-102v1,-104,103,-202,197,-219r16,31v-54,11,-104,49,-108,105v-3,40,45,86,45,120","w":347},"\u2019":{"d":"239,-720v49,0,82,49,81,102v-1,104,-103,202,-197,219r-16,-31v54,-11,106,-49,108,-105v0,-21,-7,-42,-22,-63v-15,-21,-23,-40,-23,-57v-1,-36,32,-65,69,-65","w":347},"\u201a":{"d":"112,42v3,-40,-45,-86,-45,-120v0,-37,32,-65,69,-65v49,0,81,49,81,102v0,103,-103,204,-197,219r-16,-31v54,-11,104,-49,108,-105","w":347},"\u201c":{"d":"595,-466v1,37,-32,65,-69,65v-49,0,-82,-49,-81,-102v1,-104,103,-202,197,-219r16,31v-55,11,-107,48,-109,105v0,21,7,43,22,63v16,21,24,40,24,57xm300,-466v0,37,-32,65,-69,65v-49,0,-82,-49,-81,-102v1,-104,103,-202,197,-219r16,31v-54,11,-104,49,-108,105v-3,40,45,86,45,120","w":647},"\u201d":{"d":"549,-720v49,0,82,49,81,102v-1,104,-103,202,-197,219r-16,-31v55,-11,105,-48,109,-105v3,-40,-46,-86,-46,-120v0,-36,32,-65,69,-65xm254,-720v49,0,82,49,81,102v-1,104,-103,202,-197,219r-16,-31v54,-11,106,-49,108,-105v0,-21,-7,-42,-22,-63v-15,-21,-23,-40,-23,-57v-1,-36,32,-65,69,-65","w":647},"\u201e":{"d":"430,-143v49,0,81,49,81,102v0,103,-102,204,-197,219r-16,-31v55,-11,107,-48,109,-105v0,-21,-7,-43,-22,-63v-16,-21,-24,-40,-24,-58v-1,-34,34,-64,69,-64xm111,42v3,-40,-45,-86,-45,-120v0,-37,32,-65,69,-65v49,0,81,49,81,102v0,103,-103,204,-197,219r-16,-31v54,-11,104,-49,108,-105","w":647},"\u2022":{"d":"359,-200v-74,0,-139,-64,-139,-138v0,-76,65,-139,141,-139v72,0,136,66,136,138v0,75,-64,139,-138,139","w":667},"\u2026":{"d":"831,11v-39,0,-67,-30,-67,-70v0,-43,36,-83,78,-83v39,0,65,28,65,68v0,45,-33,85,-76,85xm485,11v-39,0,-67,-30,-67,-70v0,-43,36,-83,78,-83v39,0,65,28,65,68v0,45,-33,85,-76,85xm138,11v-39,0,-67,-30,-67,-70v0,-43,36,-83,78,-83v39,0,65,28,65,68v0,45,-33,85,-76,85","w":1040},"\u2039":{"d":"120,-47r-100,-193r200,-195r38,0r-118,195r14,193r-34,0","w":240},"\u203a":{"d":"-20,-47r114,-194r-15,-195r33,0r103,195r-195,194r-40,0","w":240},"\u20ac":{"d":"429,15v-167,0,-311,-130,-310,-293r-73,0r25,-41r50,0r4,-26r-66,0r25,-41r51,0v52,-184,218,-294,450,-296v87,0,163,14,230,42r-40,170r-44,0v10,-99,-74,-167,-169,-166v-147,1,-252,118,-278,250r331,0r-25,41r-314,0v0,1,-1,10,-3,26r302,0r-26,41r-279,0v-10,139,56,245,185,244v111,-1,190,-62,241,-137r43,0r-54,171r-23,0v-10,-9,-22,-14,-37,-14v-34,1,-149,29,-196,29","w":817},"\u2122":{"d":"468,-575v-3,-43,-20,-60,-65,-60r-50,0r-58,288v-2,27,26,32,57,30r-6,30r-211,0r6,-30v51,2,64,-12,73,-58r53,-260v-73,-4,-121,7,-145,60r-31,0r23,-114r24,0v4,22,10,22,41,22r274,0v28,-1,34,-2,42,-22r28,0r-23,114r-32,0xm576,-384v-13,40,7,70,49,67r-7,30r-145,0r7,-30v46,-8,51,-25,64,-73r56,-203v8,-33,-9,-41,-53,-44r6,-30r155,0r48,270r182,-270r142,0r-6,30v-45,2,-58,10,-66,49r-44,216v-14,42,4,56,55,55r-6,30r-203,0r6,-30v46,-1,55,-15,63,-56r43,-213r-200,299r-31,0r-55,-310","w":1018}}});
