/*!
 * The following copyright notice may not be removed under any circumstances.
 * 
 * Copyright:
 * Typeface © FontSite Inc., 1996-2008. All Rights Reserved. www.fontsite.com
 * 
 * Trademark:
 * Bergamo is a trademark of FontSite Inc.
 * 
 * Designer:
 * FontSite.com
 * 
 * Vendor URL:
 * http://www.fontsite.com
 * 
 * License information:
 * http://www.fontsite.com/license.html
 */
Cufon.registerFont({"w":527,"face":{"font-family":"Bergamo Std","font-weight":400,"font-stretch":"normal","units-per-em":"1000","panose-1":"2 2 6 5 6 3 6 2 10 3","ascent":"722","descent":"-278","x-height":"13","bbox":"-121.05 -872 1079 252","underline-thickness":"50","underline-position":"-50","unicode-range":"U+0020-U+2122"},"glyphs":{" ":{"w":250},"!":{"d":"163,-667v29,-4,27,14,25,36r-40,471r-17,0r-43,-490v1,-18,7,-16,27,-17r48,0xm139,13v-31,0,-55,-21,-55,-52v0,-28,26,-50,55,-50v31,0,56,21,56,51v0,31,-24,51,-56,51","w":279},"\"":{"d":"197,-677v39,0,40,57,34,101r-23,163r-21,0r-23,-163v-7,-37,-5,-101,33,-101xm76,-677v26,0,39,31,38,60v0,6,-1,20,-4,41r-22,163r-22,0r-23,-163v-7,-42,-5,-101,33,-101","w":275},"#":{"d":"103,0r32,-229r-104,0r5,-35r104,0r22,-152r-105,0r5,-35r105,0r30,-216r38,0r-30,216r153,0r30,-216r39,0r-31,216r99,0r-5,35r-99,0r-21,152r99,0r-5,35r-99,0r-32,229r-39,0r32,-229r-153,0r-32,229r-38,0xm178,-264r153,0r22,-152r-153,0"},"$":{"d":"466,-159v-2,92,-69,146,-152,166r0,102r-20,0r0,-99v-26,4,-62,4,-87,0r0,99r-20,0r0,-102v-42,-12,-73,-25,-92,-40v-33,-25,-49,-50,-49,-77v-1,-18,18,-38,36,-37v32,-7,50,79,63,93v7,8,21,20,42,35r0,-307v-52,-39,-121,-77,-121,-163v0,-74,57,-122,121,-140r0,-70r20,0r0,66v22,-4,70,-4,87,1r0,-67r20,0r0,70v39,11,70,24,92,41v22,17,34,35,34,54v1,18,-15,33,-32,33v-15,0,-29,-11,-44,-34v-14,-22,-31,-42,-50,-59r0,248v39,22,75,48,113,87v26,27,39,60,39,100xm207,-414v23,19,60,39,87,57r0,-248v-15,-11,-58,-15,-87,-9r0,200xm187,-609v-34,10,-63,43,-63,84v0,34,21,66,63,97r0,-181xm207,-12v15,7,69,8,87,2r0,-252v-14,-11,-64,-37,-87,-53r0,303xm314,-15v89,-37,117,-132,50,-199r-50,-36r0,235"},"%":{"d":"180,29r521,-730r44,0r-521,730r-44,0xm368,-469v0,106,-69,215,-167,215v-100,1,-168,-109,-168,-218v0,-103,72,-208,168,-208v98,0,167,105,167,211xm118,-317v25,48,88,65,134,33v50,-34,56,-92,56,-185v0,-95,-7,-153,-60,-184v-51,-30,-112,-8,-134,43v-26,61,-25,239,4,293xm725,13v-100,1,-168,-109,-168,-218v0,-104,72,-209,168,-209v99,0,167,105,167,212v0,106,-69,215,-167,215xm725,-400v-91,2,-107,91,-108,196v0,69,9,120,25,154v23,49,88,66,134,34v50,-34,56,-93,56,-186v0,-96,-8,-152,-60,-185v-15,-9,-30,-13,-47,-13","w":925},"&":{"d":"217,15v-94,2,-173,-82,-173,-177v0,-70,38,-125,115,-165v18,-10,43,-22,74,-35v-38,-31,-76,-82,-77,-140v-2,-76,66,-124,146,-124v72,0,137,38,137,104v0,50,-40,95,-121,136v71,51,133,114,186,189v27,-24,128,-174,134,-212v-5,-22,-25,-18,-59,-21r0,-19r189,0r0,19v-75,7,-80,0,-110,48v-40,64,-102,165,-142,205v20,27,65,120,88,139v12,11,26,16,41,16v20,0,48,-12,84,-36r9,17v-47,37,-91,56,-131,56v-91,0,-103,-76,-144,-133v-39,43,-80,75,-123,98v-43,23,-84,35,-123,35xm295,-605v-44,0,-72,32,-71,77v0,46,26,89,79,130v43,-26,71,-68,71,-116v0,-53,-29,-91,-79,-91xm452,-137v-58,-91,-113,-145,-204,-212v-77,53,-116,111,-116,174v0,79,53,138,130,137v72,-1,154,-53,190,-99","w":782},"'":{"d":"76,-677v26,0,39,31,38,60v0,6,-1,20,-4,41r-22,163r-22,0r-23,-163v-7,-42,-5,-101,33,-101","w":154},"(":{"d":"300,-680v-81,89,-167,263,-163,443v3,133,24,210,72,305v31,59,61,105,91,137r-30,26v-37,-38,-75,-93,-115,-165v-108,-193,-101,-441,13,-630v37,-62,71,-109,102,-142","w":324},")":{"d":"127,44v60,-121,77,-291,45,-440v-21,-95,-94,-229,-147,-284r30,-26v40,43,78,98,115,165v108,193,101,441,-14,630v-36,60,-69,108,-101,142r-30,-26v34,-36,67,-90,102,-161","w":324},"*":{"d":"130,-244r-27,-19r80,-170r-165,-89r9,-30r185,23r37,-182r32,0r33,182r185,-23r10,30r-164,89r81,170r-29,19r-134,-124"},"+":{"d":"247,-131r0,-194r-204,0r0,-33r204,0r0,-194r33,0r0,194r203,0r0,33r-203,0r0,194r-33,0"},",":{"d":"145,12v-35,10,-59,-17,-60,-47v-1,-31,26,-54,58,-54v45,0,76,42,75,90v-1,74,-58,136,-119,158r-7,-20v55,-31,82,-67,82,-107v1,-24,-13,-25,-29,-20","w":279},"-":{"d":"35,-175r0,-72r350,0r0,72r-350,0","w":425},".":{"d":"139,13v-31,0,-55,-21,-55,-52v0,-28,26,-50,55,-50v31,0,56,21,56,51v0,31,-24,51,-56,51","w":279},"\/":{"d":"1,239r214,-947r41,0r-215,947r-40,0","w":302},"0":{"d":"117,-71v-98,-136,-101,-392,0,-527v84,-112,210,-113,292,0v100,136,100,390,0,527v-82,112,-211,113,-292,0xm153,-86v34,78,114,108,179,57v21,-16,34,-40,46,-70v38,-95,36,-400,-5,-485v-21,-43,-55,-81,-110,-81v-61,0,-96,44,-115,95v-38,100,-33,396,5,484"},"1":{"d":"310,-57v1,34,9,37,45,37r55,0r0,20r-270,0r0,-20r41,0v62,-2,58,-1,58,-64r0,-514v-24,22,-102,75,-134,88r-9,-15v38,-23,155,-125,177,-159r37,0r0,627"},"2":{"d":"263,-684v109,0,198,82,198,189v0,87,-57,161,-115,203r-54,46v-96,80,-90,77,-191,180r250,0v58,-2,75,4,96,-26v8,-12,13,-32,18,-59r17,0r-21,151r-428,0r0,-17v27,-35,93,-105,197,-209v96,-96,144,-180,144,-253v0,-79,-64,-146,-142,-144v-86,1,-149,70,-169,145r-17,0v11,-114,96,-206,217,-206"},"3":{"d":"471,-236v2,132,-137,251,-272,251v-43,0,-81,-8,-113,-23v-32,-15,-48,-33,-48,-54v-1,-18,17,-37,34,-36v44,4,100,84,164,84v88,0,155,-101,155,-195v0,-76,-47,-149,-117,-149v-25,0,-50,10,-75,30r-11,-16v51,-34,149,-126,149,-186v0,-54,-50,-101,-105,-99v-65,2,-120,53,-144,105r-19,-7v30,-81,101,-151,199,-153v75,-2,141,49,140,120v0,56,-37,107,-112,152v105,-7,173,78,175,176"},"4":{"d":"39,-195r0,-24r316,-465r30,0r0,436r108,0r0,53r-108,0r0,210r-71,0r0,-210r-275,0xm89,-248r225,0r0,-333"},"5":{"d":"459,-214v0,131,-116,229,-251,229v-43,0,-80,-7,-111,-20v-31,-13,-46,-29,-46,-48v0,-19,17,-34,36,-33v17,0,42,12,71,41v97,97,221,-29,221,-146v0,-93,-68,-172,-159,-170v-43,0,-81,13,-115,39r-10,-7r15,-341r229,0v39,-2,45,5,57,-14r20,0r-12,83r-272,0r-8,194v34,-18,73,-27,116,-27v117,0,219,104,219,220"},"6":{"d":"281,15v-138,0,-223,-131,-223,-280v0,-99,32,-186,96,-261v64,-75,152,-127,263,-158r12,16v-154,63,-250,156,-279,331v53,-41,104,-62,151,-62v104,0,190,92,190,197v0,114,-97,217,-210,217xm411,-191v0,-97,-41,-181,-126,-183v-39,0,-87,22,-142,65v-20,136,16,305,141,305v89,0,127,-87,127,-187"},"7":{"d":"141,-598v-74,3,-69,-1,-82,63r-18,0r8,-132r425,0r0,22r-262,660r-59,0r259,-613r-271,0"},"8":{"d":"262,15v-107,0,-208,-74,-208,-176v0,-75,52,-134,156,-176v-98,-43,-147,-101,-147,-173v0,-96,97,-174,197,-174v96,0,194,65,193,155v0,67,-47,119,-140,157v56,25,97,53,122,83v25,30,38,66,38,107v2,110,-98,197,-211,197xm259,-665v-70,0,-135,54,-133,121v2,63,31,84,78,114v32,20,63,36,93,48v51,-26,89,-80,91,-149v2,-75,-55,-134,-129,-134xm231,-327v-60,27,-108,84,-109,163v-2,86,59,160,141,160v101,0,180,-118,126,-212v-28,-49,-100,-85,-158,-111"},"9":{"d":"255,-684v138,0,223,131,223,280v0,99,-32,186,-95,260v-63,74,-151,127,-264,159r-12,-16v156,-63,249,-156,282,-332v-53,42,-105,63,-154,63v-104,0,-190,-92,-190,-197v0,-114,97,-217,210,-217xm125,-478v0,97,41,181,126,183v39,0,87,-22,142,-65v19,-138,-14,-305,-141,-305v-89,0,-127,87,-127,187"},":":{"d":"195,-386v0,31,-24,51,-56,51v-31,0,-55,-21,-55,-51v0,-29,26,-50,55,-50v31,0,56,20,56,50xm139,13v-31,0,-55,-21,-55,-52v0,-28,26,-50,55,-50v31,0,56,21,56,51v0,31,-24,51,-56,51","w":279},";":{"d":"197,-386v0,31,-24,51,-56,51v-31,0,-56,-21,-55,-52v0,-29,26,-50,56,-50v31,0,55,21,55,51xm145,12v-35,10,-59,-17,-60,-47v-1,-31,26,-54,58,-54v45,0,76,42,75,90v-1,74,-58,136,-119,158r-7,-20v55,-31,82,-67,82,-107v1,-24,-13,-25,-29,-20","w":279},"<":{"d":"56,-341r0,-6r414,-266r0,38r-312,203r312,208r0,100"},"=":{"d":"43,-398r0,-33r440,0r0,33r-440,0xm43,-251r0,-33r440,0r0,33r-440,0"},">":{"d":"56,-64r0,-38r312,-202r-312,-209r0,-100r414,277r0,6"},"?":{"d":"148,-680v106,0,189,83,186,193v-3,110,-55,147,-146,182v-71,28,-53,72,-6,125r-25,0v-35,-41,-52,-78,-52,-111v0,-57,30,-72,80,-91v38,-15,66,-27,82,-39v27,-19,41,-46,41,-82v0,-63,-45,-95,-110,-95v-16,0,-57,8,-82,8v-41,0,-61,-13,-61,-39v0,-39,45,-51,93,-51xm166,13v-31,0,-55,-21,-55,-52v0,-28,26,-50,55,-50v31,0,56,21,56,51v0,31,-24,51,-56,51","w":380},"@":{"d":"404,122v-188,0,-347,-162,-347,-351v0,-186,160,-350,345,-350v167,0,307,130,307,295v0,136,-117,253,-255,249v-30,0,-42,-14,-42,-45v0,-15,4,-44,13,-85v-81,85,-132,127,-153,127v-32,0,-54,-54,-52,-93v3,-105,81,-200,157,-245v54,-32,96,-47,156,-42r-60,294v-8,33,-7,53,29,54v27,0,55,-12,84,-35v60,-48,90,-107,90,-178v0,-147,-129,-266,-274,-266v-170,0,-312,149,-312,320v0,174,144,321,317,321v72,0,140,-23,203,-70r40,0v-65,67,-147,100,-246,100xm275,-150v0,29,8,67,29,67v14,0,56,-36,127,-109r37,-181v-93,9,-134,42,-168,111v-17,36,-25,73,-25,112","w":766},"A":{"d":"3,0r0,-20v34,-1,58,-8,71,-20v13,-12,27,-41,44,-86r196,-534r-10,-24r93,0r205,544v20,54,36,87,48,100v12,13,36,20,69,20r0,20r-295,0r0,-20v60,-3,108,8,112,-37v0,-8,-5,-26,-16,-55r-69,-184r-222,0r-61,168v-15,41,-22,64,-22,69v0,20,17,31,50,36v5,1,23,2,54,3r0,20r-247,0xm248,-343r186,0r-95,-251","w":727},"B":{"d":"461,-384v89,26,159,82,159,182v0,83,-59,157,-122,183v-29,12,-93,19,-192,19r-309,0r0,-20r24,0v90,-3,105,-16,105,-114r0,-399v2,-89,-6,-113,-97,-114r-23,0r0,-20v153,-7,256,-10,309,-10v124,2,196,16,245,81v17,23,24,49,24,76v0,71,-59,125,-123,136xm215,-389r81,0v74,-1,107,-1,146,-26v50,-33,58,-126,22,-179v-35,-50,-78,-64,-170,-64v-18,0,-44,1,-79,4r0,265xm338,-29v115,0,181,-61,181,-168v0,-90,-60,-152,-137,-167v-32,-6,-118,-4,-167,-4r0,188v0,57,5,94,14,111v16,27,52,40,109,40","w":678},"C":{"d":"431,17v-207,0,-374,-141,-374,-342v0,-210,170,-359,385,-359v63,0,126,13,190,35v29,10,34,14,55,3r17,0r9,154r-20,0v-31,-92,-128,-168,-245,-166v-181,4,-291,127,-291,310v0,181,130,336,305,336v113,0,200,-52,260,-156r21,0v-10,40,-48,125,-69,157v-7,-1,-14,-2,-22,-2v-39,1,-161,30,-221,30","w":782},"D":{"d":"126,-533v4,-94,-11,-115,-103,-114r0,-20v176,-7,284,-10,325,-10v134,0,214,18,292,73v83,58,123,142,123,247v0,146,-87,259,-193,312v-75,37,-155,45,-280,45r-267,0r0,-20v53,2,93,-8,101,-46v2,-9,2,-32,2,-69r0,-398xm215,-95v-1,68,7,75,80,75v134,0,183,-8,254,-66v77,-63,114,-148,114,-253v1,-163,-91,-281,-232,-304v-65,-11,-133,-15,-216,-10r0,558","w":821},"E":{"d":"216,-131v1,85,2,93,81,92v56,-1,149,6,188,-5v50,-13,63,-60,79,-116r20,0r-17,160r-571,0r0,-21v62,0,119,0,128,-45v2,-11,3,-34,3,-69r0,-397v-2,-53,4,-70,-15,-94v-15,-18,-54,-23,-94,-21r0,-20r515,0r9,149r-20,0v-5,-37,-13,-67,-27,-89v-20,-30,-33,-25,-92,-25r-187,0r0,267r154,0v53,-2,68,5,85,-21v8,-12,13,-33,16,-60r20,0r0,205r-20,0v-5,-41,-12,-70,-40,-81v-51,-7,-152,-3,-215,-4r0,195","w":630},"F":{"d":"490,-256v-8,-67,-23,-82,-104,-82r-171,0r0,203v2,61,-5,68,16,94v13,15,42,22,78,21r0,20r-261,0r0,-20v77,-9,78,-26,78,-115r0,-397v-3,-89,-2,-108,-80,-115r0,-20r481,0r0,126r-20,0v-5,-76,-29,-87,-119,-87r-173,0r0,251r176,0v74,4,91,-9,99,-68r18,0r0,189r-18,0","w":571},"G":{"d":"157,-328v0,177,116,319,279,318v56,0,111,-14,164,-41r0,-100v2,-87,-5,-112,-85,-115r-40,0r0,-20r289,0r0,19v-76,10,-75,27,-75,116r0,100v-52,35,-199,68,-286,68v-194,0,-349,-146,-346,-338v2,-115,51,-209,116,-268v112,-102,260,-117,439,-65v30,9,40,12,58,-1r15,0r0,174r-21,0v-20,-108,-93,-178,-217,-178v-182,-1,-290,141,-290,331","w":789},"H":{"d":"808,-647v-81,7,-82,24,-82,115r0,397v2,61,-6,68,16,94v14,16,44,22,81,21r0,20r-303,0r0,-20v57,1,110,0,114,-48v6,-68,2,-175,3,-251r-421,0r0,184v2,61,-6,68,16,94v13,15,40,22,74,21r0,20r-270,0r0,-20v50,1,79,-12,88,-46v2,-9,3,-32,3,-69r0,-397v-3,-89,0,-106,-77,-115r0,-20r255,0r0,20v-50,-1,-82,12,-87,47v-8,59,-1,174,-2,245r421,0r0,-177v7,-93,-15,-117,-105,-115r0,-20r276,0r0,20","w":852},"I":{"d":"307,-647v-80,1,-91,26,-91,115r0,397v2,61,-6,68,16,94v13,15,40,22,75,21r0,20r-260,0r0,-20v79,-7,80,-25,80,-115r0,-397v-3,-90,0,-108,-80,-115r0,-20r260,0r0,20","w":342},"J":{"d":"-77,151v22,0,83,57,110,51v49,2,78,-45,83,-89v3,-22,4,-69,4,-140r0,-505v-2,-61,5,-68,-16,-94v-14,-16,-45,-22,-82,-21r0,-20r270,0r0,20v-81,6,-83,24,-83,115r0,342v0,79,-2,135,-6,170v-11,85,-36,152,-74,200v-38,48,-85,72,-141,72v-48,0,-103,-19,-105,-58v-1,-21,19,-43,40,-43","w":329},"K":{"d":"486,-613v0,-37,-26,-30,-74,-34r0,-20r281,0r0,20v-54,1,-92,8,-113,21v-21,13,-47,43,-79,92v-57,86,-112,147,-163,184v13,3,31,14,55,36v51,47,119,121,203,223v43,53,65,71,156,71r0,20r-315,0r0,-20v47,-1,70,-11,70,-31v0,-12,-17,-37,-51,-76v-68,-78,-123,-133,-166,-164v-22,-16,-45,-23,-74,-19r0,175v2,61,-5,68,16,94v14,16,47,22,84,21r0,20r-294,0r0,-20v54,2,94,-7,102,-46v2,-9,3,-32,3,-69r0,-397v-2,-61,5,-68,-16,-94v-14,-17,-50,-23,-89,-21r0,-20r289,0r0,20v-50,-1,-88,10,-93,46v-9,69,-1,191,-2,271v76,-15,109,-54,163,-114v72,-80,107,-137,107,-169","w":750},"L":{"d":"216,-101v2,58,-2,62,55,62v61,0,161,6,200,-11v22,-9,72,-76,96,-107r19,0r-82,157r-480,0r0,-19r20,0v86,-4,83,-22,83,-121r0,-392v-2,-61,5,-68,-16,-94v-13,-16,-47,-22,-84,-21r0,-20r317,0r0,20v-38,2,-110,4,-116,19v-8,10,-12,40,-12,91r0,436","w":594},"M":{"d":"151,-89v1,53,29,66,85,69r0,20r-223,0r0,-20v91,-4,88,-20,94,-115r27,-457v-1,-44,-20,-52,-66,-55r0,-20r162,0r259,542r257,-542r158,0r0,20v-53,7,-73,0,-70,49r32,460v7,65,-2,75,17,102v9,13,43,17,78,16r0,20r-276,0r0,-20v64,-1,99,-14,95,-73r-32,-479r-269,572r-24,0r-275,-572r-27,430v-1,21,-2,39,-2,53","w":983},"N":{"d":"857,-647v-94,9,-97,0,-97,97r0,557r-28,0r-556,-581r0,433v3,106,2,118,101,120r7,1r0,20r-249,0r0,-20v55,-1,91,-9,91,-59r1,-541v-22,-17,-52,-26,-90,-27r0,-20r169,0r505,527r0,-393v0,-101,-6,-109,-105,-114r0,-20r251,0r0,20","w":886},"O":{"d":"826,-349v0,203,-176,366,-382,366v-87,0,-165,-24,-237,-68v-138,-85,-191,-253,-119,-418v55,-127,195,-215,358,-215v199,0,380,141,380,335xm416,-659v-160,0,-259,147,-259,306v0,187,126,345,306,345v161,0,263,-146,263,-310v0,-187,-129,-341,-310,-341","w":882},"P":{"d":"216,-135v0,92,7,110,86,115r36,0r0,20r-298,0r0,-20r15,-1v45,-2,71,-3,71,-39r1,-497v-2,-47,3,-55,-11,-76v-14,-21,-50,-11,-93,-14r0,-20v97,-7,175,-10,235,-10v101,0,173,12,214,35v63,35,95,87,95,154v2,165,-175,233,-351,197r0,156xm467,-490v-3,-114,-59,-171,-185,-168v-23,0,-45,2,-66,6r0,341v140,36,254,-49,251,-179","w":605},"Q":{"d":"826,-349v-2,182,-130,320,-287,355v33,11,86,49,159,112v58,50,112,75,161,76r-17,23v-55,15,-109,4,-158,-17v-51,-21,-160,-118,-208,-150v-19,-13,-42,-25,-67,-34v-191,-13,-352,-145,-352,-339v0,-206,178,-361,389,-361v202,0,383,141,380,335xm417,-659v-160,0,-259,147,-259,306v0,185,127,345,305,345v161,0,263,-143,263,-310v0,-187,-128,-341,-309,-341","w":882},"R":{"d":"580,-487v-1,90,-64,153,-141,175v102,77,200,210,301,270v36,21,75,32,116,35r0,19v-121,1,-200,-10,-259,-63v-19,-17,-53,-48,-98,-93v-78,-77,-130,-124,-155,-139v-45,4,-89,4,-128,1r0,147v2,61,-5,68,16,94v15,19,55,23,95,21r0,20r-305,0r0,-20v54,2,94,-7,102,-46v2,-9,3,-32,3,-69r0,-398v4,-92,-11,-114,-104,-114r0,-20v179,-10,371,-28,474,34v56,34,83,83,83,146xm267,-299v141,3,212,-52,212,-180v0,-119,-70,-179,-211,-179v-16,0,-33,1,-52,3r0,353v18,2,35,3,51,3","w":826},"S":{"d":"257,17v-36,0,-105,-28,-150,-28v-9,0,-15,4,-20,11r-18,0r-22,-163r21,0v25,90,84,148,180,151v76,2,149,-52,149,-124v0,-47,-35,-92,-66,-114v-13,-10,-39,-28,-79,-53v-65,-42,-112,-75,-139,-100v-40,-36,-60,-78,-60,-125v-1,-94,90,-156,191,-156v45,0,108,27,146,27v6,0,12,-3,19,-10r16,0r19,136r-19,0v-24,-68,-89,-127,-173,-128v-64,-2,-119,40,-119,101v0,48,47,97,82,120v13,9,39,26,78,51v71,45,119,83,145,114v26,31,39,66,39,107v1,110,-104,183,-220,183","w":525},"T":{"d":"592,-667v43,-2,52,5,64,-17r19,0r17,174r-19,0v-12,-62,-18,-96,-53,-115v-55,-6,-149,-2,-213,-3r0,493v2,61,-4,67,16,94v16,20,63,22,105,21r0,20r-333,0r0,-20v58,2,113,-2,121,-46v2,-9,2,-32,2,-69r0,-493r-163,0v-51,1,-55,-2,-75,25v-12,17,-21,48,-28,93r-19,0r17,-174r19,0v12,23,21,17,64,17r459,0","w":725},"U":{"d":"842,-647v-88,9,-98,35,-98,141r0,192v0,61,-2,103,-7,125v-26,122,-145,206,-309,206v-154,0,-272,-67,-302,-193v-21,-87,-6,-247,-9,-357v-3,-102,3,-110,-92,-115r0,-19r276,0r0,20v-50,-1,-88,10,-93,46v-9,73,-1,198,-2,282v0,54,2,91,6,112v22,106,111,168,239,168v139,0,243,-64,243,-191r1,-271v1,-108,-4,-141,-105,-146r0,-20r252,0r0,20","w":861},"V":{"d":"563,-602v0,-44,-43,-43,-100,-45r0,-20r248,0r0,20v-77,6,-91,42,-118,112r-213,554r-54,0r-228,-569v-17,-42,-31,-69,-44,-80v-13,-11,-35,-17,-66,-17r0,-20r295,0r0,20v-39,1,-67,5,-83,12v-16,7,-25,17,-25,32v0,10,6,30,18,59r182,451r169,-442v13,-33,19,-55,19,-67","w":704},"W":{"d":"259,-647v-42,0,-75,2,-76,37v0,10,7,33,21,68r180,454r116,-287r-79,-192v-28,-61,-39,-77,-118,-80r0,-20r440,0r0,20v-82,3,-90,16,-116,80r-59,144r141,335r176,-464v13,-35,20,-56,20,-61v0,-12,-5,-20,-17,-25v-12,-5,-34,-8,-65,-9r0,-20r222,0r0,20v-82,4,-86,26,-113,97r-216,569r-51,0r-140,-334r-135,334r-53,0r-216,-553v-19,-49,-37,-80,-53,-93v-16,-13,-45,-20,-87,-20r0,-20r278,0r0,20xm543,-483v16,-42,47,-98,54,-141v5,-29,-47,-23,-77,-23v-47,0,-39,21,-22,59","w":1039},"X":{"d":"506,-20v44,-5,68,4,68,-28v0,-14,-11,-34,-33,-61r-158,-195r-171,205v-19,22,-28,39,-28,52v0,9,6,15,17,19v11,4,33,7,64,8r0,20r-254,0r0,-20v37,-3,66,-11,87,-25v21,-14,51,-44,90,-90r169,-201r-169,-210v-34,-42,-62,-69,-83,-81v-21,-12,-53,-19,-95,-20r0,-20r321,0r0,20v-33,1,-56,3,-68,7v-20,5,-22,24,-13,40v4,6,14,19,30,38r130,160r106,-127v39,-46,58,-77,58,-93v-1,-26,-39,-25,-75,-25r0,-20r258,0r0,20v-39,1,-72,11,-99,29v-67,47,-159,176,-221,249r202,251v32,40,57,65,75,76v18,11,47,19,88,22r0,20r-296,0r0,-20","w":805},"Y":{"d":"552,-611v-1,-33,-32,-35,-71,-35r0,-21r243,0r0,21v-37,3,-66,12,-86,28v-20,16,-44,48,-72,95r-155,262r0,126v2,61,-5,68,16,94v13,16,47,22,84,21r0,20r-295,0r0,-20v53,2,97,-7,104,-46v6,-35,1,-134,2,-183r-190,-297v-28,-43,-51,-71,-68,-82v-17,-11,-43,-17,-79,-18r0,-21r286,0r0,21v-106,4,-85,29,-42,95r155,239r135,-227v22,-37,33,-61,33,-72","w":733},"Z":{"d":"43,0r0,-25r482,-603r-289,0v-66,2,-84,-5,-107,27v-10,14,-16,43,-21,85r-20,0r6,-151r552,0r0,24r-485,604r344,0v77,-1,100,-5,122,-48v7,-15,16,-51,29,-107r18,0r-12,194r-619,0","w":726},"[":{"d":"167,-611r1,791v4,40,90,23,135,30r0,20r-207,0r0,-930r207,0r0,20v-40,3,-111,-4,-129,15v-5,5,-7,24,-7,54","w":324},"\\":{"d":"261,239r-215,-947r40,0r215,947r-40,0","w":302},"]":{"d":"155,180r1,-791v2,-60,-2,-65,-61,-67r-75,-2r0,-20r207,0r0,930r-207,0r0,-20v45,-7,135,11,135,-30","w":324},"^":{"d":"-25,-286r277,-414r6,0r266,414r-38,0r-202,-312r-209,312r-100,0","w":500},"_":{"d":"0,88r500,0r0,43r-500,0r0,-43","w":500},"`":{"d":"332,-524r-241,-180r119,0r138,180r-16,0","w":500},"a":{"d":"126,13v-54,0,-96,-36,-95,-88v0,-27,10,-47,28,-63v37,-32,149,-48,194,-83v-4,-57,11,-127,-21,-157v-18,-17,-36,-27,-58,-27v-34,0,-83,36,-60,72r-73,36v-3,-7,-4,-13,-4,-16v-1,-47,114,-127,159,-123v59,6,118,35,126,85v11,68,-5,232,6,294v2,12,12,18,25,18v14,0,31,-8,52,-23r5,15v-45,40,-80,60,-106,60v-31,0,-47,-22,-49,-65v-42,25,-67,65,-129,65xm163,-25v39,-2,53,-28,90,-47r0,-128v-15,9,-46,23,-93,42v-40,17,-60,40,-60,70v-1,34,29,65,63,63","w":414},"b":{"d":"489,-230v0,137,-113,243,-252,243v-41,0,-93,-7,-157,-20r0,-582v-2,-62,5,-55,-44,-65r-30,-5r0,-19r129,-43r16,0r0,362v73,-51,127,-77,164,-77v96,-2,174,105,174,206xm418,-200v0,-96,-58,-188,-146,-188v-32,0,-72,17,-121,51r0,148v2,71,-4,87,20,123v21,33,54,48,97,48v92,1,150,-84,150,-182","w":529},"c":{"d":"226,13v-112,0,-186,-98,-186,-207v0,-130,116,-243,247,-243v53,0,117,19,120,61v1,18,-15,32,-32,32v-17,0,-38,-11,-61,-34v-95,-96,-202,46,-202,159v0,98,60,190,151,188v68,-1,95,-30,131,-77r16,9v-45,75,-107,112,-184,112","w":449},"d":{"d":"210,13v-98,2,-171,-104,-171,-208v0,-129,105,-240,233,-237v36,0,72,7,107,21r0,-183v-2,-56,4,-53,-43,-61r-36,-4r0,-18r137,-44r13,0r0,604v3,46,-5,62,32,65r46,-11r0,22r-136,54r-13,0r0,-77v-73,51,-129,77,-169,77xm248,-403v-85,0,-138,84,-138,177v0,94,55,192,140,192v37,0,80,-17,129,-51r0,-237v-38,-54,-82,-81,-131,-81","w":536},"e":{"d":"227,13v-109,0,-189,-106,-187,-220v2,-89,47,-163,104,-201v66,-44,185,-38,228,23v13,11,34,71,52,88r0,17r-313,0v-24,126,47,239,159,240v51,0,97,-24,136,-71r12,13v-42,51,-106,111,-191,111xm334,-300v-8,-60,-46,-116,-108,-116v-65,0,-97,54,-112,116r220,0","w":458},"f":{"d":"443,-672v1,10,-22,55,-31,53v-2,0,-9,-5,-22,-14v-58,-41,-109,-58,-167,-21v-32,21,-48,60,-53,106v-2,17,-2,82,-2,123r109,0r7,47r-116,0r0,250v-1,83,-2,106,80,108r41,0r0,20r-265,0r0,-20v79,0,74,-29,73,-113r0,-245r-79,0r0,-18v31,-7,57,-16,79,-29v-4,-142,61,-216,143,-269v31,-20,62,-28,92,-28v34,0,108,25,111,50","w":291},"g":{"d":"136,16v-48,-4,-102,-31,-102,-76v0,-35,21,-39,54,-53v28,-12,46,-20,55,-26v-57,-21,-102,-63,-103,-133v-2,-94,90,-164,188,-164v50,0,90,14,120,42v49,-1,96,-4,141,-11r0,67v-48,-3,-84,-7,-107,-13v67,136,-68,254,-220,218v-5,11,-64,29,-64,55v0,17,21,27,63,32v20,3,62,3,126,5v89,2,142,7,174,57v44,68,9,128,-59,175v-59,39,-130,59,-214,59v-83,0,-167,-31,-167,-101v0,-41,19,-52,49,-75v33,-25,55,-45,66,-58xm111,-301v0,81,41,154,114,155v66,0,104,-57,104,-127v0,-75,-45,-144,-114,-144v-62,-1,-104,52,-104,116xm245,219v81,0,178,-54,178,-126v0,-33,-19,-54,-56,-62v-8,-2,-53,-4,-135,-7v-35,-1,-60,-2,-75,-4v-7,9,-22,24,-47,46v-15,13,-22,28,-22,45v0,61,88,108,157,108","w":485},"h":{"d":"296,-393v-57,0,-73,19,-125,46r0,213v2,61,-5,67,10,94v9,14,30,20,60,20r0,20r-214,0r0,-20v65,-5,73,-32,73,-113r-1,-498v0,-27,-43,-21,-73,-27r0,-19r129,-44r16,0r0,352v77,-45,137,-68,178,-68v49,0,83,19,100,57v30,66,13,215,13,318v0,42,32,41,81,42r0,20r-231,0r0,-20v42,1,67,-14,74,-44v10,-46,17,-247,-7,-284v-19,-29,-45,-45,-83,-45","w":557},"i":{"d":"183,-645v0,24,-22,41,-47,41v-27,0,-47,-16,-47,-42v0,-23,22,-40,47,-40v25,0,47,17,47,41xm178,-125v-3,83,7,96,77,105r0,20r-237,0r0,-20v73,-6,89,-15,89,-105r0,-179v-2,-63,-2,-52,-56,-67r-27,-6r0,-17r139,-48r15,0r0,317","w":279},"j":{"d":"173,-645v0,25,-22,41,-48,41v-27,0,-47,-16,-47,-42v0,-24,22,-40,48,-40v25,0,47,17,47,41xm-121,194v-1,-22,13,-50,32,-50v10,0,31,12,60,39v32,28,68,36,99,9v12,-11,23,-26,25,-46v12,-107,5,-321,5,-450v0,-62,-1,-53,-55,-67r-29,-6r0,-17r139,-48r16,0r0,420v-1,102,-5,143,-44,200v-33,48,-80,72,-139,72v-47,0,-106,-19,-109,-56","w":261},"k":{"d":"27,-20v66,-2,73,-34,73,-113r-1,-496v-4,-22,-11,-17,-43,-25r-31,-5r0,-19r130,-43r16,0r0,465r143,-100v19,-13,29,-24,29,-31v0,-13,-24,-19,-57,-18r0,-20r213,0r0,20v-86,6,-110,28,-177,76r-87,62r172,176v50,48,54,64,127,71r0,20r-230,0r0,-20v63,-2,55,-23,22,-57r-155,-160r0,113v2,59,-6,65,12,89v10,12,35,16,62,15r0,20r-218,0r0,-20","w":538},"l":{"d":"11,0r0,-20v48,1,79,-12,87,-46v1,-8,2,-32,2,-71r-1,-492v1,-31,-49,-22,-80,-30r0,-18r136,-44r16,0r0,576v0,49,1,78,3,88v7,27,36,39,78,37r0,20r-241,0","w":261},"m":{"d":"758,-69v-2,51,37,48,92,49r0,20r-241,0r0,-20v48,0,69,-4,75,-47v6,-49,14,-238,-6,-280v-14,-31,-37,-46,-69,-46v-37,0,-85,21,-144,62r0,197v2,60,-6,68,10,94v9,15,30,21,58,20r0,20r-219,0r0,-20v42,2,74,-13,78,-50v7,-61,3,-192,0,-256v-2,-40,-33,-67,-77,-68v-31,0,-79,21,-144,62r0,198v2,61,-5,67,10,94v8,14,34,21,66,20r0,20r-223,0r0,-20v39,1,70,-15,74,-50v6,-53,2,-148,2,-211v0,-79,7,-81,-53,-91r-20,-2r0,-18r128,-46r16,0r0,86v84,-56,148,-84,193,-84v54,0,90,37,99,85v89,-57,153,-85,194,-85v43,0,75,19,91,59v24,60,14,203,10,308","w":853},"n":{"d":"313,-387v-30,-2,-117,45,-142,64r0,189v2,61,-5,67,10,94v9,14,31,21,62,20r0,20r-215,0r0,-20v37,1,66,-16,70,-50v6,-50,2,-144,2,-204v0,-87,13,-76,-52,-96r-17,-4r0,-16r124,-46r16,0r0,93v81,-58,144,-87,189,-87v41,0,74,18,92,58v35,76,16,181,11,307v-2,45,34,44,84,45r0,20r-231,0r0,-20v41,-4,58,-7,70,-36v10,-24,14,-94,14,-209v1,-76,-23,-118,-87,-122","w":562},"o":{"d":"274,13v-128,0,-234,-95,-234,-227v0,-124,105,-222,230,-222v127,0,232,100,232,226v0,123,-104,223,-228,223xm256,-411v-82,-1,-136,79,-136,167v0,112,66,231,166,232v82,0,136,-83,136,-172v0,-108,-69,-227,-166,-227","w":542},"p":{"d":"7,230v78,-3,84,-19,83,-116r-1,-440v-1,-13,-3,-20,-9,-24v-6,-4,-24,-10,-55,-17r0,-21r115,-70r21,0r0,103v72,-52,128,-78,167,-78v87,-2,159,106,159,200v0,123,-107,244,-228,240v-26,0,-59,-7,-98,-21r0,128v2,59,-5,71,16,97v15,19,48,20,83,19r0,20r-253,0r0,-20xm416,-192v0,-93,-56,-189,-141,-189v-35,0,-73,18,-114,53r0,242v43,39,85,59,128,59v78,0,127,-80,127,-165"},"q":{"d":"215,8v-105,1,-175,-98,-175,-209v0,-126,102,-235,227,-235v43,0,88,12,135,36v11,-15,22,-27,35,-35r18,0v-4,17,-6,56,-6,119r0,431v2,59,-5,71,16,96v13,15,31,20,58,19r0,20r-260,0r0,-20r42,0v71,-6,72,-23,73,-115r0,-181v-57,49,-112,74,-163,74xm256,-411v-93,0,-145,81,-145,181v0,99,59,193,150,193v37,0,76,-18,117,-54r0,-135v-1,-73,2,-96,-23,-134v-23,-35,-57,-51,-99,-51","w":525},"r":{"d":"246,-368v-37,0,-55,52,-75,81r0,153v2,61,-4,67,10,94v11,22,62,21,101,20r0,20r-253,0r0,-20v37,1,66,-16,69,-50v7,-77,1,-194,2,-279r-71,-26r0,-18r121,-43r21,0r0,113v24,-36,59,-111,104,-107v30,3,48,15,92,25r-26,65v-27,-2,-66,-28,-95,-28","w":358},"s":{"d":"177,13v-21,0,-53,-8,-77,-15v-7,0,-12,5,-17,14r-17,0r-11,-120r17,0v9,60,49,100,101,102v41,1,77,-32,76,-72v0,-18,-8,-35,-22,-53v-23,-31,-136,-98,-155,-125v-11,-16,-18,-35,-18,-59v-1,-73,62,-123,138,-121v31,0,60,5,85,16r3,99r-19,0v-7,-47,-36,-89,-85,-90v-36,-1,-67,26,-66,61v0,17,6,33,18,46v23,29,127,87,149,113v21,25,33,51,33,82v1,69,-62,122,-133,122","w":344},"t":{"d":"38,-395v45,-22,84,-82,102,-136r18,0r0,106r153,0r-17,47r-136,0r0,199v2,62,-5,80,16,109v38,53,89,41,121,-21r17,15v-26,59,-65,89,-117,89v-51,0,-99,-39,-105,-91v-9,-81,-2,-209,-3,-300r-49,0r0,-17","w":319},"u":{"d":"203,13v-54,0,-103,-33,-110,-83v-11,-75,-3,-182,-3,-266v0,-45,-31,-43,-67,-54r0,-16r138,-30r0,251v2,63,-4,77,16,109v17,26,44,38,81,38v39,0,81,-20,128,-60r0,-199v-3,-79,4,-84,-62,-93r-32,-5r0,-15r165,-26r0,359v3,37,12,38,49,30r23,-3r0,19r-143,44r0,-87v-79,58,-140,87,-183,87","w":558},"v":{"d":"226,9r-141,-325v-17,-39,-30,-62,-39,-71v-9,-9,-27,-15,-56,-18r0,-20r219,0r0,20v-26,1,-45,3,-55,7v-10,4,-15,11,-15,20v0,7,6,25,19,54r105,246r102,-232v30,-60,17,-90,-62,-95r0,-20r187,0r0,20v-68,20,-68,38,-100,112r-132,302r-32,0","w":483},"w":{"d":"662,-368v-3,-38,-25,-32,-71,-37r0,-20r180,0r0,20v-26,3,-45,12,-58,27v-13,15,-29,47,-49,97r-118,290r-30,0r-128,-302r-128,302r-30,0r-144,-324v-17,-37,-30,-61,-40,-71v-10,-10,-29,-16,-56,-19r0,-20r208,0r0,20v-72,7,-66,26,-41,80r111,250r106,-250v-27,-57,-34,-75,-105,-80r0,-20r222,0r0,20v-33,2,-53,5,-55,33v0,9,5,26,16,53r99,239r87,-213v16,-39,24,-64,24,-75","w":764},"x":{"d":"139,-55v4,30,32,30,69,36r0,19r-200,0r0,-20v78,-10,77,-20,128,-78r96,-108r-90,-118v-46,-53,-51,-74,-127,-81r0,-20r217,0r0,19v-20,0,-50,1,-48,18v13,33,70,99,94,133v24,-28,89,-98,88,-121v-2,-28,-21,-28,-55,-30r0,-19r207,0r0,20v-38,3,-65,10,-82,20v-25,15,-108,106,-144,147v48,58,119,160,168,200v13,11,34,16,59,18r0,20r-215,0r0,-19v45,4,60,-17,38,-46r-94,-124v-31,37,-89,97,-109,134","w":525},"y":{"d":"122,250v-22,1,-43,-15,-43,-37v0,-19,16,-35,48,-42v69,-16,77,-95,109,-160r-148,-315v-21,-43,-37,-70,-48,-82v-11,-12,-30,-18,-55,-19r0,-20r216,0r0,20v-42,1,-63,11,-63,30v0,7,8,29,25,65r108,232r79,-199v18,-44,27,-73,27,-86v-2,-37,-25,-38,-67,-42r0,-20r178,0r0,20v-26,4,-45,15,-58,31v-13,16,-31,52,-53,107r-139,348v-28,71,-48,116,-62,136v-16,22,-34,33,-54,33","w":483},"z":{"d":"98,-454v2,30,15,29,51,29r256,0r0,19r-272,367r170,0v49,-1,50,3,71,-22v11,-13,20,-32,30,-56r19,0r-44,117r-345,0r0,-20r271,-366r-147,0v-40,2,-45,-6,-58,12v-13,17,-23,48,-33,91r-20,0r33,-171r18,0","w":436},"{":{"d":"291,230v-139,1,-184,-17,-184,-139r0,-191v-3,-76,8,-91,-20,-122v-11,-12,-33,-18,-64,-20r0,-15v45,-3,76,-14,81,-47v9,-58,2,-187,3,-260v1,-82,30,-126,99,-134v12,-2,64,-2,100,-2r0,20v-93,0,-131,28,-131,110r0,221v0,54,-25,87,-76,98r0,3v56,12,76,46,76,115r0,232v2,89,38,110,131,111r0,20r-15,0","w":324},"|":{"d":"223,167r0,-834r54,0r0,834r-54,0","w":500},"}":{"d":"17,210v93,-1,131,-22,131,-111r0,-232v0,-69,20,-103,76,-115r0,-3v-51,-11,-76,-44,-76,-98r0,-221v-2,-83,-41,-111,-131,-110r0,-20v18,1,38,1,57,1v103,-5,142,41,142,135r0,178v3,72,-9,81,18,108v12,13,36,19,67,21r0,15v-87,10,-85,36,-85,143r0,190v0,128,-55,141,-199,139r0,-20","w":324},"~":{"d":"228,-671v-52,5,-55,21,-91,58r-14,-9v39,-65,85,-97,138,-97v27,0,138,40,170,40v36,0,69,-18,98,-55r14,9v-25,47,-76,91,-136,96v-19,1,-148,-45,-179,-42","w":667},"\u00a0":{"w":250},"\u00a1":{"d":"195,-385v0,30,-25,50,-56,50v-31,0,-55,-21,-55,-51v0,-29,26,-50,55,-50v32,0,56,20,56,51xm115,243v-29,1,-28,-8,-26,-36r42,-470r17,0r42,489v-1,18,-7,16,-27,17r-48,0","w":279},"\u00a2":{"d":"308,-31v69,0,94,-32,131,-78r16,10v-56,90,-134,131,-244,103r-70,176r-22,0r73,-183v-61,-27,-107,-106,-107,-192v-1,-140,127,-263,280,-239r56,-138r21,0r-57,142v45,11,67,29,67,54v0,19,-15,32,-34,32v-30,0,-34,-16,-54,-32r-130,324v22,14,47,21,74,21xm296,-410v-81,0,-139,101,-139,191v0,65,20,116,60,154r131,-325v-15,-13,-33,-20,-52,-20"},"\u00a3":{"d":"346,26v-75,0,-123,-107,-189,-109v-17,0,-37,5,-60,14v-29,63,-60,95,-92,95v-17,0,-25,-8,-25,-23v0,-30,31,-62,92,-95v9,-19,27,-68,56,-149r-127,0r5,-26r132,0v54,-141,74,-204,138,-298v53,-77,111,-114,170,-114v39,0,91,26,91,60v0,19,-19,33,-39,33v-42,0,-41,-54,-82,-55v-23,0,-42,11,-58,34v-35,49,-142,336,-151,340r141,0r-5,26r-149,0v-24,48,-50,94,-77,137v51,-18,90,-20,135,-2v21,9,104,86,139,88v26,1,56,-29,56,-55v0,-23,-32,-45,-32,-65v0,-19,17,-36,35,-36v28,0,43,31,43,62v0,70,-76,138,-147,138"},"\u00a4":{"d":"66,-109r-21,-21r66,-66v-64,-75,-64,-187,0,-261r-66,-66r21,-22r67,67v73,-65,188,-65,260,0r67,-67r21,22r-66,66v64,75,64,185,0,261r66,66r-21,21r-66,-66v-76,64,-185,64,-262,0xm119,-327v0,76,67,144,142,144v78,0,146,-66,146,-143v0,-78,-66,-145,-144,-145v-76,0,-144,68,-144,144"},"\u00a5":{"d":"193,-647v-26,2,-56,5,-53,16v2,9,37,87,47,110r164,0r18,-44v13,-33,20,-53,20,-59v1,-17,-20,-24,-49,-23r0,-20r181,0r0,20v-78,7,-101,61,-127,126r90,0r0,26r-100,0r-41,101r141,0r0,26r-151,0r-37,93r0,162v2,49,-4,55,13,76v10,13,37,18,67,17r0,20r-236,0r0,-20v71,-1,85,-12,85,-93r0,-153r-47,-102r-163,0r0,-26r151,0r-46,-101r-105,0r0,-26r93,0r-23,-50v-23,-50,-58,-75,-107,-76r0,-20r215,0r0,20xm275,-324r66,-171r-143,0"},"\u00a6":{"d":"223,-332r0,-335r54,0r0,335r-54,0xm223,-153r54,0r0,320r-54,0r0,-320","w":500},"\u00a7":{"d":"83,169v-2,-26,33,-44,56,-29v6,4,15,12,27,25v25,28,53,42,84,42v46,0,100,-41,99,-84v0,-19,-6,-39,-17,-59v-11,-20,-41,-65,-89,-132v-67,-94,-112,-168,-137,-220v-25,-52,-37,-102,-37,-151v0,-137,109,-270,241,-270v52,0,134,30,137,71v1,27,-37,44,-61,28v-6,-4,-18,-14,-33,-29v-25,-25,-50,-38,-75,-38v-51,-2,-99,38,-98,87v0,16,8,37,22,63v14,26,41,66,80,120v80,112,130,192,149,241v41,99,41,219,-21,298v-43,55,-110,103,-195,105v-53,2,-129,-26,-132,-68xm290,-75v57,82,88,144,93,185v61,-84,30,-230,-13,-304v-31,-53,-173,-258,-192,-296v-15,-31,-28,-60,-34,-90v-23,37,-35,81,-35,133v0,59,23,128,70,206v17,28,54,83,111,166"},"\u00a8":{"d":"401,-601v0,24,-22,48,-47,48v-26,0,-48,-22,-48,-48v0,-25,22,-47,47,-47v26,0,48,21,48,47xm193,-601v0,24,-22,48,-47,48v-26,0,-48,-22,-48,-48v0,-25,22,-47,48,-47v26,0,47,22,47,47","w":500},"\u00a9":{"d":"404,17v-184,0,-347,-165,-347,-350v0,-188,164,-351,353,-351v191,0,352,162,352,353v0,190,-166,348,-358,348xm410,-654v-172,0,-318,149,-318,321v0,167,146,320,312,320v175,0,323,-144,323,-318v0,-173,-145,-323,-317,-323xm411,-159v-104,0,-192,-70,-192,-171v0,-105,90,-181,199,-178v33,0,65,5,97,17v16,6,20,1,37,1r6,80r-14,0v-15,-46,-65,-82,-124,-82v-86,0,-146,64,-146,151v0,88,67,163,153,163v57,0,101,-25,132,-76r14,0v-6,24,-18,51,-37,82v-26,-8,-89,13,-125,13","w":818},"\u00aa":{"d":"69,-602v-2,-29,67,-75,99,-75v31,0,56,10,71,34v21,33,4,144,13,193v2,6,6,9,13,9v8,0,19,-5,32,-15r5,13v-29,25,-51,37,-67,37v-18,0,-29,-13,-33,-38v-20,16,-44,38,-77,38v-33,0,-61,-23,-60,-55v1,-67,92,-55,136,-87r0,-50v2,-35,-20,-57,-46,-57v-21,0,-49,19,-34,43r-48,22v-3,-5,-4,-9,-4,-12xm111,-468v0,20,17,37,37,36v6,2,39,-19,53,-28r0,-71v-29,16,-89,27,-90,63xm40,-311r0,-27r267,0r0,27r-267,0","w":347},"\u00ab":{"d":"195,-38r-159,-197r159,-199r19,0r-103,199r103,197r-19,0xm188,-235r125,-181r18,0r-67,181r67,178r-18,0","w":380},"\u00ac":{"d":"36,-226r0,-41r429,0r0,267r-94,0r0,-226r-335,0","w":500},"\u00ad":{"d":"35,-175r0,-72r350,0r0,72r-350,0","w":425},"\u00ae":{"d":"404,17v-184,0,-347,-165,-347,-350v0,-188,164,-351,353,-351v191,0,352,162,352,353v0,190,-166,348,-358,348xm410,-654v-172,0,-318,149,-318,321v0,167,146,320,312,320v175,0,323,-144,323,-318v0,-173,-145,-323,-317,-323xm321,-236v-3,53,11,55,56,55r0,14r-159,0r0,-14v44,0,54,-3,54,-55r0,-196v0,-51,-4,-53,-53,-54r0,-14v43,-3,87,-5,130,-5v91,-2,157,24,157,96v0,50,-23,66,-70,87v34,23,108,107,152,131v18,10,38,16,59,17r0,13v-111,0,-118,-14,-186,-77v-43,-40,-69,-63,-78,-69v-16,2,-45,2,-62,1r0,70xm321,-320v80,10,130,-19,130,-85v0,-65,-53,-95,-130,-85r0,170","w":818},"\u00af":{"d":"101,-576r0,-51r295,0r0,51r-295,0","w":500},"\u00b0":{"d":"240,-577v0,53,-46,100,-99,100v-55,0,-101,-47,-101,-101v0,-54,47,-99,101,-99v53,0,99,47,99,100xm64,-578v0,40,36,76,76,76v40,0,76,-35,76,-74v0,-42,-35,-77,-77,-77v-40,0,-75,35,-75,75","w":280},"\u00b1":{"d":"247,-131r0,-194r-204,0r0,-33r204,0r0,-194r33,0r0,194r203,0r0,33r-203,0r0,194r-33,0xm43,-51r0,-33r440,0r0,33r-440,0"},"\u00b2":{"d":"223,-435v57,-2,58,-2,68,-50r14,0r-13,93r-265,0r0,-13v20,-24,61,-65,121,-123v58,-57,87,-107,87,-149v0,-45,-39,-85,-84,-84v-52,1,-90,40,-102,86r-14,0v6,-71,59,-127,134,-127v67,0,124,49,123,115v0,32,-9,61,-31,85v-40,43,-134,110,-186,167r148,0","w":338},"\u00b3":{"d":"297,-534v2,80,-85,151,-168,151v-42,0,-97,-16,-100,-48v0,-12,11,-23,23,-23v8,0,21,7,40,22v24,19,44,28,60,28v51,1,92,-58,92,-113v0,-65,-63,-115,-115,-69r-9,-13v61,-42,91,-79,91,-110v1,-31,-31,-57,-62,-56v-40,1,-72,31,-87,62r-15,-5v19,-50,63,-93,124,-94v45,-1,90,30,88,73v-2,46,-28,61,-63,88v65,5,99,46,101,107","w":338},"\u00b4":{"d":"147,-524r138,-180r119,0r-241,180r-16,0","w":500},"\u00b5":{"d":"386,-117v2,48,0,73,38,76v10,0,20,-4,31,-11r0,16r-81,46v-33,9,-50,-38,-55,-83v-37,36,-65,60,-85,71v-20,11,-43,17,-69,17v-54,0,-90,-30,-109,-89v-7,57,14,141,18,214v2,26,-14,50,-38,50v-22,0,-39,-23,-38,-47v0,-12,2,-32,7,-60v27,-143,30,-329,28,-508r72,0r0,254v-3,85,17,139,88,139v45,0,85,-26,122,-79r0,-314r71,0r0,308","w":445},"\u00b6":{"d":"165,213v79,-7,80,-25,80,-115r0,-383v-132,10,-208,-82,-208,-206v0,-125,67,-209,202,-209r271,0r0,20v-79,7,-80,25,-80,115r0,663v3,90,0,108,80,115r0,20r-345,0r0,-20xm290,201r96,0r0,-869r-96,0r0,869"},"\u00b7":{"d":"194,-304v0,28,-26,54,-54,54v-30,0,-54,-25,-54,-55v0,-29,26,-53,54,-53v28,0,54,26,54,54","w":279},"\u00b8":{"d":"198,200v42,19,85,-10,85,-50v0,-26,-12,-39,-36,-39v-15,0,-37,7,-66,22r83,-139r16,0r-34,58v49,-4,83,36,83,81v1,66,-72,114,-138,82","w":500},"\u00b9":{"d":"200,-446v2,34,-6,38,25,38r35,0r0,16r-168,0r0,-16r27,0v36,-1,33,1,33,-36r0,-301v-26,21,-53,38,-80,51r-8,-12v21,-12,98,-77,110,-96r26,0r0,356","w":338},"\u00ba":{"d":"316,-541v0,75,-65,135,-141,135v-81,0,-145,-58,-145,-137v0,-75,66,-134,143,-134v78,0,143,59,143,136xm83,-561v0,66,40,136,99,136v47,0,81,-48,81,-99v0,-64,-41,-134,-99,-134v-49,0,-81,45,-81,97xm39,-311r0,-27r268,0r0,27r-268,0","w":347},"\u00bb":{"d":"166,-38r103,-197r-103,-199r20,0r158,199r-158,197r-20,0xm49,-57r67,-178r-67,-181r19,0r124,181r-124,178r-19,0","w":380},"\u00bc":{"d":"200,-321v2,35,-6,37,25,38r35,0r0,16r-168,0r0,-16r27,0v36,-1,33,1,33,-36r0,-301v-26,21,-53,38,-80,51r-8,-12v21,-12,98,-77,110,-96r26,0r0,356xm182,0r419,-667r42,0r-419,667r-42,0xm477,-116r0,-17r194,-277r22,0r0,258r65,0r0,36r-65,0r0,125r-48,0r0,-125r-168,0xm513,-152r132,0r0,-189","w":786},"\u00bd":{"d":"200,-321v2,35,-6,37,25,38r35,0r0,16r-168,0r0,-16r27,0v36,-1,33,1,33,-36r0,-301v-26,21,-53,38,-80,51r-8,-12v21,-12,98,-77,110,-96r26,0r0,356xm156,0r418,-667r42,0r-418,667r-42,0xm670,-43v57,-2,58,-2,68,-50r14,0r-13,93r-265,0r0,-13v17,-21,58,-62,121,-124v58,-57,87,-107,87,-150v0,-45,-39,-85,-84,-84v-51,1,-91,42,-102,87r-14,0v6,-71,59,-127,134,-127v67,0,124,49,123,115v0,32,-9,61,-31,85v-40,44,-133,110,-186,168r148,0","w":786},"\u00be":{"d":"297,-409v2,80,-85,151,-168,151v-42,0,-97,-16,-100,-48v0,-12,11,-23,23,-23v8,0,21,7,40,22v24,19,44,28,60,28v51,1,92,-58,92,-113v0,-65,-63,-115,-115,-69r-9,-13v61,-42,91,-79,91,-110v1,-31,-31,-57,-62,-56v-40,1,-72,31,-87,62r-15,-5v19,-50,63,-93,124,-94v45,-1,90,30,88,73v-2,46,-28,61,-63,88v65,5,99,46,101,107xm176,0r418,-667r42,0r-418,667r-42,0xm478,-116r0,-17r193,-277r22,0r0,258r66,0r0,36r-66,0r0,125r-48,0r0,-125r-167,0xm514,-152r131,0r0,-189","w":786},"\u00bf":{"d":"267,-386v0,28,-26,50,-55,50v-30,0,-56,-21,-56,-51v0,-30,26,-51,56,-51v31,0,55,21,55,52xm229,250v-106,1,-189,-82,-186,-192v3,-110,55,-147,146,-182v71,-27,53,-72,7,-125r24,0v35,41,52,78,52,111v0,56,-31,71,-80,90v-38,15,-66,27,-82,39v-27,20,-41,47,-41,82v0,63,45,95,110,95v15,0,53,-7,83,-7v40,0,60,13,60,38v0,39,-45,51,-93,51","w":380},"\u00c0":{"d":"375,-725r-231,-147r139,0r108,147r-16,0xm3,0r0,-20v34,-1,58,-8,71,-20v13,-12,27,-41,44,-86r196,-534r-10,-24r93,0r205,544v20,54,36,87,48,100v12,13,36,20,69,20r0,20r-295,0r0,-20v60,-3,108,8,112,-37v0,-8,-5,-26,-16,-55r-69,-184r-222,0r-61,168v-15,41,-22,64,-22,69v0,20,17,31,50,36v5,1,23,2,54,3r0,20r-247,0xm248,-343r186,0r-95,-251","w":727},"\u00c1":{"d":"314,-725r108,-147r139,0r-231,147r-16,0xm3,0r0,-20v34,-1,58,-8,71,-20v13,-12,27,-41,44,-86r196,-534r-10,-24r93,0r205,544v20,54,36,87,48,100v12,13,36,20,69,20r0,20r-295,0r0,-20v60,-3,108,8,112,-37v0,-8,-5,-26,-16,-55r-69,-184r-222,0r-61,168v-15,41,-22,64,-22,69v0,20,17,31,50,36v5,1,23,2,54,3r0,20r-247,0xm248,-343r186,0r-95,-251","w":727},"\u00c2":{"d":"182,-724r131,-148r83,0r130,148r-18,0r-152,-92r-156,92r-18,0xm3,0r0,-20v34,-1,58,-8,71,-20v13,-12,27,-41,44,-86r196,-534r-10,-24r93,0r205,544v20,54,36,87,48,100v12,13,36,20,69,20r0,20r-295,0r0,-20v60,-3,108,8,112,-37v0,-8,-5,-26,-16,-55r-69,-184r-222,0r-61,168v-15,41,-22,64,-22,69v0,20,17,31,50,36v5,1,23,2,54,3r0,20r-247,0xm248,-343r186,0r-95,-251","w":727},"\u00c3":{"d":"253,-779v-36,3,-57,27,-60,62r-17,0v1,-84,59,-154,146,-125v11,0,114,56,152,56v35,0,56,-28,59,-63r15,0v4,75,-45,129,-105,133v-31,2,-159,-66,-190,-63xm3,0r0,-20v34,-1,58,-8,71,-20v13,-12,27,-41,44,-86r196,-534r-10,-24r93,0r205,544v20,54,36,87,48,100v12,13,36,20,69,20r0,20r-295,0r0,-20v60,-3,108,8,112,-37v0,-8,-5,-26,-16,-55r-69,-184r-222,0r-61,168v-15,41,-22,64,-22,69v0,20,17,31,50,36v5,1,23,2,54,3r0,20r-247,0xm248,-343r186,0r-95,-251","w":727},"\u00c4":{"d":"548,-784v0,28,-26,54,-54,54v-30,0,-54,-25,-54,-55v0,-29,26,-53,54,-53v28,0,54,26,54,54xm283,-784v0,29,-24,54,-54,54v-30,0,-54,-25,-54,-55v0,-29,26,-53,54,-53v30,0,54,25,54,54xm3,0r0,-20v34,-1,58,-8,71,-20v13,-12,27,-41,44,-86r196,-534r-10,-24r93,0r205,544v20,54,36,87,48,100v12,13,36,20,69,20r0,20r-295,0r0,-20v60,-3,108,8,112,-37v0,-8,-5,-26,-16,-55r-69,-184r-222,0r-61,168v-15,41,-22,64,-22,69v0,20,17,31,50,36v5,1,23,2,54,3r0,20r-247,0xm248,-343r186,0r-95,-251","w":727},"\u00c5":{"d":"361,-863v56,0,104,48,104,104v0,43,-20,75,-60,95r197,524v20,54,36,87,48,100v12,13,36,20,69,20r0,20r-295,0r0,-20v60,-3,108,8,112,-37v0,-8,-5,-26,-16,-55r-69,-184r-222,0r-61,168v-15,41,-22,64,-22,69v0,20,17,31,50,36v5,1,23,2,54,3r0,20r-247,0r0,-20v34,-1,57,-7,70,-19v13,-12,28,-41,45,-87r200,-538v-41,-20,-61,-52,-61,-95v0,-56,48,-104,104,-104xm285,-759v0,40,36,76,75,76v42,0,77,-34,77,-76v0,-40,-36,-76,-76,-76v-40,0,-76,36,-76,76xm248,-343r186,0r-95,-251","w":727},"\u00c6":{"d":"537,-120v3,71,3,81,72,81v57,0,146,7,187,-6v42,-13,63,-67,75,-115r19,0r-14,160r-566,0r0,-21v47,0,104,2,122,-22v20,-27,16,-33,16,-93r0,-129r-236,0r-93,151v-18,29,-27,49,-27,58v0,11,6,20,18,25v12,5,34,9,64,10r0,21r-230,0r0,-21v28,-2,50,-9,65,-21v15,-12,35,-39,60,-80r258,-425v23,-37,34,-60,34,-69v-1,-31,-29,-31,-68,-31r0,-20r547,0r9,149r-19,0v-14,-49,-20,-99,-54,-108v-5,-1,-20,-2,-43,-2r-196,0r0,263r148,0v82,-2,77,-9,94,-81r19,0r0,205r-19,0v-11,-66,-13,-85,-92,-85r-150,0r0,206xm235,-304r213,0r0,-336r-10,0","w":938},"\u00c7":{"d":"446,167v0,-28,-19,-43,-48,-43v-21,0,-51,8,-89,23r94,-131v-147,-10,-252,-80,-307,-180v-26,-48,-39,-102,-39,-161v-3,-210,170,-359,385,-359v63,0,126,13,190,35v29,10,34,14,55,3r17,0r9,154r-20,0v-31,-92,-128,-168,-245,-166v-181,4,-291,127,-291,310v0,179,131,336,305,336v120,0,212,-64,260,-156r21,0v-10,40,-48,125,-69,157v-7,-1,-14,-2,-22,-2v-42,2,-160,35,-227,30r-30,41v62,-5,112,34,112,89v0,79,-101,124,-184,92r9,-17v55,17,114,-7,114,-55","w":782},"\u00c8":{"d":"360,-725r-231,-147r139,0r108,147r-16,0xm216,-131v1,85,2,93,81,92v56,-1,149,6,188,-5v50,-13,63,-60,79,-116r20,0r-17,160r-571,0r0,-21v62,0,119,0,128,-45v2,-11,3,-34,3,-69r0,-397v-2,-53,4,-70,-15,-94v-15,-18,-54,-23,-94,-21r0,-20r515,0r9,149r-20,0v-5,-37,-13,-67,-27,-89v-20,-30,-33,-25,-92,-25r-187,0r0,267r154,0v53,-2,68,5,85,-21v8,-12,13,-33,16,-60r20,0r0,205r-20,0v-5,-41,-12,-70,-40,-81v-51,-7,-152,-3,-215,-4r0,195","w":630},"\u00c9":{"d":"265,-725r108,-147r139,0r-231,147r-16,0xm216,-131v1,85,2,93,81,92v56,-1,149,6,188,-5v50,-13,63,-60,79,-116r20,0r-17,160r-571,0r0,-21v62,0,119,0,128,-45v2,-11,3,-34,3,-69r0,-397v-2,-53,4,-70,-15,-94v-15,-18,-54,-23,-94,-21r0,-20r515,0r9,149r-20,0v-5,-37,-13,-67,-27,-89v-20,-30,-33,-25,-92,-25r-187,0r0,267r154,0v53,-2,68,5,85,-21v8,-12,13,-33,16,-60r20,0r0,205r-20,0v-5,-41,-12,-70,-40,-81v-51,-7,-152,-3,-215,-4r0,195","w":630},"\u00ca":{"d":"133,-724r131,-148r83,0r130,148r-18,0r-152,-92r-156,92r-18,0xm216,-131v1,85,2,93,81,92v56,-1,149,6,188,-5v50,-13,63,-60,79,-116r20,0r-17,160r-571,0r0,-21v62,0,119,0,128,-45v2,-11,3,-34,3,-69r0,-397v-2,-53,4,-70,-15,-94v-15,-18,-54,-23,-94,-21r0,-20r515,0r9,149r-20,0v-5,-37,-13,-67,-27,-89v-20,-30,-33,-25,-92,-25r-187,0r0,267r154,0v53,-2,68,5,85,-21v8,-12,13,-33,16,-60r20,0r0,205r-20,0v-5,-41,-12,-70,-40,-81v-51,-7,-152,-3,-215,-4r0,195","w":630},"\u00cb":{"d":"488,-784v0,28,-26,54,-54,54v-30,0,-54,-25,-54,-55v0,-29,26,-53,54,-53v28,0,54,26,54,54xm223,-784v0,29,-24,54,-54,54v-30,0,-54,-25,-54,-55v0,-29,26,-53,54,-53v30,0,54,25,54,54xm216,-131v1,85,2,93,81,92v56,-1,149,6,188,-5v50,-13,63,-60,79,-116r20,0r-17,160r-571,0r0,-21v62,0,119,0,128,-45v2,-11,3,-34,3,-69r0,-397v-2,-53,4,-70,-15,-94v-15,-18,-54,-23,-94,-21r0,-20r515,0r9,149r-20,0v-5,-37,-13,-67,-27,-89v-20,-30,-33,-25,-92,-25r-187,0r0,267r154,0v53,-2,68,5,85,-21v8,-12,13,-33,16,-60r20,0r0,205r-20,0v-5,-41,-12,-70,-40,-81v-51,-7,-152,-3,-215,-4r0,195","w":630},"\u00cc":{"d":"249,-725r-231,-147r139,0r108,147r-16,0xm307,-647v-80,1,-91,26,-91,115r0,397v2,61,-6,68,16,94v13,15,40,22,75,21r0,20r-260,0r0,-20v79,-7,80,-25,80,-115r0,-397v-3,-90,0,-108,-80,-115r0,-20r260,0r0,20","w":343},"\u00cd":{"d":"82,-725r108,-147r139,0r-231,147r-16,0xm307,-647v-80,1,-91,26,-91,115r0,397v2,61,-6,68,16,94v13,15,40,22,75,21r0,20r-260,0r0,-20v79,-7,80,-25,80,-115r0,-397v-3,-90,0,-108,-80,-115r0,-20r260,0r0,20","w":343},"\u00ce":{"d":"-4,-724r131,-148r83,0r130,148r-18,0r-152,-92r-156,92r-18,0xm307,-647v-80,1,-91,26,-91,115r0,397v2,61,-6,68,16,94v13,15,40,22,75,21r0,20r-260,0r0,-20v79,-7,80,-25,80,-115r0,-397v-3,-90,0,-108,-80,-115r0,-20r260,0r0,20","w":342},"\u00cf":{"d":"308,-784v0,28,-26,54,-54,54v-30,0,-54,-25,-54,-55v0,-29,26,-53,54,-53v28,0,54,26,54,54xm143,-784v0,29,-24,54,-54,54v-30,0,-54,-25,-54,-55v0,-29,26,-53,54,-53v30,0,54,25,54,54xm307,-647v-80,1,-91,26,-91,115r0,397v2,61,-6,68,16,94v13,15,40,22,75,21r0,20r-260,0r0,-20v79,-7,80,-25,80,-115r0,-397v-3,-90,0,-108,-80,-115r0,-20r260,0r0,20","w":343},"\u00d0":{"d":"126,-533v4,-94,-11,-115,-103,-114r0,-20v184,-7,293,-10,326,-10v133,0,214,19,291,73v72,51,124,134,124,248v0,146,-87,258,-194,311v-78,39,-156,45,-280,45r-267,0r0,-20v53,2,96,-7,101,-46v9,-68,1,-188,2,-267r-93,0r0,-20r93,0r0,-180xm215,-95v-1,68,7,75,80,75v134,0,184,-8,255,-66v77,-63,114,-148,114,-253v1,-162,-93,-280,-232,-304v-64,-11,-134,-15,-217,-10r0,300r188,0r0,20r-188,0r0,238","w":821},"\u00d1":{"d":"337,-775v-36,3,-57,27,-60,62r-17,0v1,-84,59,-154,146,-125v11,0,114,56,152,56v35,0,56,-28,59,-63r15,0v4,75,-45,129,-105,133v-31,2,-159,-66,-190,-63xm857,-647v-94,9,-97,0,-97,97r0,557r-28,0r-556,-581r0,433v3,106,2,118,101,120r7,1r0,20r-249,0r0,-20v55,-1,91,-9,91,-59r1,-541v-22,-17,-52,-26,-90,-27r0,-20r169,0r505,527r0,-393v0,-101,-6,-109,-105,-114r0,-20r251,0r0,20","w":886},"\u00d2":{"d":"519,-725r-231,-147r139,0r108,147r-16,0xm826,-349v0,203,-176,366,-382,366v-87,0,-165,-24,-237,-68v-138,-85,-191,-253,-119,-418v55,-127,195,-215,358,-215v199,0,380,141,380,335xm416,-659v-160,0,-259,147,-259,306v0,187,126,345,306,345v161,0,263,-146,263,-310v0,-187,-129,-341,-310,-341","w":882},"\u00d3":{"d":"351,-725r108,-147r139,0r-231,147r-16,0xm826,-349v0,203,-176,366,-382,366v-87,0,-165,-24,-237,-68v-138,-85,-191,-253,-119,-418v55,-127,195,-215,358,-215v199,0,380,141,380,335xm416,-659v-160,0,-259,147,-259,306v0,187,126,345,306,345v161,0,263,-146,263,-310v0,-187,-129,-341,-310,-341","w":882},"\u00d4":{"d":"266,-724r131,-148r83,0r130,148r-18,0r-152,-92r-156,92r-18,0xm826,-349v0,203,-176,366,-382,366v-87,0,-165,-24,-237,-68v-138,-85,-191,-253,-119,-418v55,-127,195,-215,358,-215v199,0,380,141,380,335xm416,-659v-160,0,-259,147,-259,306v0,187,126,345,306,345v161,0,263,-146,263,-310v0,-187,-129,-341,-310,-341","w":882},"\u00d5":{"d":"331,-779v-36,3,-57,27,-60,62r-17,0v1,-84,59,-154,146,-125v11,0,114,56,152,56v35,0,56,-28,59,-63r15,0v4,75,-45,129,-105,133v-31,2,-159,-66,-190,-63xm826,-349v0,203,-176,366,-382,366v-87,0,-165,-24,-237,-68v-138,-85,-191,-253,-119,-418v55,-127,195,-215,358,-215v199,0,380,141,380,335xm416,-659v-160,0,-259,147,-259,306v0,187,126,345,306,345v161,0,263,-146,263,-310v0,-187,-129,-341,-310,-341","w":882},"\u00d6":{"d":"628,-784v0,28,-26,54,-54,54v-30,0,-54,-25,-54,-55v0,-29,26,-53,54,-53v28,0,54,26,54,54xm363,-784v0,29,-24,54,-54,54v-30,0,-54,-25,-54,-55v0,-29,26,-53,54,-53v30,0,54,25,54,54xm826,-349v0,203,-176,366,-382,366v-87,0,-165,-24,-237,-68v-138,-85,-191,-253,-119,-418v55,-127,195,-215,358,-215v199,0,380,141,380,335xm416,-659v-160,0,-259,147,-259,306v0,187,126,345,306,345v161,0,263,-146,263,-310v0,-187,-129,-341,-310,-341","w":882},"\u00d7":{"d":"107,-162r-23,-23r156,-156r-156,-156r23,-23r156,156r156,-156r23,23r-156,156r156,156r-23,23r-156,-156"},"\u00d8":{"d":"826,-349v0,205,-175,366,-383,366v-83,0,-161,-22,-233,-66r-102,117r-16,-13r101,-115v-78,-53,-135,-144,-136,-264v-4,-205,179,-360,389,-360v85,0,162,22,232,67r84,-96r16,14r-82,94v87,67,130,152,130,256xm416,-659v-160,0,-258,148,-258,310v0,94,27,172,81,235r395,-452v-58,-62,-131,-93,-218,-93xm461,-8v162,0,267,-145,265,-309v0,-91,-26,-169,-78,-233r-395,452v61,60,130,90,208,90","w":882},"\u00d9":{"d":"482,-725r-231,-147r139,0r108,147r-16,0xm842,-647v-88,9,-98,35,-98,141r0,192v0,61,-2,103,-7,125v-26,122,-145,206,-309,206v-154,0,-272,-67,-302,-193v-21,-87,-6,-247,-9,-357v-3,-102,3,-110,-92,-115r0,-19r276,0r0,20v-50,-1,-88,10,-93,46v-9,73,-1,198,-2,282v0,54,2,91,6,112v22,106,111,168,239,168v139,0,243,-64,243,-191r1,-271v1,-108,-4,-141,-105,-146r0,-20r252,0r0,20","w":861},"\u00da":{"d":"387,-725r108,-147r139,0r-231,147r-16,0xm842,-647v-88,9,-98,35,-98,141r0,192v0,61,-2,103,-7,125v-26,122,-145,206,-309,206v-154,0,-272,-67,-302,-193v-21,-87,-6,-247,-9,-357v-3,-102,3,-110,-92,-115r0,-19r276,0r0,20v-50,-1,-88,10,-93,46v-9,73,-1,198,-2,282v0,54,2,91,6,112v22,106,111,168,239,168v139,0,243,-64,243,-191r1,-271v1,-108,-4,-141,-105,-146r0,-20r252,0r0,20","w":861},"\u00db":{"d":"268,-724r131,-148r83,0r130,148r-18,0r-152,-92r-156,92r-18,0xm842,-647v-88,9,-98,35,-98,141r0,192v0,61,-2,103,-7,125v-26,122,-145,206,-309,206v-154,0,-272,-67,-302,-193v-21,-87,-6,-247,-9,-357v-3,-102,3,-110,-92,-115r0,-19r276,0r0,20v-50,-1,-88,10,-93,46v-9,73,-1,198,-2,282v0,54,2,91,6,112v22,106,111,168,239,168v139,0,243,-64,243,-191r1,-271v1,-108,-4,-141,-105,-146r0,-20r252,0r0,20","w":861},"\u00dc":{"d":"620,-784v0,28,-26,54,-54,54v-30,0,-54,-25,-54,-55v0,-29,26,-53,54,-53v28,0,54,26,54,54xm355,-784v0,29,-24,54,-54,54v-30,0,-54,-25,-54,-55v0,-29,26,-53,54,-53v30,0,54,25,54,54xm842,-647v-88,9,-98,35,-98,141r0,192v0,61,-2,103,-7,125v-26,122,-145,206,-309,206v-154,0,-272,-67,-302,-193v-21,-87,-6,-247,-9,-357v-3,-102,3,-110,-92,-115r0,-19r276,0r0,20v-50,-1,-88,10,-93,46v-9,73,-1,198,-2,282v0,54,2,91,6,112v22,106,111,168,239,168v139,0,243,-64,243,-191r1,-271v1,-108,-4,-141,-105,-146r0,-20r252,0r0,20","w":861},"\u00dd":{"d":"330,-725r108,-147r139,0r-231,147r-16,0xm552,-611v-1,-33,-32,-35,-71,-35r0,-21r243,0r0,21v-37,3,-66,12,-86,28v-20,16,-44,48,-72,95r-155,262r0,126v2,61,-5,68,16,94v13,16,47,22,84,21r0,20r-295,0r0,-20v53,2,97,-7,104,-46v6,-35,1,-134,2,-183r-190,-297v-28,-43,-51,-71,-68,-82v-17,-11,-43,-17,-79,-18r0,-21r286,0r0,21v-106,4,-85,29,-42,95r155,239r135,-227v22,-37,33,-61,33,-72","w":733},"\u00de":{"d":"216,-135v0,92,7,110,86,115r36,0r0,20r-298,0r0,-20r15,-1v45,-2,71,-3,71,-39r1,-497v-2,-47,3,-55,-11,-76v-14,-21,-50,-11,-93,-14r0,-20r291,0r0,20v-66,-1,-99,13,-98,77r0,36v28,-6,57,-9,86,-9v148,-1,263,56,265,189v2,164,-173,231,-351,197r0,22xm467,-357v-3,-114,-60,-170,-185,-167v-20,0,-42,2,-66,5r0,341v140,36,254,-49,251,-179","w":605},"\u00df":{"d":"402,-552v1,-79,-46,-144,-121,-144v-68,0,-114,58,-119,134v-1,17,-1,57,-1,120r1,380v4,31,28,43,69,42r0,20r-211,0r0,-20v35,-2,55,-8,61,-18v6,-10,9,-41,9,-96r0,-260v2,-116,-4,-155,29,-220v36,-72,96,-107,173,-107v95,0,184,68,181,159v-3,91,-75,144,-155,171v102,13,190,97,190,201v0,104,-82,200,-180,203v-26,0,-49,-11,-49,-35v-1,-15,11,-30,25,-29v19,1,60,28,65,24v17,0,31,-15,42,-43v11,-28,17,-63,17,-105v-1,-126,-46,-214,-177,-204r0,-17v89,-8,150,-62,151,-156","w":548},"\u00e0":{"d":"242,-524r-241,-180r119,0r138,180r-16,0xm126,13v-54,0,-96,-36,-95,-88v0,-27,10,-47,28,-63v37,-32,149,-48,194,-83v-4,-57,11,-127,-21,-157v-18,-17,-36,-27,-58,-27v-34,0,-83,36,-60,72r-73,36v-3,-7,-4,-13,-4,-16v-1,-47,114,-127,159,-123v59,6,118,35,126,85v11,68,-5,232,6,294v2,12,12,18,25,18v14,0,31,-8,52,-23r5,15v-45,40,-80,60,-106,60v-31,0,-47,-22,-49,-65v-42,25,-67,65,-129,65xm163,-25v39,-2,53,-28,90,-47r0,-128v-15,9,-46,23,-93,42v-40,17,-60,40,-60,70v-1,34,29,65,63,63","w":414},"\u00e1":{"d":"144,-524r138,-180r119,0r-241,180r-16,0xm126,13v-54,0,-96,-36,-95,-88v0,-27,10,-47,28,-63v37,-32,149,-48,194,-83v-4,-57,11,-127,-21,-157v-18,-17,-36,-27,-58,-27v-34,0,-83,36,-60,72r-73,36v-3,-7,-4,-13,-4,-16v-1,-47,114,-127,159,-123v59,6,118,35,126,85v11,68,-5,232,6,294v2,12,12,18,25,18v14,0,31,-8,52,-23r5,15v-45,40,-80,60,-106,60v-31,0,-47,-22,-49,-65v-42,25,-67,65,-129,65xm163,-25v39,-2,53,-28,90,-47r0,-128v-15,9,-46,23,-93,42v-40,17,-60,40,-60,70v-1,34,29,65,63,63","w":414},"\u00e2":{"d":"57,-512r0,-18r116,-193r31,0r113,193r0,18r-133,-134xm126,13v-54,0,-96,-36,-95,-88v0,-27,10,-47,28,-63v37,-32,149,-48,194,-83v-4,-57,11,-127,-21,-157v-18,-17,-36,-27,-58,-27v-34,0,-83,36,-60,72r-73,36v-3,-7,-4,-13,-4,-16v-1,-47,114,-127,159,-123v59,6,118,35,126,85v11,68,-5,232,6,294v2,12,12,18,25,18v14,0,31,-8,52,-23r5,15v-45,40,-80,60,-106,60v-31,0,-47,-22,-49,-65v-42,25,-67,65,-129,65xm163,-25v39,-2,53,-28,90,-47r0,-128v-15,9,-46,23,-93,42v-40,17,-60,40,-60,70v-1,34,29,65,63,63","w":414},"\u00e3":{"d":"335,-659v5,75,-42,140,-115,114v-18,-6,-94,-65,-109,-60v-30,0,-48,22,-53,67r-12,0v2,-76,28,-122,87,-122v41,0,45,13,81,37v28,19,48,30,61,30v36,-2,44,-27,48,-66r12,0xm126,13v-54,0,-96,-36,-95,-88v0,-27,10,-47,28,-63v37,-32,149,-48,194,-83v-4,-57,11,-127,-21,-157v-18,-17,-36,-27,-58,-27v-34,0,-83,36,-60,72r-73,36v-3,-7,-4,-13,-4,-16v-1,-47,114,-127,159,-123v59,6,118,35,126,85v11,68,-5,232,6,294v2,12,12,18,25,18v14,0,31,-8,52,-23r5,15v-45,40,-80,60,-106,60v-31,0,-47,-22,-49,-65v-42,25,-67,65,-129,65xm163,-25v39,-2,53,-28,90,-47r0,-128v-15,9,-46,23,-93,42v-40,17,-60,40,-60,70v-1,34,29,65,63,63","w":414},"\u00e4":{"d":"320,-600v0,25,-22,47,-47,47v-26,0,-48,-22,-48,-48v0,-25,22,-47,47,-47v26,0,48,22,48,48xm151,-601v0,24,-22,48,-47,48v-26,0,-48,-22,-48,-48v0,-25,22,-47,48,-47v26,0,47,22,47,47xm126,13v-54,0,-96,-36,-95,-88v0,-27,10,-47,28,-63v37,-32,149,-48,194,-83v-4,-57,11,-127,-21,-157v-18,-17,-36,-27,-58,-27v-34,0,-83,36,-60,72r-73,36v-3,-7,-4,-13,-4,-16v-1,-47,114,-127,159,-123v59,6,118,35,126,85v11,68,-5,232,6,294v2,12,12,18,25,18v14,0,31,-8,52,-23r5,15v-45,40,-80,60,-106,60v-31,0,-47,-22,-49,-65v-42,25,-67,65,-129,65xm163,-25v39,-2,53,-28,90,-47r0,-128v-15,9,-46,23,-93,42v-40,17,-60,40,-60,70v-1,34,29,65,63,63","w":414},"\u00e5":{"d":"294,-593v0,52,-45,97,-97,97v-53,0,-98,-46,-98,-99v0,-51,47,-96,98,-96v52,0,97,46,97,98xm124,-594v0,39,33,73,73,73v37,0,72,-35,72,-72v0,-39,-34,-73,-73,-73v-37,0,-72,35,-72,72xm126,13v-54,0,-96,-36,-95,-88v0,-27,10,-47,28,-63v37,-32,149,-48,194,-83v-4,-57,11,-127,-21,-157v-18,-17,-36,-27,-58,-27v-34,0,-83,36,-60,72r-73,36v-3,-7,-4,-13,-4,-16v-1,-47,114,-127,159,-123v59,6,118,35,126,85v11,68,-5,232,6,294v2,12,12,18,25,18v14,0,31,-8,52,-23r5,15v-45,40,-80,60,-106,60v-31,0,-47,-22,-49,-65v-42,25,-67,65,-129,65xm163,-25v39,-2,53,-28,90,-47r0,-128v-15,9,-46,23,-93,42v-40,17,-60,40,-60,70v-1,34,29,65,63,63","w":414},"\u00e6":{"d":"136,13v-52,1,-97,-37,-96,-87v0,-33,14,-57,41,-73v17,-10,47,-20,90,-31v35,-9,69,-23,100,-42v-3,-56,9,-122,-20,-152v-19,-19,-37,-31,-60,-31v-40,-1,-84,33,-67,74r-71,32v-3,-6,-4,-11,-4,-16v-6,-37,109,-126,160,-123v51,3,99,29,119,64v39,-43,87,-65,146,-65v84,0,110,38,142,104v7,16,16,28,25,37r0,19r-300,0v-4,97,7,169,65,208v26,17,53,27,82,27v64,0,90,-26,128,-65r13,13v-61,71,-122,107,-181,107v-64,0,-114,-31,-151,-92v-33,44,-96,89,-161,92xm549,-297v-7,-76,-69,-149,-147,-105v-35,21,-52,56,-59,105r206,0xm128,-132v-36,36,-9,107,46,107v29,0,61,-17,97,-51r0,-123v-23,21,-119,43,-143,67","w":674},"\u00e7":{"d":"245,160v-1,-34,-30,-49,-67,-51v13,-23,24,-55,35,-95v-53,-15,-82,-24,-88,-27v-43,-24,-86,-114,-86,-181v0,-130,118,-243,249,-243v50,0,117,22,120,61v1,15,-17,34,-32,33v-17,0,-38,-12,-62,-35v-95,-97,-204,49,-204,159v0,96,63,190,152,189v49,0,93,-26,132,-79r16,10v-33,57,-94,108,-172,111v-4,16,-9,31,-14,45v43,1,80,33,80,76v0,60,-76,108,-138,113r0,-19v53,-13,79,-35,79,-67","w":449},"\u00e8":{"d":"271,-524r-241,-180r119,0r138,180r-16,0xm228,13v-109,0,-189,-106,-187,-220v2,-89,47,-163,104,-201v65,-43,186,-38,228,23v13,11,34,71,52,88r0,17r-313,0v-24,126,47,239,159,240v51,0,97,-24,136,-71r12,13v-42,51,-106,111,-191,111xm335,-300v-8,-60,-46,-116,-108,-116v-65,0,-97,54,-112,116r220,0","w":458},"\u00e9":{"d":"179,-524r138,-180r119,0r-241,180r-16,0xm227,13v-109,0,-189,-106,-187,-220v2,-89,47,-163,104,-201v66,-44,185,-38,228,23v13,11,34,71,52,88r0,17r-313,0v-24,126,47,239,159,240v51,0,97,-24,136,-71r12,13v-42,51,-106,111,-191,111xm334,-300v-8,-60,-46,-116,-108,-116v-65,0,-97,54,-112,116r220,0","w":458},"\u00ea":{"d":"99,-512r0,-18r116,-193r31,0r113,193r0,18r-133,-134xm227,13v-109,0,-189,-106,-187,-220v2,-89,47,-163,104,-201v66,-44,185,-38,228,23v13,11,34,71,52,88r0,17r-313,0v-24,126,47,239,159,240v51,0,97,-24,136,-71r12,13v-42,51,-106,111,-191,111xm334,-300v-8,-60,-46,-116,-108,-116v-65,0,-97,54,-112,116r220,0","w":458},"\u00eb":{"d":"380,-601v0,24,-22,48,-47,48v-26,0,-48,-22,-48,-48v0,-25,22,-47,47,-47v26,0,48,21,48,47xm172,-601v0,24,-22,48,-47,48v-26,0,-48,-22,-48,-48v0,-25,22,-47,48,-47v25,0,47,22,47,47xm227,13v-109,0,-189,-106,-187,-220v2,-89,47,-163,104,-201v66,-44,185,-38,228,23v13,11,34,71,52,88r0,17r-313,0v-24,126,47,239,159,240v51,0,97,-24,136,-71r12,13v-42,51,-106,111,-191,111xm334,-300v-8,-60,-46,-116,-108,-116v-65,0,-97,54,-112,116r220,0","w":458},"\u00ec":{"d":"168,-524r-241,-180r119,0r138,180r-16,0xm178,-125v-3,83,7,96,77,105r0,20r-237,0r0,-20v73,-6,89,-15,89,-105r0,-179v-2,-63,-2,-52,-56,-67r-27,-6r0,-17r139,-48r15,0r0,317","w":279},"\u00ed":{"d":"57,-524r138,-180r119,0r-241,180r-16,0xm178,-125v-3,83,7,96,77,105r0,20r-237,0r0,-20v73,-6,89,-15,89,-105r0,-179v-2,-63,-2,-52,-56,-67r-27,-6r0,-17r139,-48r15,0r0,317","w":279},"\u00ee":{"d":"-13,-512r0,-18r116,-193r31,0r113,193r0,18r-133,-134xm178,-125v-3,83,7,96,77,105r0,20r-237,0r0,-20v73,-6,89,-15,89,-105r0,-179v-2,-63,-2,-52,-56,-67r-27,-6r0,-17r139,-48r15,0r0,317","w":279},"\u00ef":{"d":"258,-601v0,24,-22,48,-47,48v-26,0,-48,-22,-48,-48v0,-25,22,-47,47,-47v26,0,48,21,48,47xm103,-601v0,24,-22,48,-47,48v-26,0,-48,-22,-48,-48v0,-25,22,-47,48,-47v26,0,47,22,47,47xm178,-125v-3,83,7,96,77,105r0,20r-237,0r0,-20v73,-6,89,-15,89,-105r0,-179v-2,-63,-2,-52,-56,-67r-27,-6r0,-17r139,-48r15,0r0,317","w":279},"\u00f0":{"d":"271,13v-131,2,-231,-97,-231,-227v0,-130,94,-225,226,-225v40,0,78,12,113,36v-18,-68,-50,-125,-96,-171r-108,70r-10,-16r103,-67v-25,-24,-56,-47,-95,-68r13,-23v41,21,78,43,113,68r107,-70r10,16r-101,66v124,95,186,218,186,368v0,145,-94,241,-230,243xm255,-414v-82,-2,-141,79,-138,166v3,112,51,232,168,236v85,3,139,-78,138,-169v-1,-118,-62,-231,-168,-233","w":541},"\u00f1":{"d":"432,-675v5,75,-41,140,-114,114v-18,-6,-95,-65,-110,-60v-30,0,-48,22,-53,67r-12,0v2,-76,28,-122,87,-122v41,0,45,13,81,37v29,20,49,30,61,30v36,-2,44,-27,48,-66r12,0xm313,-387v-30,-2,-117,45,-142,64r0,189v2,61,-5,67,10,94v9,14,31,21,62,20r0,20r-215,0r0,-20v37,1,66,-16,70,-50v6,-50,2,-144,2,-204v0,-87,13,-76,-52,-96r-17,-4r0,-16r124,-46r16,0r0,93v81,-58,144,-87,189,-87v41,0,74,18,92,58v35,76,16,181,11,307v-2,45,34,44,84,45r0,20r-231,0r0,-20v41,-4,58,-7,70,-36v10,-24,14,-94,14,-209v1,-76,-23,-118,-87,-122","w":562},"\u00f2":{"d":"353,-524r-241,-180r119,0r138,180r-16,0xm274,13v-128,0,-234,-95,-234,-227v0,-124,105,-222,230,-222v127,0,232,100,232,226v0,123,-104,223,-228,223xm256,-411v-82,-1,-136,79,-136,167v0,112,66,231,166,232v82,0,136,-83,136,-172v0,-108,-69,-227,-166,-227","w":542},"\u00f3":{"d":"168,-524r138,-180r119,0r-241,180r-16,0xm274,13v-128,0,-234,-95,-234,-227v0,-124,105,-222,230,-222v127,0,232,100,232,226v0,123,-104,223,-228,223xm256,-411v-82,-1,-136,79,-136,167v0,112,66,231,166,232v82,0,136,-83,136,-172v0,-108,-69,-227,-166,-227","w":542},"\u00f4":{"d":"141,-512r0,-18r116,-193r31,0r113,193r0,18r-133,-134xm274,13v-128,0,-234,-95,-234,-227v0,-124,105,-222,230,-222v127,0,232,100,232,226v0,123,-104,223,-228,223xm256,-411v-82,-1,-136,79,-136,167v0,112,66,231,166,232v82,0,136,-83,136,-172v0,-108,-69,-227,-166,-227","w":542},"\u00f5":{"d":"425,-659v5,75,-42,140,-115,114v-18,-6,-94,-65,-109,-60v-30,0,-48,22,-53,67r-12,0v2,-76,28,-122,87,-122v41,0,45,13,81,37v28,19,48,30,61,30v36,-2,44,-27,48,-66r12,0xm274,13v-128,0,-234,-95,-234,-227v0,-124,105,-222,230,-222v127,0,232,100,232,226v0,123,-104,223,-228,223xm256,-411v-82,-1,-136,79,-136,167v0,112,66,231,166,232v82,0,136,-83,136,-172v0,-108,-69,-227,-166,-227","w":542},"\u00f6":{"d":"420,-600v0,25,-22,47,-47,47v-26,0,-48,-22,-48,-48v0,-25,22,-47,47,-47v26,0,48,22,48,48xm231,-601v0,24,-22,48,-47,48v-26,0,-48,-22,-48,-48v0,-25,22,-47,48,-47v26,0,47,22,47,47xm274,13v-128,0,-234,-95,-234,-227v0,-124,105,-222,230,-222v127,0,232,100,232,226v0,123,-104,223,-228,223xm256,-411v-82,-1,-136,79,-136,167v0,112,66,231,166,232v82,0,136,-83,136,-172v0,-108,-69,-227,-166,-227","w":542},"\u00f7":{"d":"302,-512v1,21,-17,39,-38,39v-21,0,-39,-18,-39,-39v0,-21,18,-38,39,-38v20,0,38,18,38,38xm43,-325r0,-33r440,0r0,33r-440,0xm262,-132v-21,1,-38,-18,-38,-39v0,-21,18,-38,39,-38v21,0,38,17,38,38v0,22,-18,39,-39,39"},"\u00f8":{"d":"502,-211v0,123,-104,224,-228,224v-53,0,-101,-16,-145,-47r-73,84r-15,-13r72,-83v-49,-43,-73,-98,-73,-165v0,-128,103,-225,231,-225v49,0,97,16,143,47r61,-71r15,13r-61,70v49,45,73,100,73,166xm256,-411v-83,-1,-136,79,-136,168v0,54,13,103,38,146r215,-246v-31,-45,-70,-68,-117,-68xm286,-12v82,1,136,-84,136,-173v0,-48,-12,-95,-37,-141r-216,247v23,35,66,66,117,67","w":542},"\u00f9":{"d":"320,-524r-241,-180r119,0r138,180r-16,0xm203,13v-54,0,-103,-33,-110,-83v-11,-75,-3,-182,-3,-266v0,-45,-31,-43,-67,-54r0,-16r138,-30r0,251v2,63,-4,77,16,109v17,26,44,38,81,38v39,0,81,-20,128,-60r0,-199v-3,-79,4,-84,-62,-93r-32,-5r0,-15r165,-26r0,359v3,37,12,38,49,30r23,-3r0,19r-143,44r0,-87v-79,58,-140,87,-183,87","w":558},"\u00fa":{"d":"209,-524r138,-180r119,0r-241,180r-16,0xm203,13v-54,0,-103,-33,-110,-83v-11,-75,-3,-182,-3,-266v0,-45,-31,-43,-67,-54r0,-16r138,-30r0,251v2,63,-4,77,16,109v17,26,44,38,81,38v39,0,81,-20,128,-60r0,-199v-3,-79,4,-84,-62,-93r-32,-5r0,-15r165,-26r0,359v3,37,12,38,49,30r23,-3r0,19r-143,44r0,-87v-79,58,-140,87,-183,87","w":558},"\u00fb":{"d":"149,-512r0,-18r116,-193r31,0r113,193r0,18r-133,-134xm203,13v-54,0,-103,-33,-110,-83v-11,-75,-3,-182,-3,-266v0,-45,-31,-43,-67,-54r0,-16r138,-30r0,251v2,63,-4,77,16,109v17,26,44,38,81,38v39,0,81,-20,128,-60r0,-199v-3,-79,4,-84,-62,-93r-32,-5r0,-15r165,-26r0,359v3,37,12,38,49,30r23,-3r0,19r-143,44r0,-87v-79,58,-140,87,-183,87","w":558},"\u00fc":{"d":"428,-601v0,24,-22,48,-47,48v-26,0,-48,-22,-48,-48v0,-25,22,-47,47,-47v26,0,48,21,48,47xm220,-601v0,24,-22,48,-47,48v-26,0,-48,-22,-48,-48v0,-25,22,-47,48,-47v25,0,47,22,47,47xm203,13v-54,0,-103,-33,-110,-83v-11,-75,-3,-182,-3,-266v0,-45,-31,-43,-67,-54r0,-16r138,-30r0,251v2,63,-4,77,16,109v17,26,44,38,81,38v39,0,81,-20,128,-60r0,-199v-3,-79,4,-84,-62,-93r-32,-5r0,-15r165,-26r0,359v3,37,12,38,49,30r23,-3r0,19r-143,44r0,-87v-79,58,-140,87,-183,87","w":558},"\u00fd":{"d":"191,-524r138,-180r119,0r-241,180r-16,0xm122,250v-22,1,-43,-15,-43,-37v0,-19,16,-35,48,-42v69,-16,77,-95,109,-160r-148,-315v-21,-43,-37,-70,-48,-82v-11,-12,-30,-18,-55,-19r0,-20r216,0r0,20v-42,1,-63,11,-63,30v0,7,8,29,25,65r108,232r79,-199v18,-44,27,-73,27,-86v-2,-37,-25,-38,-67,-42r0,-20r178,0r0,20v-26,4,-45,15,-58,31v-13,16,-31,52,-53,107r-139,348v-28,71,-48,116,-62,136v-16,22,-34,33,-54,33","w":483},"\u00fe":{"d":"7,230v78,-3,84,-19,83,-116r-1,-702v-1,-13,-4,-20,-9,-24v-5,-4,-24,-10,-55,-18r0,-21r115,-70r21,0r0,366v71,-52,127,-78,167,-78v87,-2,159,106,159,200v0,123,-107,244,-228,240v-26,0,-59,-7,-98,-21r0,128v2,59,-5,71,16,97v15,19,48,20,83,19r0,20r-253,0r0,-20xm416,-192v0,-93,-56,-189,-141,-189v-35,0,-73,18,-114,53r0,242v43,39,85,59,128,59v78,0,127,-80,127,-165"},"\u00ff":{"d":"406,-601v0,24,-22,48,-47,48v-26,0,-48,-22,-48,-48v0,-25,22,-47,47,-47v26,0,48,21,48,47xm198,-601v0,24,-22,48,-47,48v-26,0,-48,-22,-48,-48v0,-25,22,-47,48,-47v25,0,47,22,47,47xm122,250v-22,1,-43,-15,-43,-37v0,-19,16,-35,48,-42v69,-16,77,-95,109,-160r-148,-315v-21,-43,-37,-70,-48,-82v-11,-12,-30,-18,-55,-19r0,-20r216,0r0,20v-42,1,-63,11,-63,30v0,7,8,29,25,65r108,232r79,-199v18,-44,27,-73,27,-86v-2,-37,-25,-38,-67,-42r0,-20r178,0r0,20v-26,4,-45,15,-58,31v-13,16,-31,52,-53,107r-139,348v-28,71,-48,116,-62,136v-16,22,-34,33,-54,33","w":483},"\u0152":{"d":"394,7v-183,5,-341,-153,-337,-335v3,-127,60,-225,142,-282v84,-58,165,-71,306,-60v32,2,80,3,144,3r312,0r8,146r-20,0v-7,-35,-19,-80,-36,-95v-8,-7,-27,-12,-58,-12r-206,0r0,263r158,0v50,-2,60,4,76,-23v7,-13,12,-33,15,-59r19,0r0,204r-19,0v-1,-32,-9,-67,-32,-77v-9,-4,-25,-6,-49,-6r-168,0r0,287r183,0v72,-2,91,2,121,-32v16,-18,28,-48,38,-87r19,0r-17,158r-389,-1v-74,-1,-163,6,-210,8xm406,-648v-167,0,-256,125,-256,300v0,108,33,194,99,258v49,47,104,71,165,71v76,0,133,-34,142,-103v11,-82,3,-236,4,-335v0,-53,-1,-86,-3,-98v-11,-62,-62,-93,-151,-93","w":1056},"\u0153":{"d":"271,13v-127,0,-231,-100,-231,-226v0,-122,106,-223,228,-223v69,0,120,26,154,78v44,-52,96,-78,157,-78v71,0,119,32,144,97v8,21,17,36,28,45r0,17r-290,0v-11,117,47,244,145,244v33,0,75,-26,126,-77r11,12v-45,54,-105,111,-184,111v-51,0,-92,-26,-125,-78v-39,52,-94,78,-163,78xm653,-297v3,-62,-33,-120,-90,-120v-64,0,-92,55,-100,120r190,0xm249,-411v-77,0,-129,85,-129,169v0,106,66,229,160,230v139,0,136,-245,74,-336v-28,-42,-62,-63,-105,-63","w":785},"\u0178":{"d":"553,-784v0,28,-26,54,-54,54v-30,0,-54,-25,-54,-55v0,-29,26,-53,54,-53v30,0,54,25,54,54xm288,-784v0,28,-26,54,-54,54v-30,0,-54,-25,-54,-55v0,-29,26,-53,54,-53v28,0,54,26,54,54xm552,-611v-1,-33,-32,-35,-71,-35r0,-21r243,0r0,21v-37,3,-66,12,-86,28v-20,16,-44,48,-72,95r-155,262r0,126v2,61,-5,68,16,94v13,16,47,22,84,21r0,20r-295,0r0,-20v53,2,97,-7,104,-46v6,-35,1,-134,2,-183r-190,-297v-28,-43,-51,-71,-68,-82v-17,-11,-43,-17,-79,-18r0,-21r286,0r0,21v-106,4,-85,29,-42,95r155,239r135,-227v22,-37,33,-61,33,-72","w":733},"\u02c6":{"d":"120,-512r0,-18r116,-193r31,0r113,193r0,18r-133,-134","w":500},"\u02dc":{"d":"391,-659v5,75,-42,140,-115,114v-18,-6,-94,-65,-109,-60v-30,0,-48,22,-53,67r-12,0v2,-76,28,-122,87,-122v41,0,45,13,81,37v28,19,48,30,61,30v36,-2,44,-27,48,-66r12,0","w":500},"\u2013":{"d":"-6,-244r0,-48r549,0r0,48r-549,0","w":536},"\u2014":{"d":"-6,-244r0,-48r1085,0r0,48r-1085,0","w":1073},"\u2018":{"d":"206,-514v0,31,-26,53,-58,53v-45,0,-76,-42,-75,-90v1,-74,58,-136,119,-157r7,20v-55,31,-82,67,-82,106v0,32,22,20,43,19v25,-2,46,24,46,49","w":279},"\u2019":{"d":"115,-708v45,0,76,42,75,90v-1,74,-58,136,-119,157r-7,-19v55,-33,82,-68,82,-107v0,-33,-25,-19,-44,-18v-25,1,-45,-24,-45,-49v0,-31,26,-54,58,-54","w":246},"\u201a":{"d":"133,12v-35,10,-59,-17,-60,-47v-1,-31,26,-54,58,-54v45,0,76,42,75,90v-1,74,-58,136,-119,158r-7,-20v55,-31,82,-67,82,-107v1,-24,-13,-25,-29,-20","w":279},"\u201c":{"d":"455,-514v0,29,-28,53,-58,53v-46,0,-77,-42,-76,-90v1,-74,60,-135,120,-157r7,20v-55,31,-83,66,-83,106v0,32,23,20,44,19v25,-1,46,24,46,49xm211,-514v0,31,-26,53,-58,53v-45,0,-76,-42,-75,-90v1,-74,58,-136,119,-157r7,20v-55,31,-82,67,-82,106v0,32,22,20,43,19v25,-2,46,24,46,49","w":514},"\u201d":{"d":"374,-708v45,0,76,42,75,90v-1,74,-58,136,-119,157r-7,-19v55,-31,82,-67,82,-107v0,-33,-25,-19,-44,-18v-26,1,-45,-24,-45,-50v0,-29,28,-53,58,-53xm131,-708v45,0,76,42,75,90v-1,74,-58,136,-119,157r-7,-19v55,-33,82,-68,82,-107v0,-33,-25,-19,-44,-18v-25,1,-45,-24,-45,-49v0,-31,26,-54,58,-54","w":514},"\u201e":{"d":"376,12v-35,10,-60,-17,-60,-48v-1,-29,28,-53,58,-53v45,0,76,42,75,90v-1,74,-58,137,-119,158r-7,-20v55,-31,82,-67,82,-107v1,-24,-13,-25,-29,-20xm133,12v-35,10,-59,-17,-60,-47v-1,-31,26,-54,58,-54v45,0,76,42,75,90v-1,74,-58,136,-119,158r-7,-20v55,-31,82,-67,82,-107v1,-24,-13,-25,-29,-20","w":514},"\u2022":{"d":"473,-339v0,75,-64,139,-138,139v-74,0,-139,-64,-139,-138v0,-76,65,-139,141,-139v72,0,136,66,136,138","w":667},"\u2026":{"d":"894,13v-31,0,-55,-21,-55,-52v0,-28,26,-50,55,-50v31,0,56,21,56,51v0,31,-24,51,-56,51xm536,13v-31,0,-55,-21,-55,-52v0,-28,26,-50,55,-50v31,0,56,21,56,51v0,31,-24,51,-56,51xm179,13v-31,0,-55,-21,-55,-52v0,-28,26,-50,55,-50v31,0,56,21,56,51v0,31,-24,51,-56,51","w":1073},"\u2039":{"d":"195,-38r-159,-197r159,-199r19,0r-103,199r103,197r-19,0","w":246},"\u203a":{"d":"32,-38r103,-197r-103,-199r19,0r159,199r-159,197r-19,0","w":246},"\u20ac":{"d":"472,17v-197,0,-363,-129,-373,-310r-59,0r11,-26r47,0r0,-26r-58,0r11,-26r50,0v18,-182,180,-316,382,-313v63,0,126,12,190,35v25,8,36,14,55,3r16,0r10,154r-20,0v-31,-91,-128,-168,-245,-166v-172,3,-282,117,-290,287r407,0r-11,26r-397,0v1,7,1,16,1,26r385,0r-11,26r-371,0v13,148,144,281,301,281v113,0,200,-52,260,-156r20,0v-9,40,-49,125,-69,157v-6,-1,-13,-2,-21,-2v-38,1,-159,30,-221,30","w":824},"\u2122":{"d":"251,-365v-6,61,16,63,70,63r0,15r-197,0r0,-15r24,0v43,-3,47,-13,47,-63r0,-276r-92,0v-54,-3,-45,22,-58,67r-15,0r10,-103r15,0v6,13,12,10,36,10r265,0v23,-1,30,3,36,-10r14,0r10,103r-14,0v-9,-37,-11,-54,-30,-66v-31,-3,-85,0,-121,-1r0,276xm550,-338v1,28,18,34,49,36r0,15r-133,0r0,-15v49,0,52,-11,55,-63r15,-260v-1,-23,-13,-24,-38,-27r0,-15r97,0r149,303r148,-303r95,0r0,15v-29,4,-43,-2,-41,22r19,263v3,33,5,52,9,57v2,6,26,9,46,8r0,15r-164,0r0,-15v37,-1,57,-5,55,-39r-18,-263r-153,317r-17,0r-157,-317","w":1044}}});
