/*!
 * The following copyright notice may not be removed under any circumstances.
 * 
 * Copyright:
 * (c)2004, Copyleft by Yeah Noah. All lefts reversed.
 * 
 * Trademark:
 * Existence is not a trademark of Yeah Noah.
 * 
 * Manufacturer:
 * Yeah Noah
 * 
 * Designer:
 * Yeah Noah
 * 
 * Vendor URL:
 * http://mywebpage.netscape.com/yeahnoah/type.html
 */
Cufon.registerFont({"w":532,"face":{"font-family":"Existence Light","font-weight":300,"font-stretch":"normal","units-per-em":"1000","panose-1":"2 11 2 0 0 2 0 2 0 4","ascent":"800","descent":"-200","x-height":"10","bbox":"-122 -893 1134 293","underline-thickness":"50","underline-position":"-50","unicode-range":"U+0020-U+2122"},"glyphs":{" ":{"w":325},"!":{"d":"77,-164r0,-536r30,0r0,536r-30,0xm62,0r0,-60r60,0r0,60r-60,0","w":184},"\"":{"d":"152,-560r0,-140r30,0r0,140r-30,0xm62,-560r0,-140r30,0r0,140r-30,0","w":244},"#":{"d":"517,-495r-5,30r-105,0r-37,245r106,0r-5,30r-105,0r-29,190r-30,0r28,-190r-172,0r-29,190r-30,0r28,-190r-104,0r5,-30r104,0r37,-245r-105,0r5,-30r104,0r31,-205r31,0r-31,205r172,0r31,-205r31,0r-31,205r105,0xm204,-465r-37,245r173,0r37,-245r-173,0","w":535},"$":{"d":"50,-521v-1,-108,85,-187,188,-193r0,-91r30,0r0,90v89,3,156,50,184,119r-28,12v-29,-64,-81,-98,-156,-101r0,325v125,44,188,104,188,181v0,107,-86,186,-188,193r0,91r-30,0r0,-90v-89,-3,-157,-49,-184,-119r28,-12v24,58,81,98,156,101r0,-324v-55,-20,-101,-45,-136,-73v-35,-28,-52,-64,-52,-109xm238,-684v-86,7,-159,73,-158,163v0,61,53,111,158,150r0,-313xm268,-16v86,-6,159,-73,158,-163v0,-59,-53,-109,-158,-150r0,313","w":506},"%":{"d":"365,6v-44,0,-82,-38,-82,-82v0,-44,38,-82,82,-82v44,0,82,38,82,82v0,44,-38,82,-82,82xm142,-541v-44,0,-82,-38,-82,-82v0,-44,38,-82,82,-82v44,0,82,38,82,82v0,44,-38,82,-82,82xm60,-7r361,-700r26,14r-361,700xm142,-675v-29,0,-52,23,-52,52v0,29,23,52,52,52v29,0,52,-23,52,-52v0,-29,-23,-52,-52,-52xm365,-128v-29,0,-52,23,-52,52v0,29,23,52,52,52v29,0,52,-23,52,-52v0,-29,-23,-52,-52,-52","w":507},"&":{"d":"138,-532v0,87,74,142,168,140r58,0r0,-47r30,0r0,47r48,0r0,30r-48,0r0,361v-170,20,-339,-44,-339,-193v0,-96,75,-161,158,-185v-60,-23,-104,-75,-105,-153v0,-118,107,-187,235,-171r-2,30v-111,-14,-203,41,-203,141xm85,-194v0,121,139,176,279,165r0,-333r-58,0v-113,-4,-221,66,-221,168","w":487},"'":{"d":"50,-560r0,-140r30,0r0,140r-30,0","w":130},"(":{"d":"85,-350v0,186,76,334,178,440r-22,20v-107,-112,-186,-265,-186,-460v0,-194,79,-349,186,-460r22,20v-102,107,-178,254,-178,440","w":263},")":{"d":"22,-810v107,112,186,265,186,460v0,194,-79,349,-186,460r-22,-20v103,-107,178,-253,178,-440v0,-185,-76,-334,-178,-440","w":263},"*":{"d":"212,-674r0,130r124,-40r8,28r-124,40r77,104r-24,18r-77,-104r-75,103r-24,-18r75,-103r-122,-40r10,-28r122,40r0,-130r30,0","w":394},"+":{"d":"50,-294r0,-30r165,0r0,-165r30,0r0,165r165,0r0,30r-165,0r0,165r-30,0r0,-165r-165,0","w":460},",":{"d":"62,-60r60,0r0,85v0,47,-16,77,-47,88r-10,-28v24,-5,29,-46,27,-85r-30,0r0,-60","w":184},"-":{"d":"50,-294r0,-30r260,0r0,30r-260,0","w":360},".":{"d":"62,0r0,-60r60,0r0,60r-60,0","w":184},"\/":{"d":"48,46r-28,-12r387,-829r28,12","w":455},"0":{"d":"154,-661v64,-69,164,-69,228,0v122,132,122,491,0,622v-65,69,-164,69,-228,0v-122,-131,-122,-491,0,-622xm366,-636v-55,-64,-141,-63,-196,1v-105,123,-104,449,0,571v55,64,141,64,196,0v106,-123,105,-449,0,-572","w":536},"1":{"d":"320,0r-30,0r0,-646r-168,211r-24,-18r222,-279r0,732","w":526},"2":{"d":"246,-715v109,-1,209,75,209,188v0,55,-34,122,-57,153v-13,17,-32,40,-56,67r-242,277r374,0r0,30r-438,0r287,-331v40,-48,57,-62,84,-119v12,-25,18,-49,18,-72v4,-98,-86,-164,-179,-163v-77,0,-132,33,-166,100r-27,-12v39,-79,104,-118,193,-118","w":526},"3":{"d":"56,1r5,-30v104,14,210,-5,281,-47v90,-53,116,-152,46,-230v-59,-66,-146,-89,-278,-89r195,-275r-224,0r0,-30r282,0r-196,277v111,5,186,35,243,97v65,70,61,173,-5,238v-75,74,-207,106,-349,89","w":526},"4":{"d":"475,-159r0,30r-84,0r0,129r-30,0r0,-129r-318,0r348,-608r0,578r84,0xm95,-159r266,0r0,-465","w":526},"5":{"d":"55,1r5,-30v104,14,209,-5,280,-47v90,-53,117,-151,48,-230v-59,-67,-173,-97,-298,-86r0,-308r273,0r0,30r-243,0r0,247v123,-6,227,28,290,97v65,71,60,173,-6,238v-75,74,-207,106,-349,89","w":526},"6":{"d":"60,-409v-1,-195,95,-311,302,-293r0,30v-182,-17,-271,70,-272,263r0,109v33,-55,96,-99,178,-101v112,-2,208,97,208,208v0,112,-97,208,-208,208v-112,0,-208,-97,-208,-208r0,-216xm268,-371v-96,0,-178,83,-178,178v0,95,82,178,178,178v96,0,178,-83,178,-178v0,-95,-82,-178,-178,-178","w":526},"7":{"d":"60,-670r0,-30r409,0r-237,705r-29,-7r224,-668r-367,0","w":526},"8":{"d":"188,-387v-53,-24,-96,-83,-97,-155v-2,-92,80,-172,172,-172v92,0,174,80,172,172v-1,72,-44,131,-97,155v72,26,131,101,133,194v2,112,-97,208,-208,208v-112,0,-210,-97,-208,-208v1,-93,62,-168,133,-194xm263,-684v-76,0,-142,67,-142,142v0,76,66,142,142,142v76,0,142,-67,142,-142v0,-76,-66,-142,-142,-142xm263,-371v-95,0,-178,83,-178,178v0,95,83,178,178,178v95,0,178,-83,178,-178v0,-95,-83,-178,-178,-178","w":526},"9":{"d":"466,-291v1,195,-95,311,-302,293r0,-30v182,17,271,-70,272,-263r0,-109v-33,55,-96,99,-178,101v-112,2,-208,-97,-208,-208v0,-112,97,-208,208,-208v112,0,208,97,208,208r0,216xm258,-329v96,0,178,-83,178,-178v0,-95,-82,-178,-178,-178v-96,0,-178,83,-178,178v0,95,82,178,178,178","w":526},":":{"d":"62,-476r0,-60r60,0r0,60r-60,0xm62,0r0,-60r60,0r0,60r-60,0","w":184},";":{"d":"62,-476r0,-60r60,0r0,60r-60,0xm62,-60r60,0r0,85v0,47,-16,77,-47,88r-10,-28v24,-5,29,-46,27,-85r-30,0r0,-60","w":184},"<":{"d":"500,-146r-10,28r-440,-170r440,-170r10,28r-367,142","w":550},"=":{"d":"50,-341r0,-30r360,0r0,30r-360,0xm50,-247r0,-30r360,0r0,30r-360,0","w":460},">":{"d":"60,-118r-10,-28r367,-142r-367,-142r10,-28r440,170","w":550},"?":{"d":"242,-715v109,-1,213,74,210,187v-3,97,-50,132,-118,172v-46,28,-81,49,-81,111r0,81r-30,0r0,-81v0,-56,33,-101,97,-137v57,-32,100,-66,102,-146v3,-96,-88,-158,-180,-157v-77,0,-132,33,-165,100r-26,-14v39,-77,103,-116,191,-116xm208,0r0,-60r60,0r0,60r-60,0","w":502},"@":{"d":"285,-303v0,67,61,118,124,117v50,0,90,-17,119,-51r0,-127v-33,-37,-72,-55,-119,-55v-63,-1,-124,49,-124,116xm85,-350v0,180,155,335,335,335v49,0,101,-13,155,-38r12,28v-55,27,-110,40,-167,40v-196,0,-365,-169,-365,-365v0,-196,169,-365,365,-365v196,0,365,169,365,365v0,97,-62,190,-162,190v-35,0,-63,-15,-84,-44v-35,32,-78,48,-130,48v-79,1,-154,-62,-154,-147v0,-84,74,-147,154,-146v45,0,85,14,119,41v2,-68,-38,-120,-101,-120v-44,0,-81,15,-112,46r-22,-22v36,-36,81,-54,134,-54v79,0,131,65,131,149r0,171v0,23,37,48,65,48v82,0,132,-80,132,-160v0,-180,-155,-335,-335,-335v-180,0,-335,155,-335,335","w":840},"A":{"d":"49,-5r268,-712r268,712r-28,10r-73,-194r-334,0r-73,194xm317,-632r-156,413r311,0","w":634},"B":{"d":"416,-530v0,85,-59,135,-135,157v62,13,110,35,144,67v34,32,51,69,51,114v0,59,-30,105,-88,141v-71,44,-195,59,-318,49r0,-698v106,-9,223,3,278,44v44,33,68,74,68,126xm100,-30v102,5,207,-11,266,-42v105,-56,105,-185,0,-240v-62,-32,-159,-47,-266,-44r0,326xm386,-530v0,-121,-143,-151,-286,-142r0,286v92,3,182,-6,228,-40v37,-28,58,-61,58,-104","w":526},"C":{"d":"466,-30r2,30v-80,7,-161,1,-222,-27v-84,-39,-139,-107,-170,-193v-29,-82,-28,-178,0,-260v50,-148,182,-246,392,-221r-2,30v-75,-7,-149,-1,-206,25v-77,35,-126,98,-155,177v-27,75,-25,162,0,238v46,136,168,224,361,201","w":518},"D":{"d":"100,-28v65,4,142,-2,192,-26v76,-36,125,-98,154,-177v27,-75,26,-163,0,-238v-45,-132,-158,-222,-346,-203r0,644xm70,-700v116,-11,198,-1,274,48v95,60,152,162,152,302v0,159,-75,268,-191,323v-64,30,-151,34,-235,27r0,-700","w":551},"E":{"d":"466,0r-396,0r0,-700r396,0r0,30r-366,0r0,264r300,0r0,30r-300,0r0,346r366,0r0,30","w":521},"F":{"d":"100,0r-30,0r0,-700r396,0r0,30r-366,0r0,264r300,0r0,30r-300,0r0,376","w":521},"G":{"d":"451,-308r30,0r0,308v-84,7,-172,3,-235,-27v-84,-39,-139,-107,-170,-193v-34,-98,-25,-212,16,-301v47,-100,156,-185,302,-183v23,0,52,1,87,4r0,31v-81,-9,-159,-5,-221,23v-77,35,-126,98,-155,177v-27,75,-27,163,0,238v45,132,156,220,346,203r0,-280","w":547},"H":{"d":"476,0r-30,0r0,-376r-346,0r0,376r-30,0r0,-700r30,0r0,294r346,0r0,-294r30,0r0,700","w":546},"I":{"d":"70,-700r30,0r0,700r-30,0r0,-700","w":170},"J":{"d":"393,-223v3,123,-81,235,-200,233v-53,0,-103,-23,-148,-68r21,-23v72,70,158,85,230,23v46,-39,67,-95,67,-174r0,-468r30,0r0,477","w":459},"K":{"d":"526,-10r-22,20r-347,-356r-57,53r0,293r-30,0r0,-700r30,0r0,366r405,-377r20,22r-347,322","w":576},"L":{"d":"70,-700r30,0r0,670r338,0r0,30r-368,0r0,-700","w":493},"M":{"d":"100,0r-30,0r0,-724r258,483r258,-483r0,724r-30,0r0,-605r-228,428r-228,-428r0,605","w":656},"N":{"d":"100,0r-30,0r0,-729r387,648r0,-619r30,0r0,729r-387,-648r0,619","w":557},"O":{"d":"409,9v-193,0,-359,-167,-359,-359v0,-192,166,-359,359,-359v193,0,359,167,359,359v0,192,-166,359,-359,359xm409,-679v-177,0,-329,152,-329,329v0,177,152,329,329,329v177,0,329,-152,329,-329v0,-177,-152,-329,-329,-329","w":818},"P":{"d":"100,0r-30,0r0,-700v132,-11,253,10,326,66v117,90,119,240,0,329v-69,52,-171,76,-296,67r0,238xm374,-612v-62,-45,-162,-66,-274,-60r0,404v116,9,210,-12,274,-58v108,-77,107,-208,0,-286","w":536},"Q":{"d":"409,-709v193,0,359,167,359,359v0,93,-32,174,-95,243r95,94r-22,22r-95,-94v-69,63,-150,94,-242,94v-193,0,-359,-167,-359,-359v0,-192,166,-359,359,-359xm409,-679v-177,0,-329,152,-329,329v0,177,152,329,329,329v85,0,159,-28,221,-85r-94,-95r22,-22r94,95v57,-64,86,-138,86,-222v0,-177,-152,-329,-329,-329","w":818},"R":{"d":"486,-469v0,106,-81,179,-176,209r191,251r-24,18r-198,-260v-53,13,-110,18,-179,13r0,238r-30,0r0,-700v132,-11,254,8,326,66v59,47,90,102,90,165xm374,-612v-62,-45,-162,-66,-274,-60r0,404v116,9,210,-12,274,-58v108,-77,107,-208,0,-286","w":546},"S":{"d":"461,-180v2,112,-94,194,-208,192v-95,-1,-165,-47,-194,-118r28,-12v26,60,85,99,166,100v97,2,180,-67,178,-162v-1,-74,-64,-108,-115,-132v-87,-40,-197,-61,-244,-140v-12,-20,-17,-43,-17,-68v-2,-112,94,-194,208,-192v95,1,165,47,194,118r-28,12v-26,-60,-85,-99,-166,-100v-97,-2,-180,67,-178,162v1,74,64,108,115,132v87,40,197,61,244,140v12,20,17,43,17,68","w":516},"T":{"d":"298,0r-30,0r0,-670r-218,0r0,-30r466,0r0,30r-218,0r0,670","w":566},"U":{"d":"279,10v-115,0,-213,-87,-213,-203r0,-507r30,0r0,507v-3,98,86,173,183,173v97,0,183,-75,183,-173r0,-507r30,0r0,507v3,116,-98,203,-213,203","w":558},"V":{"d":"49,-695r28,-9r240,646r240,-646r28,9r-268,723","w":634},"W":{"d":"299,-696r28,-8r59,204r60,-204r28,8r-73,248r110,374r184,-630r28,8r-212,726r-125,-427r-124,427r-212,-726r28,-8r184,630r109,-374","w":773},"X":{"d":"482,8r-203,-329r-203,329r-26,-16r211,-342r-211,-342r26,-16r203,329r203,-329r26,16r-211,342r211,342","w":558},"Y":{"d":"294,0r-30,0r0,-345r-214,-347r26,-16r203,329r203,-329r26,16r-214,347r0,345","w":558},"Z":{"d":"58,-670r0,-30r437,0r-388,670r385,0r0,30r-437,0r388,-670r-385,0","w":550},"[":{"d":"70,-810r170,0r0,30r-140,0r0,860r140,0r0,30r-170,0r0,-920","w":240},"\\":{"d":"435,34r-28,12r-387,-829r28,-12","w":455},"]":{"d":"0,-810r170,0r0,920r-170,0r0,-30r140,0r0,-860r-140,0r0,-30","w":240},"^":{"d":"275,-555r-24,18r-88,-113r-89,113r-24,-18r113,-145","w":325},"_":{"d":"0,0r0,-30r511,0r0,30r-511,0","w":511},"`":{"d":"229,-632r-18,24r-151,-109r18,-24","w":289},"a":{"d":"442,-341v4,-107,-60,-175,-150,-175v-64,0,-118,21,-162,64r-22,-20v51,-49,113,-74,184,-74v117,0,179,80,180,205r0,341r-30,0r0,-52v-45,41,-104,62,-175,62v-113,0,-212,-83,-212,-197v0,-115,98,-195,212,-195v69,0,127,23,175,69r0,-28xm85,-187v0,97,85,167,182,167v75,0,134,-25,175,-76r0,-174v-45,-55,-103,-82,-175,-82v-98,0,-182,67,-182,165"},"b":{"d":"96,-28v114,7,212,-17,274,-71v107,-94,108,-250,0,-343v-64,-55,-156,-79,-274,-70r0,484xm66,-893r30,0r0,351v131,-10,226,17,296,79v119,103,118,280,0,385v-74,66,-189,90,-326,78r0,-893"},"c":{"d":"451,-26r2,30v-132,12,-242,-14,-313,-78v-118,-105,-118,-283,0,-388v72,-64,181,-92,313,-79r-2,30v-121,-12,-223,13,-289,71v-107,95,-107,250,0,344v66,58,168,82,289,70","w":503},"d":{"d":"436,-893r30,0r0,893v-136,12,-252,-12,-326,-78v-118,-105,-118,-282,0,-385v69,-61,168,-89,296,-79r0,-351xm162,-99v63,54,158,78,274,71r0,-484v-120,-9,-209,15,-274,70v-108,92,-107,250,0,343"},"e":{"d":"452,-30r0,30v-135,15,-238,-12,-312,-77v-60,-54,-90,-118,-90,-193v-1,-136,65,-227,162,-262v93,-33,187,-7,240,57v40,47,60,108,60,181r-431,0v-6,83,21,138,80,194v63,59,169,82,291,70xm480,-324v0,-98,-84,-196,-192,-192v-106,4,-191,85,-204,192r396,0","w":562},"f":{"d":"247,-824v-90,-1,-151,76,-151,173r0,115r158,0r0,30r-158,0r0,799r-30,0r0,-799r-45,0r0,-30r45,0r0,-115v-4,-114,75,-203,181,-203v75,1,104,24,149,63r-20,22v-41,-35,-63,-54,-129,-55","w":259},"g":{"d":"267,263v100,0,171,-101,169,-203r0,-59v-125,12,-228,-18,-296,-78v-118,-104,-118,-280,0,-385v74,-66,189,-90,326,-78r0,600v2,119,-81,233,-199,233v-52,0,-101,-23,-148,-68r20,-22v41,40,84,60,128,60xm436,-512v-114,-7,-212,17,-274,71v-107,94,-108,250,0,343v64,55,156,79,274,70r0,-484"},"h":{"d":"453,-340v-4,-112,-81,-176,-191,-176v-65,0,-120,20,-166,61r0,455r-30,0r0,-893r30,0r0,400v49,-35,104,-53,167,-53v126,0,220,76,220,204r0,342r-30,0r0,-340","w":543},"i":{"d":"70,-536r30,0r0,536r-30,0r0,-536xm60,-650r0,-50r50,0r0,50r-50,0","w":170},"j":{"d":"60,-651r0,-49r50,0r0,49r-50,0xm100,134v2,87,-46,158,-124,159v-43,0,-75,-20,-98,-61r26,-14v17,30,41,45,72,45v60,-1,94,-59,94,-129r0,-670r30,0r0,670","w":170},"k":{"d":"520,-13r-18,24r-341,-269r-65,48r0,210r-30,0r0,-893r30,0r0,645r406,-299r18,24r-334,247","w":570},"l":{"d":"66,-893r30,0r0,893r-30,0r0,-893","w":162},"m":{"d":"404,-344v0,-86,-60,-172,-155,-172v-59,0,-110,21,-153,62r0,454r-30,0r0,-536r30,0r0,44v43,-36,94,-54,153,-54v89,0,148,51,170,122v22,-71,80,-121,168,-122v110,0,185,88,185,205r0,341r-30,0r0,-341v-6,-97,-52,-171,-155,-175v-96,-4,-153,84,-153,172r0,344r-30,0r0,-344","w":832},"n":{"d":"454,-342v4,-103,-91,-175,-189,-174v-68,0,-124,20,-169,61r0,455r-30,0r0,-536r30,0r0,44v79,-61,207,-75,296,-19v53,35,92,86,92,169r0,342r-30,0r0,-342","w":544},"o":{"d":"328,10v-149,0,-278,-129,-278,-278v0,-149,129,-278,278,-278v149,0,278,129,278,278v0,149,-129,278,-278,278xm328,-516v-134,0,-248,114,-248,248v0,134,114,248,248,248v134,0,248,-114,248,-248v0,-134,-114,-248,-248,-248","w":656},"p":{"d":"96,293r-30,0r0,-833v136,-12,252,12,326,78v118,105,118,282,0,385v-69,61,-168,89,-296,79r0,291xm370,-441v-63,-54,-158,-78,-274,-71r0,484v120,9,209,-15,274,-70v108,-92,107,-250,0,-343"},"q":{"d":"436,-512v-114,-7,-212,17,-274,71v-107,94,-108,250,0,343v64,55,156,79,274,70r0,-484xm466,293r-30,0r0,-291v-131,10,-226,-17,-296,-79v-119,-103,-118,-280,0,-385v74,-66,189,-90,326,-78r0,833"},"r":{"d":"265,-546r0,30v-68,0,-124,20,-169,61r0,455r-30,0r0,-536r30,0r0,44v49,-36,105,-54,169,-54","w":300},"s":{"d":"414,-148v-1,135,-202,189,-335,134r12,-28v114,47,293,8,293,-106v0,-53,-51,-88,-154,-105v-57,-9,-102,-26,-133,-49v-31,-23,-47,-52,-47,-86v1,-135,202,-189,335,-134r-12,28v-114,-47,-293,-8,-293,106v0,53,51,88,154,105v57,9,102,26,133,49v31,23,47,52,47,86","w":464},"t":{"d":"276,0v-128,11,-210,-61,-210,-188r0,-318r-45,0r0,-30r45,0r0,-174r30,0r0,174r158,0r0,30r-158,0r0,318v-2,107,68,168,176,158","w":296},"u":{"d":"269,10v-114,0,-209,-87,-209,-203r0,-343r30,0r0,343v-3,99,81,173,179,173v98,0,179,-74,179,-173r0,-343r30,0r0,343v3,116,-95,203,-209,203","w":538},"v":{"d":"50,-531r28,-10r185,479r185,-479r28,10r-213,551","w":526},"w":{"d":"302,-531r28,-10r59,153r59,-153r28,10r-71,184r110,285r185,-479r28,10r-213,551r-126,-326r-126,326r-213,-551r28,-10r185,479r110,-285","w":778},"x":{"d":"74,9r-24,-18r208,-259r-208,-259r24,-18r203,253r203,-253r24,18r-208,259r208,259r-24,18r-203,-252","w":554},"y":{"d":"277,-10v84,-2,118,-33,169,-79r0,-447r30,0r0,596v2,119,-81,233,-199,233v-52,0,-101,-23,-148,-68r20,-22v41,40,84,60,128,60v100,0,169,-101,169,-203r0,-107v-51,45,-107,67,-168,67v-110,1,-218,-86,-218,-206r0,-350r30,0r0,352v-4,101,89,175,187,174","w":542},"z":{"d":"50,-506r0,-30r438,0r-381,506r377,0r0,30r-438,0r381,-506r-377,0","w":534},"{":{"d":"130,-442v0,-43,-32,-199,-30,-243v3,-73,66,-129,150,-125r0,30v-67,-3,-118,38,-120,95v-2,40,30,200,30,243v0,37,-21,68,-64,92v43,24,64,55,64,92v0,44,-32,203,-30,243v1,57,54,98,120,95r0,30v-84,3,-147,-51,-150,-125v-2,-44,30,-200,30,-243v0,-37,-52,-74,-83,-80r0,-24v31,-6,83,-43,83,-80","w":250},"|":{"d":"77,-893r30,0r0,1013r-30,0r0,-1013","w":184},"}":{"d":"120,-685v-1,-57,-54,-98,-120,-95r0,-30v84,-3,147,51,150,125v2,44,-30,200,-30,243v0,37,52,74,83,80r0,24v-31,6,-83,43,-83,80v0,43,32,199,30,243v-3,73,-66,129,-150,125r0,-30v67,3,118,-38,120,-95v2,-39,-30,-199,-30,-243v0,-37,21,-68,64,-92v-43,-24,-64,-55,-64,-92v0,-44,32,-203,30,-243","w":250},"~":{"d":"437,-336r24,18v-59,76,-137,79,-215,20v-65,-49,-122,-47,-172,15r-24,-18v59,-75,137,-80,214,-21v62,48,124,49,173,-14","w":511},"\u00a0":{"w":325},"\u00a1":{"d":"77,164r0,-536r30,0r0,536r-30,0xm62,-476r0,-60r60,0r0,60r-60,0","w":184},"\u00a2":{"d":"50,-268v0,-139,105,-243,238,-266r0,-92r30,0r0,87v47,-6,87,-6,135,-2r-2,30v-121,-12,-223,13,-289,71v-107,95,-107,250,0,344v66,58,168,82,289,70r2,30v-48,4,-88,4,-135,-2r0,90r-30,0r0,-95v-133,-24,-238,-125,-238,-265","w":512},"\u00a3":{"d":"33,-30v42,-9,90,-85,90,-142v0,-30,-11,-88,-32,-173r-71,0r0,-30r65,0v-25,-110,-13,-202,57,-263v46,-41,114,-62,202,-62r0,30v-141,-3,-239,68,-241,194v0,29,4,63,12,101r105,0r0,30r-98,0v12,51,31,109,31,173v0,39,-11,74,-34,106v77,-26,158,43,227,43v38,0,69,-11,92,-34r20,22v-30,28,-67,42,-112,42v-57,0,-143,-51,-198,-48v-21,-4,-90,40,-110,41","w":493},"\u00a5":{"d":"119,-260r0,-30r145,0r0,-55r-214,-347r26,-16r203,329r203,-329r26,16r-214,347r0,55r145,0r0,30r-145,0r0,58r145,0r0,30r-145,0r0,172r-30,0r0,-172r-145,0r0,-30r145,0r0,-58r-145,0","w":558},"\u00a6":{"d":"100,-893r30,0r0,440r-30,0r0,-440xm100,-320r30,0r0,440r-30,0r0,-440","w":230},"\u00a7":{"d":"425,-61v0,119,-158,170,-294,139r4,-30v115,27,260,-9,260,-109v0,-70,-86,-89,-162,-95v-92,-8,-173,-76,-173,-163v0,-66,54,-108,110,-129v-55,-21,-82,-56,-82,-105v0,-119,158,-170,294,-139r-4,30v-115,-27,-260,9,-260,109v0,49,40,81,120,90v71,8,129,24,168,65v31,33,47,67,47,104v-2,67,-54,108,-110,129v55,21,82,55,82,104xm273,-183v75,2,150,-46,150,-111v0,-83,-89,-136,-182,-136v-75,0,-151,46,-151,111v0,84,89,134,183,136","w":513},"\u00a8":{"d":"70,-650r0,-50r50,0r0,50r-50,0xm205,-650r0,-50r50,0r0,50r-50,0","w":325},"\u00a9":{"d":"271,-350v0,102,95,172,213,167v18,0,32,-1,43,-2r4,30v-11,1,-26,2,-47,2v-136,5,-243,-78,-243,-197v0,-120,107,-203,244,-198v21,0,36,1,46,2r-4,30v-137,-18,-256,51,-256,166xm420,15v-196,0,-365,-169,-365,-365v0,-196,169,-365,365,-365v196,0,365,169,365,365v0,196,-169,365,-365,365xm420,-685v-180,0,-335,155,-335,335v0,180,155,335,335,335v180,0,335,-155,335,-335v0,-180,-155,-335,-335,-335","w":840},"\u00ab":{"d":"367,-163r-18,24r-169,-131r169,-132r18,24r-137,108xm237,-163r-18,24r-169,-131r169,-132r18,24r-137,108","w":417},"\u00ad":{"d":"50,-294r0,-30r260,0r0,30r-260,0","w":360},"\u00ae":{"d":"60,-525v0,-103,87,-190,190,-190v103,0,190,87,190,190v0,103,-87,190,-190,190v-103,0,-190,-87,-190,-190xm410,-525v0,-87,-73,-160,-160,-160v-87,0,-160,73,-160,160v0,87,73,160,160,160v87,0,160,-73,160,-160xm193,-636v66,-6,124,16,124,70v0,27,-14,47,-43,59r48,63r-24,18r-56,-73v-4,1,-10,1,-19,1r0,63r-30,0r0,-201xm223,-528v47,5,88,-38,47,-66v-11,-8,-27,-12,-47,-12r0,78","w":500},"\u00af":{"d":"70,-660r0,-30r260,0r0,30r-260,0","w":400},"\u00b0":{"d":"137,-454v-44,0,-82,-38,-82,-82v0,-44,38,-82,82,-82v44,0,82,38,82,82v0,44,-38,82,-82,82xm137,-588v-29,0,-52,23,-52,52v0,29,23,52,52,52v29,0,52,-23,52,-52v0,-29,-23,-52,-52,-52","w":274},"\u00b1":{"d":"60,-324r0,-30r165,0r0,-164r30,0r0,164r165,0r0,30r-165,0r0,164r-30,0r0,-164r-165,0xm60,-100r0,-30r360,0r0,30r-360,0","w":480},"\u00b2":{"d":"162,-815v53,0,101,38,101,93v0,28,-17,62,-52,101r-96,110r148,0r0,30r-213,0r139,-160v29,-33,44,-60,44,-81v1,-38,-35,-63,-71,-63v-32,0,-54,13,-67,40r-26,-14v19,-37,50,-56,93,-56","w":318},"\u00b3":{"d":"241,-585v-1,80,-100,115,-189,103r6,-30v67,9,153,-13,153,-73v0,-31,-32,-55,-58,-64v-15,-5,-45,-8,-90,-11r85,-121r-88,0r0,-30r147,0r-88,124v48,6,75,20,100,47v15,17,22,35,22,55","w":291},"\u00b4":{"d":"88,-608r-18,-24r151,-109r18,24","w":309},"\u00b6":{"d":"50,-564v0,-73,63,-136,136,-136r220,0r0,30r-50,0r0,670r-30,0r0,-670r-80,0r0,670r-30,0r0,-428r-30,0v-73,2,-136,-63,-136,-136xm80,-564v0,57,49,108,106,106r30,0r0,-212r-30,0v-57,-2,-106,49,-106,106","w":416},"\u00b7":{"d":"50,-278r0,-60r60,0r0,60r-60,0","w":160},"\u00b8":{"d":"200,65v2,45,-53,60,-93,44r10,-28v17,8,53,5,53,-16v0,-7,-11,-10,-32,-10r-13,0r15,-58r30,8r-6,19v24,5,36,18,36,41","w":270},"\u00b9":{"d":"163,-481r-30,0r0,-260r-59,73r-24,-18r113,-143r0,348","w":223},"\u00bb":{"d":"198,-139r-18,-24r137,-107r-137,-108r18,-24r169,132xm68,-139r-18,-24r137,-107r-137,-108r18,-24r169,132","w":417},"\u00bf":{"d":"260,179v-108,1,-210,-73,-210,-187v0,-75,39,-131,116,-172v47,-25,83,-47,83,-111r0,-81r30,0r0,81v0,59,-33,102,-96,137v-46,25,-62,32,-87,76v-11,20,-16,43,-16,70v-3,93,88,157,179,157v77,0,133,-33,166,-99r27,12v-39,78,-103,117,-192,117xm294,-536r0,60r-60,0r0,-60r60,0","w":425},"\u00c0":{"d":"49,-5r268,-712r268,712r-28,10r-73,-194r-334,0r-73,194xm317,-632r-156,413r311,0xm395,-783r-18,24r-151,-109r18,-24","w":634},"\u00c1":{"d":"49,-5r268,-712r268,712r-28,10r-73,-194r-334,0r-73,194xm317,-632r-156,413r311,0xm259,-759r-18,-24r151,-109r18,24","w":634},"\u00c2":{"d":"49,-5r268,-712r268,712r-28,10r-73,-194r-334,0r-73,194xm317,-632r-156,413r311,0xm400,-777r-24,18r-66,-83r-65,83r-24,-18r89,-115","w":634},"\u00c3":{"d":"49,-5r268,-712r268,712r-28,10r-73,-194r-334,0r-73,194xm317,-632r-156,413r311,0xm404,-857r24,18v-28,52,-80,62,-127,26v-34,-26,-67,-20,-85,19r-24,-18v26,-52,82,-61,127,-25v32,25,68,18,85,-20","w":634},"\u00c4":{"d":"49,-5r268,-712r268,712r-28,10r-73,-194r-334,0r-73,194xm317,-632r-156,413r311,0xm218,-801r0,-50r50,0r0,50r-50,0xm353,-801r0,-50r50,0r0,50r-50,0","w":634},"\u00c5":{"d":"49,-5r268,-712r268,712r-28,10r-73,-194r-334,0r-73,194xm317,-632r-156,413r311,0xm310,-759v-36,0,-67,-31,-67,-67v0,-36,31,-67,67,-67v36,0,67,31,67,67v0,36,-31,67,-67,67xm310,-863v-19,0,-37,18,-37,37v0,19,18,37,37,37v19,0,37,-18,37,-37v0,-19,-18,-37,-37,-37","w":634},"\u00c6":{"d":"397,-635r-219,437r219,0r0,-437xm397,-168r-234,0r-87,175r-26,-14r347,-693r296,0r0,30r-266,0r0,264r200,0r0,30r-200,0r0,346r266,0r0,30r-296,0r0,-168","w":748},"\u00c7":{"d":"381,60v2,45,-53,60,-93,44r10,-28v17,8,53,5,53,-16v0,-7,-11,-10,-32,-10r-13,0r14,-54v-112,-19,-199,-101,-236,-194v-35,-86,-38,-191,-8,-282v50,-148,182,-246,392,-221r-2,30v-75,-7,-149,-1,-206,25v-77,35,-126,98,-155,177v-27,75,-25,162,0,238v46,136,168,224,361,201r2,30v-34,3,-81,5,-117,0r-6,19v24,5,36,18,36,41","w":518},"\u00c8":{"d":"466,0r-396,0r0,-700r396,0r0,30r-366,0r0,264r300,0r0,30r-300,0r0,346r366,0r0,30xm353,-783r-18,24r-151,-109r18,-24","w":521},"\u00c9":{"d":"466,0r-396,0r0,-700r396,0r0,30r-366,0r0,264r300,0r0,30r-300,0r0,346r366,0r0,30xm202,-759r-18,-24r151,-109r18,24","w":521},"\u00ca":{"d":"466,0r-396,0r0,-700r396,0r0,30r-366,0r0,264r300,0r0,30r-300,0r0,346r366,0r0,30xm358,-777r-24,18r-66,-83r-65,83r-24,-18r89,-115","w":521},"\u00cb":{"d":"466,0r-396,0r0,-700r396,0r0,30r-366,0r0,264r300,0r0,30r-300,0r0,346r366,0r0,30xm176,-801r0,-50r50,0r0,50r-50,0xm311,-801r0,-50r50,0r0,50r-50,0","w":521},"\u00cc":{"d":"70,-700r30,0r0,700r-30,0r0,-700xm170,-783r-18,24r-151,-109r18,-24","w":170},"\u00cd":{"d":"70,-700r30,0r0,700r-30,0r0,-700xm34,-759r-18,-24r151,-109r18,24","w":170},"\u00ce":{"d":"70,-700r30,0r0,700r-30,0r0,-700xm175,-777r-24,18r-66,-83r-65,83r-24,-18r89,-115","w":170},"\u00cf":{"d":"70,-700r30,0r0,700r-30,0r0,-700xm-7,-801r0,-50r50,0r0,50r-50,0xm128,-801r0,-50r50,0r0,50r-50,0","w":170},"\u00d1":{"d":"100,0r-30,0r0,-729r387,648r0,-619r30,0r0,729r-387,-648r0,619xm372,-857r24,18v-28,52,-80,62,-127,26v-34,-26,-67,-20,-85,19r-24,-18v26,-52,82,-61,127,-25v32,25,68,18,85,-20","w":557},"\u00d2":{"d":"409,9v-193,0,-359,-167,-359,-359v0,-192,166,-359,359,-359v193,0,359,167,359,359v0,192,-166,359,-359,359xm409,-679v-177,0,-329,152,-329,329v0,177,152,329,329,329v177,0,329,-152,329,-329v0,-177,-152,-329,-329,-329xm494,-783r-18,24r-151,-109r18,-24","w":818},"\u00d3":{"d":"409,9v-193,0,-359,-167,-359,-359v0,-192,166,-359,359,-359v193,0,359,167,359,359v0,192,-166,359,-359,359xm409,-679v-177,0,-329,152,-329,329v0,177,152,329,329,329v177,0,329,-152,329,-329v0,-177,-152,-329,-329,-329xm343,-759r-18,-24r151,-109r18,24","w":818},"\u00d4":{"d":"409,9v-193,0,-359,-167,-359,-359v0,-192,166,-359,359,-359v193,0,359,167,359,359v0,192,-166,359,-359,359xm409,-679v-177,0,-329,152,-329,329v0,177,152,329,329,329v177,0,329,-152,329,-329v0,-177,-152,-329,-329,-329xm499,-777r-24,18r-66,-83r-65,83r-24,-18r89,-115","w":818},"\u00d5":{"d":"409,9v-193,0,-359,-167,-359,-359v0,-192,166,-359,359,-359v193,0,359,167,359,359v0,192,-166,359,-359,359xm409,-679v-177,0,-329,152,-329,329v0,177,152,329,329,329v177,0,329,-152,329,-329v0,-177,-152,-329,-329,-329xm503,-857r24,18v-27,52,-81,61,-127,26v-33,-26,-67,-20,-85,19r-24,-18v26,-52,82,-61,127,-25v33,25,67,18,85,-20","w":818},"\u00d6":{"d":"409,9v-193,0,-359,-167,-359,-359v0,-192,166,-359,359,-359v193,0,359,167,359,359v0,192,-166,359,-359,359xm409,-679v-177,0,-329,152,-329,329v0,177,152,329,329,329v177,0,329,-152,329,-329v0,-177,-152,-329,-329,-329xm317,-801r0,-50r50,0r0,50r-50,0xm452,-801r0,-50r50,0r0,50r-50,0","w":818},"\u00d7":{"d":"82,-129r-22,-22r158,-158r-158,-158r22,-22r158,158r158,-158r22,22r-158,158r158,158r-22,22r-158,-158","w":480},"\u00d8":{"d":"768,-350v0,192,-166,359,-359,359v-93,0,-174,-31,-243,-94r-94,94r-22,-22r94,-94v-63,-69,-94,-150,-94,-243v0,-192,166,-359,359,-359v93,0,173,32,242,95r95,-95r22,22r-95,95v63,69,95,149,95,242xm409,-21v177,0,329,-152,329,-329v0,-85,-29,-158,-86,-221r-465,465v63,57,137,85,222,85xm409,-679v-177,0,-329,152,-329,329v0,85,28,159,85,222r465,-465v-63,-57,-136,-86,-221,-86","w":818},"\u00d9":{"d":"279,10v-115,0,-213,-87,-213,-203r0,-507r30,0r0,507v-3,98,86,173,183,173v97,0,183,-75,183,-173r0,-507r30,0r0,507v3,116,-98,203,-213,203xm364,-783r-18,24r-151,-109r18,-24","w":558},"\u00da":{"d":"279,10v-115,0,-213,-87,-213,-203r0,-507r30,0r0,507v-3,98,86,173,183,173v97,0,183,-75,183,-173r0,-507r30,0r0,507v3,116,-98,203,-213,203xm213,-759r-18,-24r151,-109r18,24","w":558},"\u00db":{"d":"279,10v-115,0,-213,-87,-213,-203r0,-507r30,0r0,507v-3,98,86,173,183,173v97,0,183,-75,183,-173r0,-507r30,0r0,507v3,116,-98,203,-213,203xm369,-777r-24,18r-66,-83r-65,83r-24,-18r89,-115","w":558},"\u00dc":{"d":"279,10v-115,0,-213,-87,-213,-203r0,-507r30,0r0,507v-3,98,86,173,183,173v97,0,183,-75,183,-173r0,-507r30,0r0,507v3,116,-98,203,-213,203xm187,-801r0,-50r50,0r0,50r-50,0xm322,-801r0,-50r50,0r0,50r-50,0","w":558},"\u00dd":{"d":"294,0r-30,0r0,-345r-214,-347r26,-16r203,329r203,-329r26,16r-214,347r0,345xm213,-759r-18,-24r151,-109r18,24","w":558},"\u00de":{"d":"417,-351v0,145,-145,234,-317,213r0,138r-30,0r0,-700r30,0r0,136v173,-20,317,69,317,213xm387,-351v0,-126,-137,-204,-287,-182r0,365v152,19,287,-55,287,-183","w":467},"\u00df":{"d":"456,-84v2,-101,-118,-188,-224,-184r158,-238r-294,0r0,506r-30,0r0,-611v-3,-82,74,-151,153,-149r0,30v-63,-1,-123,54,-123,119r0,75r350,0r-161,240v97,14,202,104,201,212v-1,150,-131,255,-296,250r0,-30v147,5,264,-87,266,-220","w":541},"\u00e0":{"d":"442,-341v4,-107,-60,-175,-150,-175v-64,0,-118,21,-162,64r-22,-20v51,-49,113,-74,184,-74v117,0,179,80,180,205r0,341r-30,0r0,-52v-45,41,-104,62,-175,62v-113,0,-212,-83,-212,-197v0,-115,98,-195,212,-195v69,0,127,23,175,69r0,-28xm85,-187v0,97,85,167,182,167v75,0,134,-25,175,-76r0,-174v-45,-55,-103,-82,-175,-82v-98,0,-182,67,-182,165xm369,-632r-18,24r-151,-109r18,-24"},"\u00e1":{"d":"442,-341v4,-107,-60,-175,-150,-175v-64,0,-118,21,-162,64r-22,-20v51,-49,113,-74,184,-74v117,0,179,80,180,205r0,341r-30,0r0,-52v-45,41,-104,62,-175,62v-113,0,-212,-83,-212,-197v0,-115,98,-195,212,-195v69,0,127,23,175,69r0,-28xm85,-187v0,97,85,167,182,167v75,0,134,-25,175,-76r0,-174v-45,-55,-103,-82,-175,-82v-98,0,-182,67,-182,165xm232,-608r-18,-24r151,-109r18,24"},"\u00e2":{"d":"442,-341v4,-107,-60,-175,-150,-175v-64,0,-118,21,-162,64r-22,-20v51,-49,113,-74,184,-74v117,0,179,80,180,205r0,341r-30,0r0,-52v-45,41,-104,62,-175,62v-113,0,-212,-83,-212,-197v0,-115,98,-195,212,-195v69,0,127,23,175,69r0,-28xm85,-187v0,97,85,167,182,167v75,0,134,-25,175,-76r0,-174v-45,-55,-103,-82,-175,-82v-98,0,-182,67,-182,165xm381,-626r-24,18r-66,-83r-65,83r-24,-18r89,-115"},"\u00e3":{"d":"442,-341v4,-107,-60,-175,-150,-175v-64,0,-118,21,-162,64r-22,-20v51,-49,113,-74,184,-74v117,0,179,80,180,205r0,341r-30,0r0,-52v-45,41,-104,62,-175,62v-113,0,-212,-83,-212,-197v0,-115,98,-195,212,-195v69,0,127,23,175,69r0,-28xm85,-187v0,97,85,167,182,167v75,0,134,-25,175,-76r0,-174v-45,-55,-103,-82,-175,-82v-98,0,-182,67,-182,165xm378,-706r24,18v-28,52,-80,62,-127,26v-34,-26,-67,-20,-85,19r-24,-18v26,-52,82,-61,127,-25v32,25,68,18,85,-20"},"\u00e4":{"d":"442,-341v4,-107,-60,-175,-150,-175v-64,0,-118,21,-162,64r-22,-20v51,-49,113,-74,184,-74v117,0,179,80,180,205r0,341r-30,0r0,-52v-45,41,-104,62,-175,62v-113,0,-212,-83,-212,-197v0,-115,98,-195,212,-195v69,0,127,23,175,69r0,-28xm85,-187v0,97,85,167,182,167v75,0,134,-25,175,-76r0,-174v-45,-55,-103,-82,-175,-82v-98,0,-182,67,-182,165xm194,-650r0,-50r50,0r0,50r-50,0xm329,-650r0,-50r50,0r0,50r-50,0"},"\u00e5":{"d":"442,-341v4,-107,-60,-175,-150,-175v-64,0,-118,21,-162,64r-22,-20v51,-49,113,-74,184,-74v117,0,179,80,180,205r0,341r-30,0r0,-52v-45,41,-104,62,-175,62v-113,0,-212,-83,-212,-197v0,-115,98,-195,212,-195v69,0,127,23,175,69r0,-28xm85,-187v0,97,85,167,182,167v75,0,134,-25,175,-76r0,-174v-45,-55,-103,-82,-175,-82v-98,0,-182,67,-182,165xm276,-608v-36,0,-67,-31,-67,-67v0,-36,31,-67,67,-67v36,0,67,31,67,67v0,36,-31,67,-67,67xm276,-712v-19,0,-37,18,-37,37v0,19,18,37,37,37v19,0,37,-18,37,-37v0,-19,-18,-37,-37,-37"},"\u00e6":{"d":"466,-400v32,-84,116,-144,214,-146v141,-3,204,109,204,252r-411,0v-6,89,21,142,79,198v60,56,165,78,282,66r0,30v-175,22,-305,-41,-362,-147r0,147r-30,0r0,-52v-45,41,-104,62,-175,62v-113,0,-212,-83,-212,-197v0,-115,98,-195,212,-195v69,0,127,23,175,69r0,-27v4,-108,-59,-176,-150,-176v-64,0,-118,21,-162,64r-22,-20v51,-49,113,-74,184,-74v90,1,162,61,174,146xm85,-187v0,97,85,167,182,167v75,0,134,-25,175,-76r0,-174v-45,-55,-103,-82,-175,-82v-98,0,-182,67,-182,165xm852,-324v-1,-100,-62,-196,-172,-192v-106,4,-191,85,-204,192r376,0","w":934},"\u00e7":{"d":"348,61v2,45,-53,60,-93,44r10,-28v17,8,53,5,53,-16v0,-7,-11,-10,-32,-10r-13,0r14,-54v-132,-25,-237,-126,-237,-265v0,-75,30,-139,90,-194v70,-66,181,-91,313,-79r-2,30v-122,-12,-223,13,-289,71v-108,95,-108,249,0,344v66,58,168,82,289,70r2,30v-48,4,-88,4,-136,-2r-5,18v24,5,36,18,36,41","w":503},"\u00e8":{"d":"452,-30r0,30v-135,15,-238,-12,-312,-77v-60,-54,-90,-118,-90,-193v-1,-136,65,-227,162,-262v93,-33,187,-7,240,57v40,47,60,108,60,181r-431,0v-6,83,21,138,80,194v63,59,169,82,291,70xm480,-324v0,-98,-84,-196,-192,-192v-106,4,-191,85,-204,192r396,0xm371,-632r-18,24r-151,-109r18,-24","w":562},"\u00e9":{"d":"452,-30r0,30v-135,15,-238,-12,-312,-77v-60,-54,-90,-118,-90,-193v-1,-136,65,-227,162,-262v93,-33,187,-7,240,57v40,47,60,108,60,181r-431,0v-6,83,21,138,80,194v63,59,169,82,291,70xm480,-324v0,-98,-84,-196,-192,-192v-106,4,-191,85,-204,192r396,0xm228,-608r-18,-24r151,-109r18,24","w":562},"\u00ea":{"d":"452,-30r0,30v-135,15,-238,-12,-312,-77v-60,-54,-90,-118,-90,-193v-1,-136,65,-227,162,-262v93,-33,187,-7,240,57v40,47,60,108,60,181r-431,0v-6,83,21,138,80,194v63,59,169,82,291,70xm480,-324v0,-98,-84,-196,-192,-192v-106,4,-191,85,-204,192r396,0xm381,-626r-24,18r-66,-83r-65,83r-24,-18r89,-115","w":562},"\u00eb":{"d":"452,-30r0,30v-135,15,-238,-12,-312,-77v-60,-54,-90,-118,-90,-193v-1,-136,65,-227,162,-262v93,-33,187,-7,240,57v40,47,60,108,60,181r-431,0v-6,83,21,138,80,194v63,59,169,82,291,70xm480,-324v0,-98,-84,-196,-192,-192v-106,4,-191,85,-204,192r396,0xm199,-650r0,-50r50,0r0,50r-50,0xm334,-650r0,-50r50,0r0,50r-50,0","w":562},"\u00ec":{"d":"70,-536r30,0r0,536r-30,0r0,-536xm170,-632r-18,24r-151,-109r18,-24","w":170},"\u00ed":{"d":"70,-536r30,0r0,536r-30,0r0,-536xm34,-608r-18,-24r151,-109r18,24","w":170},"\u00ee":{"d":"70,-536r30,0r0,536r-30,0r0,-536xm175,-626r-24,18r-66,-83r-65,83r-24,-18r89,-115","w":170},"\u00ef":{"d":"70,-536r30,0r0,536r-30,0r0,-536xm-7,-650r0,-50r50,0r0,50r-50,0xm128,-650r0,-50r50,0r0,50r-50,0","w":170},"\u00f1":{"d":"454,-342v4,-103,-91,-175,-189,-174v-68,0,-124,20,-169,61r0,455r-30,0r0,-536r30,0r0,44v79,-61,207,-75,296,-19v53,35,92,86,92,169r0,342r-30,0r0,-342xm360,-706r24,18v-28,52,-80,62,-127,26v-34,-26,-67,-20,-85,19r-24,-18v26,-52,82,-61,127,-25v32,25,68,18,85,-20","w":544},"\u00f2":{"d":"328,10v-149,0,-278,-129,-278,-278v0,-149,129,-278,278,-278v149,0,278,129,278,278v0,149,-129,278,-278,278xm328,-516v-134,0,-248,114,-248,248v0,134,114,248,248,248v134,0,248,-114,248,-248v0,-134,-114,-248,-248,-248xm413,-632r-18,24r-151,-109r18,-24","w":656},"\u00f3":{"d":"328,10v-149,0,-278,-129,-278,-278v0,-149,129,-278,278,-278v149,0,278,129,278,278v0,149,-129,278,-278,278xm328,-516v-134,0,-248,114,-248,248v0,134,114,248,248,248v134,0,248,-114,248,-248v0,-134,-114,-248,-248,-248xm274,-608r-18,-24r151,-109r18,24","w":656},"\u00f4":{"d":"328,10v-149,0,-278,-129,-278,-278v0,-149,129,-278,278,-278v149,0,278,129,278,278v0,149,-129,278,-278,278xm328,-516v-134,0,-248,114,-248,248v0,134,114,248,248,248v134,0,248,-114,248,-248v0,-134,-114,-248,-248,-248xm418,-626r-24,18r-66,-83r-65,83r-24,-18r89,-115","w":656},"\u00f5":{"d":"328,10v-149,0,-278,-129,-278,-278v0,-149,129,-278,278,-278v149,0,278,129,278,278v0,149,-129,278,-278,278xm328,-516v-134,0,-248,114,-248,248v0,134,114,248,248,248v134,0,248,-114,248,-248v0,-134,-114,-248,-248,-248xm422,-706r24,18v-28,52,-80,62,-127,26v-34,-26,-67,-20,-85,19r-24,-18v26,-52,82,-61,127,-25v32,25,68,18,85,-20","w":656},"\u00f6":{"d":"328,10v-149,0,-278,-129,-278,-278v0,-149,129,-278,278,-278v149,0,278,129,278,278v0,149,-129,278,-278,278xm328,-516v-134,0,-248,114,-248,248v0,134,114,248,248,248v134,0,248,-114,248,-248v0,-134,-114,-248,-248,-248xm236,-650r0,-50r50,0r0,50r-50,0xm371,-650r0,-50r50,0r0,50r-50,0","w":656},"\u00f7":{"d":"55,-294r0,-30r370,0r0,30r-370,0xm210,-129r0,-60r60,0r0,60r-60,0xm210,-429r0,-60r60,0r0,60r-60,0","w":480},"\u00f8":{"d":"606,-268v0,149,-129,278,-278,278v-71,0,-133,-23,-185,-70r-71,71r-22,-22r71,-71v-47,-54,-71,-116,-71,-186v0,-149,129,-278,278,-278v70,0,131,24,184,71r72,-72r22,22r-72,72v48,52,72,114,72,185xm328,-516v-134,0,-248,114,-248,248v0,63,21,118,62,165r350,-351v-47,-41,-101,-62,-164,-62xm328,-20v134,0,248,-114,248,-248v0,-61,-21,-116,-62,-164r-350,351v47,41,102,61,164,61","w":656},"\u00f9":{"d":"269,10v-114,0,-209,-87,-209,-203r0,-343r30,0r0,343v-3,99,81,173,179,173v98,0,179,-74,179,-173r0,-343r30,0r0,343v3,116,-95,203,-209,203xm340,-632r-18,24r-151,-109r18,-24","w":538},"\u00fa":{"d":"269,10v-114,0,-209,-87,-209,-203r0,-343r30,0r0,343v-3,99,81,173,179,173v98,0,179,-74,179,-173r0,-343r30,0r0,343v3,116,-95,203,-209,203xm209,-608r-18,-24r151,-109r18,24","w":538},"\u00fb":{"d":"269,10v-114,0,-209,-87,-209,-203r0,-343r30,0r0,343v-3,99,81,173,179,173v98,0,179,-74,179,-173r0,-343r30,0r0,343v3,116,-95,203,-209,203xm362,-626r-24,18r-66,-83r-65,83r-24,-18r89,-115","w":538},"\u00fc":{"d":"269,10v-114,0,-209,-87,-209,-203r0,-343r30,0r0,343v-3,99,81,173,179,173v98,0,179,-74,179,-173r0,-343r30,0r0,343v3,116,-95,203,-209,203xm180,-650r0,-50r50,0r0,50r-50,0xm315,-650r0,-50r50,0r0,50r-50,0","w":538},"\u00fd":{"d":"277,-10v84,-2,118,-33,169,-79r0,-447r30,0r0,596v2,119,-81,233,-199,233v-52,0,-101,-23,-148,-68r20,-22v41,40,84,60,128,60v100,0,169,-101,169,-203r0,-107v-51,45,-107,67,-168,67v-110,1,-218,-86,-218,-206r0,-350r30,0r0,352v-4,101,89,175,187,174xm202,-608r-18,-24r151,-109r18,24","w":542},"\u00fe":{"d":"60,-778r30,0r0,235v121,-7,218,22,284,80v118,104,118,282,0,385v-67,58,-160,84,-284,80r0,233r-30,0r0,-1013xm352,-442v-61,-53,-150,-77,-262,-71r0,484v111,6,202,-19,262,-71v107,-93,108,-250,0,-342","w":514},"\u00ff":{"d":"277,-10v84,-2,118,-33,169,-79r0,-447r30,0r0,596v2,119,-81,233,-199,233v-52,0,-101,-23,-148,-68r20,-22v41,40,84,60,128,60v100,0,169,-101,169,-203r0,-107v-51,45,-107,67,-168,67v-110,1,-218,-86,-218,-206r0,-350r30,0r0,352v-4,101,89,175,187,174xm176,-650r0,-50r50,0r0,50r-50,0xm311,-650r0,-50r50,0r0,50r-50,0","w":542},"\u0152":{"d":"409,-709v157,3,280,98,329,216r0,-207r396,0r0,30r-366,0r0,264r300,0r0,30r-300,0r0,346r366,0r0,30r-396,0r0,-206v-50,117,-172,212,-329,215v-193,4,-359,-167,-359,-359v0,-192,166,-362,359,-359xm409,-679v-177,0,-329,152,-329,329v0,177,152,329,329,329v177,0,329,-152,329,-329v0,-177,-152,-329,-329,-329","w":1191},"\u0153":{"d":"328,10v-149,0,-278,-129,-278,-278v0,-149,129,-280,278,-278v124,2,226,83,260,180v18,-76,80,-140,142,-164v94,-36,194,-11,248,55v39,48,60,108,60,181r-431,0v-6,85,20,138,80,194v63,59,169,82,291,70r0,30v-190,25,-337,-55,-386,-181v-32,103,-136,191,-264,191xm328,-516v-134,0,-248,114,-248,248v0,134,114,248,248,248v134,0,248,-114,248,-248v0,-134,-114,-248,-248,-248xm1006,-324v0,-98,-84,-196,-192,-192v-106,4,-191,85,-204,192r396,0","w":1088},"\u0178":{"d":"294,0r-30,0r0,-345r-214,-347r26,-16r203,329r203,-329r26,16r-214,347r0,345xm187,-801r0,-50r50,0r0,50r-50,0xm322,-801r0,-50r50,0r0,50r-50,0","w":558},"\u02c6":{"d":"249,-626r-24,18r-66,-83r-65,83r-24,-18r89,-115","w":319},"\u02dc":{"d":"273,-706r24,18v-27,52,-81,61,-127,26v-33,-26,-67,-20,-85,19r-24,-18v26,-52,82,-61,127,-25v33,25,67,18,85,-20","w":358},"\u2013":{"d":"50,-294r0,-30r617,0r0,30r-617,0","w":717},"\u2014":{"d":"50,-294r0,-30r846,0r0,30r-846,0","w":946},"\u2018":{"d":"122,-524r-60,0r0,-85v0,-47,16,-77,47,-88r10,28v-24,5,-29,46,-27,85r30,0r0,60","w":184},"\u2019":{"d":"62,-700r60,0r0,85v0,47,-16,77,-47,88r-10,-28v24,-5,29,-46,27,-85r-30,0r0,-60","w":184},"\u201a":{"d":"62,-130r60,0r0,85v0,47,-16,77,-47,88r-10,-28v24,-5,29,-46,27,-85r-30,0r0,-60","w":184},"\u201c":{"d":"122,-524r-60,0r0,-85v0,-47,16,-77,47,-88r10,28v-24,5,-29,46,-27,85r30,0r0,60xm242,-524r-60,0r0,-85v0,-47,16,-77,47,-88r10,28v-24,5,-29,46,-27,85r30,0r0,60","w":304},"\u201d":{"d":"182,-700r60,0r0,85v0,47,-16,77,-47,88r-10,-28v24,-5,29,-46,27,-85r-30,0r0,-60xm62,-700r60,0r0,85v0,47,-16,77,-47,88r-10,-28v24,-5,29,-46,27,-85r-30,0r0,-60","w":304},"\u201e":{"d":"62,-130r60,0r0,85v0,47,-16,77,-47,88r-10,-28v24,-5,29,-46,27,-85r-30,0r0,-60xm182,-130r60,0r0,85v0,47,-16,77,-47,88r-10,-28v24,-5,29,-46,27,-85r-30,0r0,-60","w":304},"\u2022":{"d":"130,-220v-43,0,-80,-37,-80,-80v0,-43,37,-80,80,-80v43,0,80,37,80,80v0,43,-37,80,-80,80","w":260},"\u2026":{"d":"480,0r0,-60r60,0r0,60r-60,0xm276,0r0,-60r60,0r0,60r-60,0xm72,0r0,-60r60,0r0,60r-60,0","w":612},"\u2039":{"d":"237,-163r-18,24r-169,-131r169,-132r18,24r-137,108","w":287},"\u203a":{"d":"68,-139r-18,-24r137,-107r-137,-108r18,-24r169,132","w":287},"\u20ac":{"d":"423,3v-189,4,-311,-130,-335,-292r-38,0r0,-30r35,0v-1,-10,-1,-47,0,-58r-35,0r0,-30r38,0v22,-164,146,-301,336,-297v27,0,51,1,73,3r-2,30v-118,-12,-215,8,-280,73v-52,52,-85,115,-97,191r272,0r0,30r-275,0v-1,11,-1,48,0,58r275,0r0,30r-271,0v23,145,134,265,304,262v26,0,50,-1,72,-3r2,30v-22,2,-47,3,-74,3","w":547},"\u2122":{"d":"188,-470r-30,0r0,-200r-98,0r0,-30r229,0r0,30r-101,0r0,200xm423,-470r-72,-135r0,135r-30,0r0,-254r102,190r102,-190r0,254r-30,0r0,-135","w":617}}});
